{"learner":{"attributes":{"best_iteration":"891","best_score":"989.5790531599246"},"feature_names":["Store","DayOfWeek","Open","Promo","SchoolHoliday","CompetitionDistance","CompetitionOpenSinceMonth","CompetitionOpenSinceYear","Promo2","Promo2SinceWeek","Promo2SinceYear","year","month","day","dayofweek","WeekOfYear","IsMonthEnd","IsFriday","StateHoliday_0","StateHoliday_a","StateHoliday_b","StateHoliday_c","StateHoliday_nan","StoreType_a","StoreType_b","StoreType_c","StoreType_d","StoreType_nan","Assortment_a","Assortment_b","Assortment_c","Assortment_nan","PromoInterval_Feb,May,Aug,Nov","PromoInterval_Jan,Apr,Jul,Oct","PromoInterval_Mar,Jun,Sept,Dec","PromoInterval_nan","PublicHoliday","BeforeHoliday","AfterHoliday","Sales_Lag1","Sales_Lag7","Sales_Rolling7"],"feature_types":["int","int","int","int","int","float","float","float","int","float","float","int","int","int","int","int","int","int","i","i","i","i","i","i","i","i","i","i","i","i","i","i","i","i","i","i","int","int","int","float","float","float"],"gradient_booster":{"model":{"cats":{"enc":[],"feature_segments":[],"sorted_idx":[]},"gbtree_model_param":{"num_parallel_tree":"1","num_trees":"942"},"iteration_indptr":[0,1,2,3,4,5,6,7,8,9,10,11,12,13,14,15,16,17,18,19,20,21,22,23,24,25,26,27,28,29,30,31,32,33,34,35,36,37,38,39,40,41,42,43,44,45,46,47,48,49,50,51,52,53,54,55,56,57,58,59,60,61,62,63,64,65,66,67,68,69,70,71,72,73,74,75,76,77,78,79,80,81,82,83,84,85,86,87,88,89,90,91,92,93,94,95,96,97,98,99,100,101,102,103,104,105,106,107,108,109,110,111,112,113,114,115,116,117,118,119,120,121,122,123,124,125,126,127,128,129,130,131,132,133,134,135,136,137,138,139,140,141,142,143,144,145,146,147,148,149,150,151,152,153,154,155,156,157,158,159,160,161,162,163,164,165,166,167,168,169,170,171,172,173,174,175,176,177,178,179,180,181,182,183,184,185,186,187,188,189,190,191,192,193,194,195,196,197,198,199,200,201,202,203,204,205,206,207,208,209,210,211,212,213,214,215,216,217,218,219,220,221,222,223,224,225,226,227,228,229,230,231,232,233,234,235,236,237,238,239,240,241,242,243,244,245,246,247,248,249,250,251,252,253,254,255,256,257,258,259,260,261,262,263,264,265,266,267,268,269,270,271,272,273,274,275,276,277,278,279,280,281,282,283,284,285,286,287,288,289,290,291,292,293,294,295,296,297,298,299,300,301,302,303,304,305,306,307,308,309,310,311,312,313,314,315,316,317,318,319,320,321,322,323,324,325,326,327,328,329,330,331,332,333,334,335,336,337,338,339,340,341,342,343,344,345,346,347,348,349,350,351,352,353,354,355,356,357,358,359,360,361,362,363,364,365,366,367,368,369,370,371,372,373,374,375,376,377,378,379,380,381,382,383,384,385,386,387,388,389,390,391,392,393,394,395,396,397,398,399,400,401,402,403,404,405,406,407,408,409,410,411,412,413,414,415,416,417,418,419,420,421,422,423,424,425,426,427,428,429,430,431,432,433,434,435,436,437,438,439,440,441,442,443,444,445,446,447,448,449,450,451,452,453,454,455,456,457,458,459,460,461,462,463,464,465,466,467,468,469,470,471,472,473,474,475,476,477,478,479,480,481,482,483,484,485,486,487,488,489,490,491,492,493,494,495,496,497,498,499,500,501,502,503,504,505,506,507,508,509,510,511,512,513,514,515,516,517,518,519,520,521,522,523,524,525,526,527,528,529,530,531,532,533,534,535,536,537,538,539,540,541,542,543,544,545,546,547,548,549,550,551,552,553,554,555,556,557,558,559,560,561,562,563,564,565,566,567,568,569,570,571,572,573,574,575,576,577,578,579,580,581,582,583,584,585,586,587,588,589,590,591,592,593,594,595,596,597,598,599,600,601,602,603,604,605,606,607,608,609,610,611,612,613,614,615,616,617,618,619,620,621,622,623,624,625,626,627,628,629,630,631,632,633,634,635,636,637,638,639,640,641,642,643,644,645,646,647,648,649,650,651,652,653,654,655,656,657,658,659,660,661,662,663,664,665,666,667,668,669,670,671,672,673,674,675,676,677,678,679,680,681,682,683,684,685,686,687,688,689,690,691,692,693,694,695,696,697,698,699,700,701,702,703,704,705,706,707,708,709,710,711,712,713,714,715,716,717,718,719,720,721,722,723,724,725,726,727,728,729,730,731,732,733,734,735,736,737,738,739,740,741,742,743,744,745,746,747,748,749,750,751,752,753,754,755,756,757,758,759,760,761,762,763,764,765,766,767,768,769,770,771,772,773,774,775,776,777,778,779,780,781,782,783,784,785,786,787,788,789,790,791,792,793,794,795,796,797,798,799,800,801,802,803,804,805,806,807,808,809,810,811,812,813,814,815,816,817,818,819,820,821,822,823,824,825,826,827,828,829,830,831,832,833,834,835,836,837,838,839,840,841,842,843,844,845,846,847,848,849,850,851,852,853,854,855,856,857,858,859,860,861,862,863,864,865,866,867,868,869,870,871,872,873,874,875,876,877,878,879,880,881,882,883,884,885,886,887,888,889,890,891,892,893,894,895,896,897,898,899,900,901,902,903,904,905,906,907,908,909,910,911,912,913,914,915,916,917,918,919,920,921,922,923,924,925,926,927,928,929,930,931,932,933,934,935,936,937,938,939,940,941,942],"tree_info":[0,0,0,0,0,0,0,0,0,0,0,0,0,0,0,0,0,0,0,0,0,0,0,0,0,0,0,0,0,0,0,0,0,0,0,0,0,0,0,0,0,0,0,0,0,0,0,0,0,0,0,0,0,0,0,0,0,0,0,0,0,0,0,0,0,0,0,0,0,0,0,0,0,0,0,0,0,0,0,0,0,0,0,0,0,0,0,0,0,0,0,0,0,0,0,0,0,0,0,0,0,0,0,0,0,0,0,0,0,0,0,0,0,0,0,0,0,0,0,0,0,0,0,0,0,0,0,0,0,0,0,0,0,0,0,0,0,0,0,0,0,0,0,0,0,0,0,0,0,0,0,0,0,0,0,0,0,0,0,0,0,0,0,0,0,0,0,0,0,0,0,0,0,0,0,0,0,0,0,0,0,0,0,0,0,0,0,0,0,0,0,0,0,0,0,0,0,0,0,0,0,0,0,0,0,0,0,0,0,0,0,0,0,0,0,0,0,0,0,0,0,0,0,0,0,0,0,0,0,0,0,0,0,0,0,0,0,0,0,0,0,0,0,0,0,0,0,0,0,0,0,0,0,0,0,0,0,0,0,0,0,0,0,0,0,0,0,0,0,0,0,0,0,0,0,0,0,0,0,0,0,0,0,0,0,0,0,0,0,0,0,0,0,0,0,0,0,0,0,0,0,0,0,0,0,0,0,0,0,0,0,0,0,0,0,0,0,0,0,0,0,0,0,0,0,0,0,0,0,0,0,0,0,0,0,0,0,0,0,0,0,0,0,0,0,0,0,0,0,0,0,0,0,0,0,0,0,0,0,0,0,0,0,0,0,0,0,0,0,0,0,0,0,0,0,0,0,0,0,0,0,0,0,0,0,0,0,0,0,0,0,0,0,0,0,0,0,0,0,0,0,0,0,0,0,0,0,0,0,0,0,0,0,0,0,0,0,0,0,0,0,0,0,0,0,0,0,0,0,0,0,0,0,0,0,0,0,0,0,0,0,0,0,0,0,0,0,0,0,0,0,0,0,0,0,0,0,0,0,0,0,0,0,0,0,0,0,0,0,0,0,0,0,0,0,0,0,0,0,0,0,0,0,0,0,0,0,0,0,0,0,0,0,0,0,0,0,0,0,0,0,0,0,0,0,0,0,0,0,0,0,0,0,0,0,0,0,0,0,0,0,0,0,0,0,0,0,0,0,0,0,0,0,0,0,0,0,0,0,0,0,0,0,0,0,0,0,0,0,0,0,0,0,0,0,0,0,0,0,0,0,0,0,0,0,0,0,0,0,0,0,0,0,0,0,0,0,0,0,0,0,0,0,0,0,0,0,0,0,0,0,0,0,0,0,0,0,0,0,0,0,0,0,0,0,0,0,0,0,0,0,0,0,0,0,0,0,0,0,0,0,0,0,0,0,0,0,0,0,0,0,0,0,0,0,0,0,0,0,0,0,0,0,0,0,0,0,0,0,0,0,0,0,0,0,0,0,0,0,0,0,0,0,0,0,0,0,0,0,0,0,0,0,0,0,0,0,0,0,0,0,0,0,0,0,0,0,0,0,0,0,0,0,0,0,0,0,0,0,0,0,0,0,0,0,0,0,0,0,0,0,0,0,0,0,0,0,0,0,0,0,0,0,0,0,0,0,0,0,0,0,0,0,0,0,0,0,0,0,0,0,0,0,0,0,0,0,0,0,0,0,0,0,0,0,0,0,0,0,0,0,0,0,0,0,0,0,0,0,0,0,0,0,0,0,0,0,0,0,0,0,0,0,0,0,0,0,0,0,0,0,0,0,0,0,0,0,0,0,0,0,0,0,0,0,0,0,0,0,0,0,0,0,0,0,0,0,0,0,0,0,0,0,0,0,0,0,0,0,0,0,0,0,0,0,0,0,0,0,0,0,0,0,0,0,0,0,0,0,0,0,0,0,0,0,0,0,0,0,0,0,0,0,0,0,0,0,0,0,0,0,0,0,0,0,0,0,0,0,0,0,0,0,0,0,0,0,0,0,0,0,0,0,0,0,0,0,0,0,0,0,0,0,0,0,0,0,0,0,0,0,0,0,0,0,0,0,0,0,0,0,0,0,0,0,0,0,0,0,0,0,0,0,0,0,0,0,0,0,0,0,0],"trees":[{"base_weights":[-1.1447842E-4,-1.0289308E3,3.2933447E3,-1.8536731E3,-7.116888E-1,2.514889E3,8.446933E3,-1.5785497E2,-2.3402593E3,1.9930553E3,-3.0612967E2,1.8697944E3,3.8819197E3,6.868193E3,1.1491874E4,-1.9482446E3,1.2993093E3,-2.99779E3,-1.7885938E3,-1.535064E2,3.601234E3,-7.956824E2,2.3253812E2,4.086737E3,1.620627E3,3.4928687E3,5.2779873E3,6.2318247E3,9.118563E3,1.0406734E4,1.4177205E4,-1.3474988E2,-3.5353443E1,7.9134874E0,1.4462285E2,-1.7276962E2,-1.2963321E2,-7.980546E1,-1.2489166E2,-4.516801E1,7.167269E1,1.2349908E2,2.5286063E2,-2.810301E1,-7.852357E1,2.4760378E1,-3.126712E1,8.9452736E1,2.840235E2,7.040509E1,1.3717754E2,1.0930418E2,1.950829E2,3.6790106E2,2.4736845E2,2.3711397E2,3.3654178E2,3.0223416E2,4.7811197E2,5.0893457E2,8.802796E2,7.307973E2,4.0210275E2],"categories":[],"categories_nodes":[],"categories_segments":[],"categories_sizes":[],"default_left":[0,0,0,0,0,0,0,0,0,0,0,0,0,0,0,0,0,0,0,0,0,0,0,0,0,0,0,0,0,0,0,0,0,0,0,0,0,0,0,0,0,0,0,0,0,0,0,0,0,0,0,0,0,0,0,0,0,0,0,0,0,0,0],"id":0,"left_children":[1,3,5,7,9,11,13,15,17,19,21,23,25,27,29,31,33,35,37,39,41,43,45,47,49,51,53,55,57,59,61,-1,-1,-1,-1,-1,-1,-1,-1,-1,-1,-1,-1,-1,-1,-1,-1,-1,-1,-1,-1,-1,-1,-1,-1,-1,-1,-1,-1,-1,-1,-1,-1],"loss_changes":[2.6627227E12,5.0772817E11,7.504255E11,2.741481E11,1.6227498E11,1.4330613E11,1.17922726E11,1.932588E11,9.363928E10,1.2220329E11,6.094033E10,6.098387E10,2.8279767E10,2.3096721E10,2.4271389E10,3.080478E10,7.423849E10,2.182552E10,1.9160924E10,1.8045086E10,3.3321075E10,2.1912838E10,2.4793682E10,4.0838234E10,2.3684039E10,2.175959E10,7.7710295E9,9.338847E9,4.800086E9,9.624748E9,6.3669207E9,0E0,0E0,0E0,0E0,0E0,0E0,0E0,0E0,0E0,0E0,0E0,0E0,0E0,0E0,0E0,0E0,0E0,0E0,0E0,0E0,0E0,0E0,0E0,0E0,0E0,0E0,0E0,0E0,0E0,0E0,0E0,0E0],"parents":[2147483647,0,0,1,1,2,2,3,3,4,4,5,5,6,6,7,7,8,8,9,9,10,10,11,11,12,12,13,13,14,14,15,15,16,16,17,17,18,18,19,19,20,20,21,21,22,22,23,23,24,24,25,25,26,26,27,27,28,28,29,29,30,30],"right_children":[2,4,6,8,10,12,14,16,18,20,22,24,26,28,30,32,34,36,38,40,42,44,46,48,50,52,54,56,58,60,62,-1,-1,-1,-1,-1,-1,-1,-1,-1,-1,-1,-1,-1,-1,-1,-1,-1,-1,-1,-1,-1,-1,-1,-1,-1,-1,-1,-1,-1,-1,-1,-1],"split_conditions":[8.471E3,5.876E3,1.4069E4,2E0,2E0,1.0815E4,1.6074429E4,1E0,4.57E3,1E0,7.05E3,2E0,1.2025E4,1.7252E4,2.0625E4,6.435857E3,4.987E3,4.3165713E3,6E0,9.024E3,6.8665713E3,6E0,6E0,1E0,1E0,1E0,2E0,1E0,1E0,7E0,1E0,-1.3474988E2,-3.5353443E1,7.9134874E0,1.4462285E2,-1.7276962E2,-1.2963321E2,-7.980546E1,-1.2489166E2,-4.516801E1,7.167269E1,1.2349908E2,2.5286063E2,-2.810301E1,-7.852357E1,2.4760378E1,-3.126712E1,8.9452736E1,2.840235E2,7.040509E1,1.3717754E2,1.0930418E2,1.950829E2,3.6790106E2,2.4736845E2,2.3711397E2,3.3654178E2,3.0223416E2,4.7811197E2,5.0893457E2,8.802796E2,7.307973E2,4.0210275E2],"split_indices":[39,39,39,1,1,39,41,3,39,3,39,1,41,39,39,41,41,41,1,41,41,1,1,3,17,3,1,3,3,1,37,0,0,0,0,0,0,0,0,0,0,0,0,0,0,0,0,0,0,0,0,0,0,0,0,0,0,0,0,0,0,0,0],"split_type":[0,0,0,0,0,0,0,0,0,0,0,0,0,0,0,0,0,0,0,0,0,0,0,0,0,0,0,0,0,0,0,0,0,0,0,0,0,0,0,0,0,0,0,0,0,0,0,0,0,0,0,0,0,0,0,0,0,0,0,0,0,0,0],"sum_hessian":[7.85781E5,5.98724E5,1.87057E5,3.32235E5,2.66489E5,1.62511E5,2.4546E4,7.4075E4,2.5816E5,3.5399E4,2.3109E5,1.10411E5,5.21E4,1.6167E4,8.379E3,3.3237E4,4.0838E4,1.17777E5,1.40383E5,1.5162E4,2.0237E4,1.21064E5,1.10026E5,1.1154E4,9.9257E4,4.0748E4,1.1352E4,1.2606E4,3.561E3,5.971E3,2.408E3,2.0751E4,1.2486E4,2.3796E4,1.7042E4,5.5303E4,6.2474E4,1.10419E5,2.9964E4,1.0297E4,4.865E3,1.139E4,8.847E3,9.3018E4,2.8046E4,8.4235E4,2.5791E4,4.569E3,6.585E3,8.3463E4,1.5794E4,9.711E3,3.1037E4,1.554E3,9.798E3,3.166E3,9.44E3,4.51E2,3.11E3,5.79E3,1.81E2,2.246E3,1.62E2],"tree_param":{"num_deleted":"0","num_feature":"42","num_nodes":"63","size_leaf_vector":"1"}},{"base_weights":[6.4506545E-3,-9.4607355E2,3.2336008E3,-1.7287158E3,7.7577225E1,2.466493E3,8.0247437E3,-1.2504312E2,-2.1825989E3,1.9927336E3,-2.1138855E2,1.8636561E3,3.746975E3,6.5248667E3,1.0917582E4,-1.8288378E3,1.2618016E3,-2.823586E3,-1.6424777E3,-6.5730675E1,3.5215227E3,-6.5563635E2,3.4021613E2,3.9751501E3,1.6301631E3,6.0751616E3,3.5300146E3,5.6872046E3,8.0934673E3,9.886632E3,1.3468815E4,-1.2604821E2,-3.011183E1,6.1961484E-1,1.293806E2,-1.6379419E2,-1.2214551E2,-7.288144E1,-1.1588273E2,-3.8912045E1,7.322979E1,1.25133484E2,2.510824E2,-2.14631E1,-7.022895E1,2.9565886E1,-2.4115145E1,9.029049E1,2.7443723E2,7.1333855E1,1.3592729E2,2.1466946E2,3.658485E2,1.602125E2,2.3651811E2,2.2234013E2,3.0626047E2,2.6695856E2,4.2956964E2,4.8349228E2,8.3650745E2,6.9427374E2,3.82121E2],"categories":[],"categories_nodes":[],"categories_segments":[],"categories_sizes":[],"default_left":[0,0,0,0,0,0,0,0,0,0,0,0,0,0,0,0,0,0,0,0,0,0,0,0,0,0,0,0,0,0,0,0,0,0,0,0,0,0,0,0,0,0,0,0,0,0,0,0,0,0,0,0,0,0,0,0,0,0,0,0,0,0,0],"id":1,"left_children":[1,3,5,7,9,11,13,15,17,19,21,23,25,27,29,31,33,35,37,39,41,43,45,47,49,51,53,55,57,59,61,-1,-1,-1,-1,-1,-1,-1,-1,-1,-1,-1,-1,-1,-1,-1,-1,-1,-1,-1,-1,-1,-1,-1,-1,-1,-1,-1,-1,-1,-1,-1,-1],"loss_changes":[2.403898E12,4.870359E11,6.536879E11,2.5076603E11,1.4577207E11,1.1834242E11,1.0643571E11,1.7958026E11,9.2959015E10,1.0867411E11,5.6085115E10,5.138786E10,2.4767627E10,2.1198078E10,2.1907898E10,2.8950667E10,6.940149E10,2.113418E10,1.8184143E10,1.6049253E10,3.0274355E10,2.1492675E10,2.108759E10,3.4069529E10,2.078466E10,9.221751E9,1.7539793E10,5.70078E9,7.669809E9,8.698069E9,5.742035E9,0E0,0E0,0E0,0E0,0E0,0E0,0E0,0E0,0E0,0E0,0E0,0E0,0E0,0E0,0E0,0E0,0E0,0E0,0E0,0E0,0E0,0E0,0E0,0E0,0E0,0E0,0E0,0E0,0E0,0E0,0E0,0E0],"parents":[2147483647,0,0,1,1,2,2,3,3,4,4,5,5,6,6,7,7,8,8,9,9,10,10,11,11,12,12,13,13,14,14,15,15,16,16,17,17,18,18,19,19,20,20,21,21,22,22,23,23,24,24,25,25,26,26,27,27,28,28,29,29,30,30],"right_children":[2,4,6,8,10,12,14,16,18,20,22,24,26,28,30,32,34,36,38,40,42,44,46,48,50,52,54,56,58,60,62,-1,-1,-1,-1,-1,-1,-1,-1,-1,-1,-1,-1,-1,-1,-1,-1,-1,-1,-1,-1,-1,-1,-1,-1,-1,-1,-1,-1,-1,-1,-1,-1],"split_conditions":[8.605E3,5.969E3,1.4069E4,2E0,2E0,1.0925E4,1.6074429E4,1E0,4.621E3,1E0,7.227E3,2E0,2E0,1.6322E4,2.0625E4,6.5392856E3,4.8057144E3,4.3165713E3,6E0,9.128429E3,7.0492856E3,6E0,6E0,1E0,1E0,1E0,1.2025E4,1E0,1E0,7E0,1E0,-1.2604821E2,-3.011183E1,6.1961484E-1,1.293806E2,-1.6379419E2,-1.2214551E2,-7.288144E1,-1.1588273E2,-3.8912045E1,7.322979E1,1.25133484E2,2.510824E2,-2.14631E1,-7.022895E1,2.9565886E1,-2.4115145E1,9.029049E1,2.7443723E2,7.1333855E1,1.3592729E2,2.1466946E2,3.658485E2,1.602125E2,2.3651811E2,2.2234013E2,3.0626047E2,2.6695856E2,4.2956964E2,4.8349228E2,8.3650745E2,6.9427374E2,3.82121E2],"split_indices":[39,39,39,1,1,39,41,3,39,3,39,1,1,39,39,41,41,41,1,41,41,1,1,3,17,3,41,3,3,1,37,0,0,0,0,0,0,0,0,0,0,0,0,0,0,0,0,0,0,0,0,0,0,0,0,0,0,0,0,0,0,0,0],"split_type":[0,0,0,0,0,0,0,0,0,0,0,0,0,0,0,0,0,0,0,0,0,0,0,0,0,0,0,0,0,0,0,0,0,0,0,0,0,0,0,0,0,0,0,0,0,0,0,0,0,0,0,0,0,0,0,0,0,0,0,0,0,0,0],"sum_hessian":[7.85781E5,6.07918E5,1.77863E5,3.44515E5,2.63403E5,1.53317E5,2.4546E4,7.5998E4,2.68517E5,3.4532E4,2.28871E5,1.04243E5,4.9074E4,1.6167E4,8.379E3,3.4102E4,4.1896E4,1.22791E5,1.45726E5,1.4717E4,1.9815E4,1.26772E5,1.02099E5,1.0378E4,9.3865E4,4.181E3,4.4893E4,1.0542E4,5.625E3,5.971E3,2.408E3,2.18E4,1.2302E4,2.157E4,2.0326E4,5.6113E4,6.6678E4,1.14407E5,3.1319E4,1.0042E4,4.675E3,1.1802E4,8.013E3,9.7349E4,2.9423E4,7.822E4,2.3879E4,4.266E3,6.112E3,7.9082E4,1.4783E4,1.719E3,2.462E3,3.5313E4,9.58E3,2.754E3,7.788E3,8.63E2,4.762E3,5.79E3,1.81E2,2.246E3,1.62E2],"tree_param":{"num_deleted":"0","num_feature":"42","num_nodes":"63","size_leaf_vector":"1"}},{"base_weights":[1.2468753E-2,-9.7933203E2,2.8224092E3,-1.8244614E3,-1.9145882E2,2.1118103E3,7.323899E3,-2.5888909E3,-8.6328E2,-7.6002985E2,1.0071026E3,1.4781051E3,3.1981719E3,5.975578E3,1.0325862E4,-3.1460562E3,-2.2139636E3,6.5650397E2,-1.49432E3,-1.1459241E3,1.8080121E2,3.6291213E3,1.7189943E2,3.4425728E3,1.2468219E3,5.3926123E3,2.9920532E3,5.2569116E3,7.6889175E3,9.355736E3,1.2795821E4,-1.6045595E2,-8.462086E1,-1.18122696E2,-7.382852E1,-3.1464914E1,6.4370316E1,-1.06939285E2,-5.1448048E1,-6.509689E1,-9.23008E0,-1.5182527E0,6.1945797E1,1.5551022E2,2.6380334E2,-8.838617E0,3.469572E1,6.942473E1,2.4543079E2,7.431791E1,2.0077625E1,1.779786E2,3.3037512E2,1.2848172E2,1.8976976E2,2.2477237E2,2.9458594E2,2.5362608E2,4.0809567E2,4.7877676E2,1.8052655E2,5.4214954E2,6.976673E2],"categories":[],"categories_nodes":[],"categories_segments":[],"categories_sizes":[],"default_left":[0,0,0,0,0,0,0,0,0,0,0,0,0,0,0,0,0,0,0,0,0,0,0,0,0,0,0,0,0,0,0,0,0,0,0,0,0,0,0,0,0,0,0,0,0,0,0,0,0,0,0,0,0,0,0,0,0,0,0,0,0,0,0],"id":2,"left_children":[1,3,5,7,9,11,13,15,17,19,21,23,25,27,29,31,33,35,37,39,41,43,45,47,49,51,53,55,57,59,61,-1,-1,-1,-1,-1,-1,-1,-1,-1,-1,-1,-1,-1,-1,-1,-1,-1,-1,-1,-1,-1,-1,-1,-1,-1,-1,-1,-1,-1,-1,-1,-1],"loss_changes":[2.1719818E12,3.8843403E11,6.474794E11,2.0679754E11,2.057419E11,1.2035064E11,1.1164031E11,3.2742244E10,1.195775E11,7.434461E10,2.1272589E11,5.0163925E10,2.911653E10,2.3411229E10,2.0372324E10,5.775098E9,1.0257891E10,2.96767E10,2.6420298E10,2.1778465E10,1.3308236E10,2.003914E10,1.3409486E10,3.5015393E10,2.0001473E10,1.2289229E10,1.9970982E10,6.4609976E9,6.920995E9,7.72404E9,5.294129E9,0E0,0E0,0E0,0E0,0E0,0E0,0E0,0E0,0E0,0E0,0E0,0E0,0E0,0E0,0E0,0E0,0E0,0E0,0E0,0E0,0E0,0E0,0E0,0E0,0E0,0E0,0E0,0E0,0E0,0E0,0E0,0E0],"parents":[2147483647,0,0,1,1,2,2,3,3,4,4,5,5,6,6,7,7,8,8,9,9,10,10,11,11,12,12,13,13,14,14,15,15,16,16,17,17,18,18,19,19,20,20,21,21,22,22,23,23,24,24,25,25,26,26,27,27,28,28,29,29,30,30],"right_children":[2,4,6,8,10,12,14,16,18,20,22,24,26,28,30,32,34,36,38,40,42,44,46,48,50,52,54,56,58,60,62,-1,-1,-1,-1,-1,-1,-1,-1,-1,-1,-1,-1,-1,-1,-1,-1,-1,-1,-1,-1,-1,-1,-1,-1,-1,-1,-1,-1,-1,-1,-1,-1],"split_conditions":[8.259E3,5.7837144E3,1.3703E4,1E0,1E0,1.0339E4,1.6074429E4,4.561857E3,2E0,7.813E3,2E0,2E0,2E0,1.6322E4,2.0625E4,1E0,1E0,4.0948572E3,5.273E3,1E0,9.747571E3,7.609143E3,6.9567144E3,1E0,6E0,1E0,1.074E4,1.1438857E4,1E0,1E0,1E0,-1.6045595E2,-8.462086E1,-1.18122696E2,-7.382852E1,-3.1464914E1,6.4370316E1,-1.06939285E2,-5.1448048E1,-6.509689E1,-9.23008E0,-1.5182527E0,6.1945797E1,1.5551022E2,2.6380334E2,-8.838617E0,3.469572E1,6.942473E1,2.4543079E2,7.431791E1,2.0077625E1,1.779786E2,3.3037512E2,1.2848172E2,1.8976976E2,2.2477237E2,2.9458594E2,2.5362608E2,4.0809567E2,4.7877676E2,1.8052655E2,5.4214954E2,6.976673E2],"split_indices":[39,41,39,3,3,39,41,41,1,41,1,1,1,39,39,38,17,41,39,17,41,41,41,3,1,3,41,41,3,37,3,0,0,0,0,0,0,0,0,0,0,0,0,0,0,0,0,0,0,0,0,0,0,0,0,0,0,0,0,0,0,0,0],"split_type":[0,0,0,0,0,0,0,0,0,0,0,0,0,0,0,0,0,0,0,0,0,0,0,0,0,0,0,0,0,0,0,0,0,0,0,0,0,0,0,0,0,0,0,0,0,0,0,0,0,0,0,0,0,0,0,0,0,0,0,0,0,0,0],"sum_hessian":[7.85781E5,5.83361E5,2.0242E5,2.81453E5,3.01908E5,1.74824E5,2.7596E4,1.56771E5,1.24682E5,2.0477E5,9.7138E4,1.10417E5,6.4407E4,1.9045E4,8.551E3,6.3057E4,9.3714E4,3.6581E4,8.8101E4,1.4521E5,5.956E4,2.3466E4,7.3672E4,1.1629E4,9.8788E4,5.528E3,5.8879E4,1.342E4,5.625E3,6.143E3,2.408E3,6.0434E4,2.623E3,7.8004E4,1.571E4,1.2041E4,2.454E4,3.694E4,5.1161E4,1.24934E5,2.0276E4,4.9652E4,9.908E3,1.7846E4,5.62E3,4.417E4,2.9502E4,4.844E3,6.785E3,7.6974E4,2.1814E4,2.205E3,3.323E3,3.8591E4,2.0288E4,6.105E3,7.315E3,8.63E2,4.762E3,5.916E3,2.27E2,9E2,1.508E3],"tree_param":{"num_deleted":"0","num_feature":"42","num_nodes":"63","size_leaf_vector":"1"}},{"base_weights":[1.7129404E-2,-8.1744116E2,3.0608906E3,-1.5380123E3,1.5634009E2,2.3863347E3,7.5944976E3,-9.022142E1,-1.9416869E3,1.891221E3,-1.021706E2,1.8708042E3,3.7333328E3,6.474442E3,1.0631561E4,-1.6348217E3,1.163436E3,-2.5164265E3,-1.4181151E3,3.003048E1,3.2709563E3,-5.2480505E2,3.9890396E2,3.8097341E3,1.6636285E3,3.412266E3,5.2147935E3,5.720322E3,8.212804E3,9.312543E3,1.2418201E4,-1.1060602E2,-1.9665731E1,8.052846E0,1.2800458E2,-1.5117247E2,-1.110188E2,-6.2558174E1,-1.0106721E2,-3.3682858E1,6.9247765E1,1.26704056E2,2.5149857E2,-1.5841863E1,-6.0646004E1,9.883404E0,6.3935574E1,9.2439316E1,2.585596E2,6.268385E1,1.11082985E2,1.0918833E2,1.9036449E2,3.6527032E2,2.4354057E2,2.4485643E2,3.243047E2,4.2243726E2,9.676916E1,4.457604E2,8.835656E2,5.552626E2,6.82019E2],"categories":[],"categories_nodes":[],"categories_segments":[],"categories_sizes":[],"default_left":[0,0,0,0,0,0,0,0,0,0,0,0,0,0,0,0,0,0,0,0,0,0,0,0,0,0,0,0,0,0,0,0,0,0,0,0,0,0,0,0,0,0,0,0,0,0,0,0,0,0,0,0,0,0,0,0,0,0,0,0,0,0,0],"id":3,"left_children":[1,3,5,7,9,11,13,15,17,19,21,23,25,27,29,31,33,35,37,39,41,43,45,47,49,51,53,55,57,59,61,-1,-1,-1,-1,-1,-1,-1,-1,-1,-1,-1,-1,-1,-1,-1,-1,-1,-1,-1,-1,-1,-1,-1,-1,-1,-1,-1,-1,-1,-1,-1,-1],"loss_changes":[1.9661364E12,4.3515255E11,5.064887E11,2.0830408E11,1.1828414E11,1.0011011E11,7.290054E10,1.5048147E11,8.386478E10,8.783152E10,4.8609997E10,4.1878815E10,1.8962907E10,2.0500578E10,1.3500875E10,2.4952463E10,6.0053053E10,1.9936313E10,1.4685929E10,1.3884981E10,2.5446711E10,1.7818579E10,1.8594124E10,2.6861437E10,2.1548351E10,1.5909093E10,5.074567E9,6.8614554E9,7.004127E9,1.0895524E10,3.7815255E9,0E0,0E0,0E0,0E0,0E0,0E0,0E0,0E0,0E0,0E0,0E0,0E0,0E0,0E0,0E0,0E0,0E0,0E0,0E0,0E0,0E0,0E0,0E0,0E0,0E0,0E0,0E0,0E0,0E0,0E0,0E0,0E0],"parents":[2147483647,0,0,1,1,2,2,3,3,4,4,5,5,6,6,7,7,8,8,9,9,10,10,11,11,12,12,13,13,14,14,15,15,16,16,17,17,18,18,19,19,20,20,21,21,22,22,23,23,24,24,25,25,26,26,27,27,28,28,29,29,30,30],"right_children":[2,4,6,8,10,12,14,16,18,20,22,24,26,28,30,32,34,36,38,40,42,44,46,48,50,52,54,56,58,60,62,-1,-1,-1,-1,-1,-1,-1,-1,-1,-1,-1,-1,-1,-1,-1,-1,-1,-1,-1,-1,-1,-1,-1,-1,-1,-1,-1,-1,-1,-1,-1,-1],"split_conditions":[8.795E3,6.061E3,1.4494E4,2E0,2E0,1.1404E4,1.7498715E4,1E0,4.723E3,1E0,7.319E3,2E0,1.2873429E4,1.7252E4,1E0,6.7574287E3,5.0534287E3,4.1624287E3,6E0,9.128429E3,7.5815713E3,6E0,1E0,1E0,9.128429E3,1E0,2E0,1.2549E4,5.2E1,7E0,2.0625E4,-1.1060602E2,-1.9665731E1,8.052846E0,1.2800458E2,-1.5117247E2,-1.110188E2,-6.2558174E1,-1.0106721E2,-3.3682858E1,6.9247765E1,1.26704056E2,2.5149857E2,-1.5841863E1,-6.0646004E1,9.883404E0,6.3935574E1,9.2439316E1,2.585596E2,6.268385E1,1.11082985E2,1.0918833E2,1.9036449E2,3.6527032E2,2.4354057E2,2.4485643E2,3.243047E2,4.2243726E2,9.676916E1,4.457604E2,8.835656E2,5.552626E2,6.82019E2],"split_indices":[39,39,39,1,1,39,41,3,39,3,39,1,41,39,3,41,41,41,1,41,41,1,17,3,41,3,1,41,15,1,39,0,0,0,0,0,0,0,0,0,0,0,0,0,0,0,0,0,0,0,0,0,0,0,0,0,0,0,0,0,0,0,0],"split_type":[0,0,0,0,0,0,0,0,0,0,0,0,0,0,0,0,0,0,0,0,0,0,0,0,0,0,0,0,0,0,0,0,0,0,0,0,0,0,0,0,0,0,0,0,0,0,0,0,0,0,0,0,0,0,0,0,0,0,0,0,0,0,0],"sum_hessian":[7.85781E5,6.20158E5,1.65623E5,3.56418E5,2.6374E5,1.44173E5,2.145E4,7.771E4,2.78708E5,3.4202E4,2.29538E5,1.04269E5,3.9904E4,1.5673E4,5.777E3,3.4815E4,4.2895E4,1.3286E5,1.45848E5,1.4561E4,1.9641E4,1.24515E5,1.05023E5,1.0064E4,9.4205E4,3.2799E4,7.105E3,1.0934E4,4.739E3,3.327E3,2.45E3,2.3764E4,1.1051E4,2.4973E4,1.7922E4,4.8975E4,8.3885E4,1.14235E5,3.1613E4,9.584E3,4.977E3,1.3844E4,5.797E3,9.5618E4,2.8897E4,8.5474E4,1.9549E4,4.125E3,5.939E3,5.431E4,3.9895E4,7.982E3,2.4817E4,1.001E3,6.104E3,5.273E3,5.661E3,4.567E3,1.72E2,3.178E3,1.49E2,1.186E3,1.264E3],"tree_param":{"num_deleted":"0","num_feature":"42","num_nodes":"63","size_leaf_vector":"1"}},{"base_weights":[2.2720175E-2,-7.7656915E2,2.907877E3,-1.5402474E3,6.42853E1,2.2670278E3,7.214943E3,-2.2426428E3,-6.622291E2,-4.8174863E2,1.1511743E3,1.7507059E3,3.4832424E3,6.1507896E3,1.0100427E4,-2.7739521E3,-1.8539277E3,7.246366E2,-1.2031581E3,-8.4786383E2,4.646562E2,3.593154E3,4.5041238E2,3.58781E3,1.5534227E3,2.915988E3,4.268178E3,5.4343574E3,7.802273E3,8.847315E3,1.1797796E4,-1.5827586E2,-1.27204185E2,-9.9760376E1,-5.632684E1,-3.0331837E1,6.436965E1,-9.735403E1,-4.051923E1,-4.956897E1,4.742353E0,1.4347821E1,8.865115E1,1.5709477E2,2.6706546E2,2.3562381E0,4.433807E1,8.614709E1,2.4439766E2,6.802348E1,1.3028593E2,7.060847E1,1.604481E2,2.2185155E2,3.488844E1,2.8048108E2,1.0381551E2,4.0132004E2,9.1958664E1,4.234794E2,8.396818E2,5.2898376E2,6.5151404E2],"categories":[],"categories_nodes":[],"categories_segments":[],"categories_sizes":[],"default_left":[0,0,0,0,0,0,0,0,0,0,0,0,0,0,0,0,0,0,0,0,0,0,0,0,0,0,0,0,0,0,0,0,0,0,0,0,0,0,0,0,0,0,0,0,0,0,0,0,0,0,0,0,0,0,0,0,0,0,0,0,0,0,0],"id":4,"left_children":[1,3,5,7,9,11,13,15,17,19,21,23,25,27,29,31,33,35,37,39,41,43,45,47,49,51,53,55,57,59,61,-1,-1,-1,-1,-1,-1,-1,-1,-1,-1,-1,-1,-1,-1,-1,-1,-1,-1,-1,-1,-1,-1,-1,-1,-1,-1,-1,-1,-1,-1,-1,-1],"loss_changes":[1.7744677E12,3.9823042E11,4.571355E11,2.004275E11,1.7517517E11,9.052914E10,6.580522E10,3.7284348E10,1.0835991E11,6.8074525E10,1.689001E11,3.6675944E10,1.911803E10,1.8502648E10,1.2185371E10,6.85808E9,1.0713301E10,3.0365143E10,3.0360764E10,1.916634E10,1.2740997E10,1.734466E10,1.3496118E10,2.3786545E10,1.8554028E10,1.0985292E10,1.0861904E10,6.424068E9,6.3202263E9,9.846899E9,3.5418604E9,0E0,0E0,0E0,0E0,0E0,0E0,0E0,0E0,0E0,0E0,0E0,0E0,0E0,0E0,0E0,0E0,0E0,0E0,0E0,0E0,0E0,0E0,0E0,0E0,0E0,0E0,0E0,0E0,0E0,0E0,0E0,0E0],"parents":[2147483647,0,0,1,1,2,2,3,3,4,4,5,5,6,6,7,7,8,8,9,9,10,10,11,11,12,12,13,13,14,14,15,15,16,16,17,17,18,18,19,19,20,20,21,21,22,22,23,23,24,24,25,25,26,26,27,27,28,28,29,29,30,30],"right_children":[2,4,6,8,10,12,14,16,18,20,22,24,26,28,30,32,34,36,38,40,42,44,46,48,50,52,54,56,58,60,62,-1,-1,-1,-1,-1,-1,-1,-1,-1,-1,-1,-1,-1,-1,-1,-1,-1,-1,-1,-1,-1,-1,-1,-1,-1,-1,-1,-1,-1,-1,-1,-1],"split_conditions":[8.795E3,6.066143E3,1.4494E4,1E0,1E0,1.1273E4,1.7498715E4,4.7595713E3,2E0,8.176E3,2E0,2E0,1.0991571E4,1.7252E4,1E0,3.9095715E3,1E0,4.0948572E3,4.561857E3,1E0,1.0520571E4,8.1072856E3,7.539E3,1E0,1E0,1E0,1E0,1E0,5.2E1,7E0,1.9410285E4,-1.5827586E2,-1.27204185E2,-9.9760376E1,-5.632684E1,-3.0331837E1,6.436965E1,-9.735403E1,-4.051923E1,-4.956897E1,4.742353E0,1.4347821E1,8.865115E1,1.5709477E2,2.6706546E2,2.3562381E0,4.433807E1,8.614709E1,2.4439766E2,6.802348E1,1.3028593E2,7.060847E1,1.604481E2,2.2185155E2,3.488844E1,2.8048108E2,1.0381551E2,4.0132004E2,9.1958664E1,4.234794E2,8.396818E2,5.2898376E2,6.5151404E2],"split_indices":[39,41,39,3,3,39,41,41,1,41,1,1,41,39,3,41,17,41,41,17,41,41,39,3,17,3,37,37,15,1,41,0,0,0,0,0,0,0,0,0,0,0,0,0,0,0,0,0,0,0,0,0,0,0,0,0,0,0,0,0,0,0,0],"split_type":[0,0,0,0,0,0,0,0,0,0,0,0,0,0,0,0,0,0,0,0,0,0,0,0,0,0,0,0,0,0,0,0,0,0,0,0,0,0,0,0,0,0,0,0,0,0,0,0,0,0,0,0,0,0,0,0,0,0,0,0,0,0,0],"sum_hessian":[7.85781E5,6.20158E5,1.65623E5,3.24993E5,2.95165E5,1.44173E5,2.145E4,1.80553E5,1.4444E5,1.96465E5,9.87E4,1.01209E5,4.2964E4,1.5673E4,5.777E3,7.6282E4,1.04271E5,4.0529E4,1.03911E5,1.41663E5,5.4802E4,2.2007E4,7.6693E4,9.813E3,9.1396E4,2.4943E4,1.8021E4,1.0934E4,4.739E3,3.327E3,2.45E3,2.8212E4,4.807E4,8.7311E4,1.696E4,1.2042E4,2.8487E4,3.5904E4,6.8007E4,1.22946E5,1.8717E4,4.825E4,6.552E3,1.7494E4,4.513E3,3.9857E4,3.6836E4,4.032E3,5.781E3,7.7236E4,1.416E4,4.068E3,2.0875E4,1.7207E4,8.14E2,1.0391E4,5.43E2,4.567E3,1.72E2,3.178E3,1.49E2,1.237E3,1.213E3],"tree_param":{"num_deleted":"0","num_feature":"42","num_nodes":"63","size_leaf_vector":"1"}},{"base_weights":[2.7031468E-2,-8.417726E2,2.4260298E3,-1.6157289E3,-1.8759654E2,1.7748295E3,6.0715513E3,-2.2733213E3,-7.9559686E2,-6.816229E2,8.360933E2,1.1995691E3,2.6002996E3,4.765484E3,8.436253E3,-2.7633347E3,-1.9736604E3,4.899713E2,-1.3338917E3,-1.0791589E3,5.5572773E1,3.0611953E3,1.23885506E2,2.883361E3,9.989887E2,4.540829E3,2.4162817E3,2.9947053E3,5.2480337E3,7.207832E3,1.0131632E4,-1.4151822E2,-6.3491596E1,-1.0536065E2,-6.6352745E1,-4.1244335E1,4.8010647E1,-1.03517876E2,-5.1977314E1,-6.0921417E1,-1.2007049E1,-9.406741E0,4.0091946E1,1.2684287E2,2.1653531E2,-1.0203844E1,2.9389753E1,5.7052883E1,2.0667577E2,6.098423E1,1.1364133E1,1.4133844E2,2.834326E2,1.0110072E2,1.5237384E2,1.8306044E2,-9.9569855E1,2.0766707E2,3.1840002E2,3.7006796E2,9.115121E1,5.245218E2,2.391958E2],"categories":[],"categories_nodes":[],"categories_segments":[],"categories_sizes":[],"default_left":[0,0,0,0,0,0,0,0,0,0,0,0,0,0,0,0,0,0,0,0,0,0,0,0,0,0,0,0,0,0,0,0,0,0,0,0,0,0,0,0,0,0,0,0,0,0,0,0,0,0,0,0,0,0,0,0,0,0,0,0,0,0,0],"id":5,"left_children":[1,3,5,7,9,11,13,15,17,19,21,23,25,27,29,31,33,35,37,39,41,43,45,47,49,51,53,55,57,59,61,-1,-1,-1,-1,-1,-1,-1,-1,-1,-1,-1,-1,-1,-1,-1,-1,-1,-1,-1,-1,-1,-1,-1,-1,-1,-1,-1,-1,-1,-1,-1,-1],"loss_changes":[1.6047325E12,2.9535804E11,4.8052948E11,1.441117E11,1.5988503E11,8.155126E10,9.470765E10,2.1771125E10,8.2290885E10,6.2492287E10,1.6308155E11,3.4180366E10,2.5175458E10,1.6873259E10,2.2656844E10,5.630034E9,7.944536E9,2.17013E10,1.8167513E10,1.6187326E10,1.3586985E10,1.6598368E10,1.1860878E10,2.346047E10,1.5402951E10,1.1791688E10,1.6026632E10,1.4081274E10,1.9014844E10,6.585123E9,8.743584E9,0E0,0E0,0E0,0E0,0E0,0E0,0E0,0E0,0E0,0E0,0E0,0E0,0E0,0E0,0E0,0E0,0E0,0E0,0E0,0E0,0E0,0E0,0E0,0E0,0E0,0E0,0E0,0E0,0E0,0E0,0E0,0E0],"parents":[2147483647,0,0,1,1,2,2,3,3,4,4,5,5,6,6,7,7,8,8,9,9,10,10,11,11,12,12,13,13,14,14,15,15,16,16,17,17,18,18,19,19,20,20,21,21,22,22,23,23,24,24,25,25,26,26,27,27,28,28,29,29,30,30],"right_children":[2,4,6,8,10,12,14,16,18,20,22,24,26,28,30,32,34,36,38,40,42,44,46,48,50,52,54,56,58,60,62,-1,-1,-1,-1,-1,-1,-1,-1,-1,-1,-1,-1,-1,-1,-1,-1,-1,-1,-1,-1,-1,-1,-1,-1,-1,-1,-1,-1,-1,-1,-1,-1],"split_conditions":[8.259E3,5.6815713E3,1.3385E4,1E0,1E0,1.0091E4,1.5041286E4,4.4574287E3,2E0,7.5264287E3,2E0,2E0,2E0,1E0,1.8563E4,1E0,1E0,3.8684285E3,4.2264287E3,1E0,9.128429E3,7.317E3,6.8665713E3,1E0,6E0,1E0,1.0322143E4,1E0,1.1127429E4,1E0,1E0,-1.4151822E2,-6.3491596E1,-1.0536065E2,-6.6352745E1,-4.1244335E1,4.8010647E1,-1.03517876E2,-5.1977314E1,-6.0921417E1,-1.2007049E1,-9.406741E0,4.0091946E1,1.2684287E2,2.1653531E2,-1.0203844E1,2.9389753E1,5.7052883E1,2.0667577E2,6.098423E1,1.1364133E1,1.4133844E2,2.834326E2,1.0110072E2,1.5237384E2,1.8306044E2,-9.9569855E1,2.0766707E2,3.1840002E2,3.7006796E2,9.115121E1,5.245218E2,2.391958E2],"split_indices":[39,41,39,3,3,39,41,41,1,41,1,1,1,3,39,38,17,41,41,17,41,41,41,3,1,3,41,37,41,37,37,0,0,0,0,0,0,0,0,0,0,0,0,0,0,0,0,0,0,0,0,0,0,0,0,0,0,0,0,0,0,0,0],"split_type":[0,0,0,0,0,0,0,0,0,0,0,0,0,0,0,0,0,0,0,0,0,0,0,0,0,0,0,0,0,0,0,0,0,0,0,0,0,0,0,0,0,0,0,0,0,0,0,0,0,0,0,0,0,0,0,0,0,0,0,0,0,0,0],"sum_hessian":[7.85781E5,5.83361E5,2.0242E5,2.67216E5,3.16145E5,1.71743E5,3.0677E4,1.48303E5,1.18913E5,2.13238E5,1.02907E5,1.01212E5,7.0531E4,1.9764E4,1.0913E4,5.6274E4,9.2029E4,3.5096E4,8.3817E4,1.38533E5,7.4705E4,2.4951E4,7.7956E4,1.0772E4,9.044E4,6.107E3,6.4424E4,4.234E3,1.553E4,6.331E3,4.582E3,5.3856E4,2.418E3,7.6273E4,1.5756E4,9.245E3,2.5851E4,2.3932E4,5.9885E4,1.18811E5,1.9722E4,5.6315E4,1.839E4,1.766E4,7.291E3,4.567E4,3.2286E4,4.501E3,6.271E3,7.0327E4,2.0113E4,2.425E3,3.682E3,3.9657E4,2.4767E4,3.735E3,4.99E2,7.856E3,7.674E3,6.111E3,2.2E2,4.293E3,2.89E2],"tree_param":{"num_deleted":"0","num_feature":"42","num_nodes":"63","size_leaf_vector":"1"}},{"base_weights":[2.9034842E-2,-6.358564E2,2.9059287E3,-1.2808536E3,2.9596042E2,2.3087952E3,6.892542E3,-3.7638214E1,-1.617657E3,1.7835704E3,8.083032E1,1.8538077E3,3.5076533E3,5.8749575E3,9.18679E3,-1.3739541E3,1.0409125E3,-2.1434197E3,-1.1387239E3,1.7042982E2,2.9796108E3,-2.6474768E2,5.7504346E2,3.5791929E3,1.6784298E3,3.2322534E3,5.12182E3,5.379426E3,7.8080537E3,8.0232197E3,1.0715189E4,-9.083395E1,-4.178209E0,9.404944E0,1.16117714E2,-1.3310432E2,-9.627006E1,-7.540192E1,-4.6675045E1,-2.1070871E1,7.901206E1,1.17610085E2,2.3625252E2,-2.2089697E1,2.07876E1,1.9717764E1,7.099847E1,9.589716E1,2.3595364E2,7.4661224E1,1.3724431E2,1.0632737E2,1.8044571E2,3.727897E2,2.3516759E2,2.7795514E2,7.310074E1,2.4985791E2,4.1133017E2,3.8300134E2,7.9651074E2,4.7471304E2,5.919426E2],"categories":[],"categories_nodes":[],"categories_segments":[],"categories_sizes":[],"default_left":[0,0,0,0,0,0,0,0,0,0,0,0,0,0,0,0,0,0,0,0,0,0,0,0,0,0,0,0,0,0,0,0,0,0,0,0,0,0,0,0,0,0,0,0,0,0,0,0,0,0,0,0,0,0,0,0,0,0,0,0,0,0,0],"id":6,"left_children":[1,3,5,7,9,11,13,15,17,19,21,23,25,27,29,31,33,35,37,39,41,43,45,47,49,51,53,55,57,59,61,-1,-1,-1,-1,-1,-1,-1,-1,-1,-1,-1,-1,-1,-1,-1,-1,-1,-1,-1,-1,-1,-1,-1,-1,-1,-1,-1,-1,-1,-1,-1,-1],"loss_changes":[1.451985E12,3.8748055E11,3.3582612E11,1.5952694E11,8.439744E10,6.692261E10,4.2851172E10,1.1705391E11,7.548253E10,6.4284557E10,3.9349977E10,2.6908852E10,1.4988935E10,1.215601E10,9.953116E9,2.0722168E10,4.9113567E10,1.6153838E10,1.1888493E10,1.18382E10,2.094152E10,1.6336054E10,1.4474054E10,1.5530041E10,1.5943533E10,1.2002656E10,4.768309E9,7.1283835E9,3.0130831E9,9.093464E9,3.2309248E9,0E0,0E0,0E0,0E0,0E0,0E0,0E0,0E0,0E0,0E0,0E0,0E0,0E0,0E0,0E0,0E0,0E0,0E0,0E0,0E0,0E0,0E0,0E0,0E0,0E0,0E0,0E0,0E0,0E0,0E0,0E0,0E0],"parents":[2147483647,0,0,1,1,2,2,3,3,4,4,5,5,6,6,7,7,8,8,9,9,10,10,11,11,12,12,13,13,14,14,15,15,16,16,17,17,18,18,19,19,20,20,21,21,22,22,23,23,24,24,25,25,26,26,27,27,28,28,29,29,30,30],"right_children":[2,4,6,8,10,12,14,16,18,20,22,24,26,28,30,32,34,36,38,40,42,44,46,48,50,52,54,56,58,60,62,-1,-1,-1,-1,-1,-1,-1,-1,-1,-1,-1,-1,-1,-1,-1,-1,-1,-1,-1,-1,-1,-1,-1,-1,-1,-1,-1,-1,-1,-1,-1,-1],"split_conditions":[9.221E3,6.254E3,1.4984E4,2E0,2E0,1.1849E4,1.7498715E4,1E0,4.821E3,1E0,7.704E3,2E0,1.3732E4,1.8563E4,1E0,7.1207144E3,5.182857E3,4.0232856E3,5.4552856E3,9.611714E3,7.9384287E3,1E0,1E0,1E0,1E0,1E0,2E0,5.2E1,1E0,7E0,2.0625E4,-9.083395E1,-4.178209E0,9.404944E0,1.16117714E2,-1.3310432E2,-9.627006E1,-7.540192E1,-4.6675045E1,-2.1070871E1,7.901206E1,1.17610085E2,2.3625252E2,-2.2089697E1,2.07876E1,1.9717764E1,7.099847E1,9.589716E1,2.3595364E2,7.4661224E1,1.3724431E2,1.0632737E2,1.8044571E2,3.727897E2,2.3516759E2,2.7795514E2,7.310074E1,2.4985791E2,4.1133017E2,3.8300134E2,7.9651074E2,4.7471304E2,5.919426E2],"split_indices":[39,39,39,1,1,39,41,3,39,3,39,1,41,39,3,41,41,41,41,41,41,17,17,3,17,3,1,15,3,1,39,0,0,0,0,0,0,0,0,0,0,0,0,0,0,0,0,0,0,0,0,0,0,0,0,0,0,0,0,0,0,0,0],"split_type":[0,0,0,0,0,0,0,0,0,0,0,0,0,0,0,0,0,0,0,0,0,0,0,0,0,0,0,0,0,0,0,0,0,0,0,0,0,0,0,0,0,0,0,0,0,0,0,0,0,0,0,0,0,0,0,0,0,0,0,0,0,0,0],"sum_hessian":[7.85781E5,6.44704E5,1.41077E5,3.80987E5,2.63717E5,1.227E5,1.8377E4,8.1213E4,2.99774E5,3.3318E4,2.30399E5,8.8946E4,3.3754E4,1.2733E4,5.644E3,3.6272E4,4.4941E4,1.42899E5,1.56875E5,1.4186E4,1.9132E4,1.35589E5,9.481E4,8.205E3,8.0741E4,2.8837E4,4.917E3,1.0138E4,2.595E3,3.208E3,2.436E3,2.7006E4,9.266E3,2.6984E4,1.7957E4,4.2287E4,1.00612E5,5.6033E4,1.00842E5,9.992E3,4.194E3,1.4075E4,5.057E3,1.07596E5,2.7993E4,7.8108E4,1.6702E4,3.34E3,4.865E3,6.8796E4,1.1945E4,7.329E3,2.1508E4,7.45E2,4.172E3,9.693E3,4.45E2,3.38E2,2.257E3,3.069E3,1.39E2,1.172E3,1.264E3],"tree_param":{"num_deleted":"0","num_feature":"42","num_nodes":"63","size_leaf_vector":"1"}},{"base_weights":[3.379636E-2,-6.2020447E2,2.690279E3,-1.1992098E3,2.8931616E2,2.139989E3,6.5480923E3,-2.0714832E1,-1.5153475E3,1.7134987E3,8.356253E1,1.6370254E3,3.1831377E3,5.290739E3,8.231466E3,-1.2953319E3,1.0055532E3,-1.9963668E3,-1.02372076E3,1.8190846E2,2.8514749E3,-2.6775827E2,4.744528E2,5.272311E2,1.9887689E3,2.50639E3,4.131534E3,3.3578018E3,5.7605596E3,7.0714116E3,9.576587E3,-9.8700516E1,-2.5850025E1,-5.444134E0,9.546094E1,-1.19032104E2,-8.584252E1,-4.3844788E1,-7.707634E1,-1.2409067E0,2.019458E2,1.0919795E2,2.1627747E2,-3.1930187E0,-4.7273205E1,1.3566508E1,5.7228462E1,3.417559E1,-1.3354462E2,5.832024E1,1.2687854E2,1.0373309E2,2.1234097E2,3.7161963E2,1.8371927E2,2.1102478E2,-9.296316E1,2.1554614E2,3.322929E2,3.7876227E2,8.14395E0,4.3518585E2,5.660452E2],"categories":[],"categories_nodes":[],"categories_segments":[],"categories_sizes":[],"default_left":[0,0,0,0,0,0,0,0,0,0,0,0,0,0,0,0,0,0,0,0,0,0,0,0,0,0,0,0,0,0,0,0,0,0,0,0,0,0,0,0,0,0,0,0,0,0,0,0,0,0,0,0,0,0,0,0,0,0,0,0,0,0,0],"id":7,"left_children":[1,3,5,7,9,11,13,15,17,19,21,23,25,27,29,31,33,35,37,39,41,43,45,47,49,51,53,55,57,59,61,-1,-1,-1,-1,-1,-1,-1,-1,-1,-1,-1,-1,-1,-1,-1,-1,-1,-1,-1,-1,-1,-1,-1,-1,-1,-1,-1,-1,-1,-1,-1,-1],"loss_changes":[1.3111521E12,3.3627813E11,3.1252395E11,1.4536619E11,7.278517E10,6.7594748E10,3.8855246E10,1.07957395E11,7.275086E10,5.464852E10,2.9804943E10,3.3934E10,2.689047E10,9.536963E9,1.2190843E10,1.9443905E10,4.604277E10,1.6698311E10,1.156599E10,1.0658226E10,1.7691148E10,1.5794647E10,1.3983134E10,1.0459245E10,2.9788307E10,1.8371756E10,2.6307461E10,9.279349E9,1.0833691E10,1.4694498E10,5.4360146E9,0E0,0E0,0E0,0E0,0E0,0E0,0E0,0E0,0E0,0E0,0E0,0E0,0E0,0E0,0E0,0E0,0E0,0E0,0E0,0E0,0E0,0E0,0E0,0E0,0E0,0E0,0E0,0E0,0E0,0E0,0E0,0E0],"parents":[2147483647,0,0,1,1,2,2,3,3,4,4,5,5,6,6,7,7,8,8,9,9,10,10,11,11,12,12,13,13,14,14,15,15,16,16,17,17,18,18,19,19,20,20,21,21,22,22,23,23,24,24,25,25,26,26,27,27,28,28,29,29,30,30],"right_children":[2,4,6,8,10,12,14,16,18,20,22,24,26,28,30,32,34,36,38,40,42,44,46,48,50,52,54,56,58,60,62,-1,-1,-1,-1,-1,-1,-1,-1,-1,-1,-1,-1,-1,-1,-1,-1,-1,-1,-1,-1,-1,-1,-1,-1,-1,-1,-1,-1,-1,-1,-1,-1],"split_conditions":[9.108E3,6.329E3,1.4984E4,2E0,2E0,1.0418143E4,1.6074429E4,1E0,4.943E3,1E0,7.317E3,1E0,1E0,1E0,1E0,6.248857E3,4.7114287E3,4.4024287E3,6E0,5.1E1,7.7245713E3,6E0,1E0,1E0,7.783E3,1.3732E4,2E0,1E0,1.1276714E4,1E0,1.9410285E4,-9.8700516E1,-2.5850025E1,-5.444134E0,9.546094E1,-1.19032104E2,-8.584252E1,-4.3844788E1,-7.707634E1,-1.2409067E0,2.019458E2,1.0919795E2,2.1627747E2,-3.1930187E0,-4.7273205E1,1.3566508E1,5.7228462E1,3.417559E1,-1.3354462E2,5.832024E1,1.2687854E2,1.0373309E2,2.1234097E2,3.7161963E2,1.8371927E2,2.1102478E2,-9.296316E1,2.1554614E2,3.322929E2,3.7876227E2,8.14395E0,4.3518585E2,5.660452E2],"split_indices":[39,39,39,1,1,41,41,3,39,3,41,3,3,3,3,41,41,41,1,15,41,1,17,37,41,41,1,37,41,37,41,0,0,0,0,0,0,0,0,0,0,0,0,0,0,0,0,0,0,0,0,0,0,0,0,0,0,0,0,0,0,0,0],"split_type":[0,0,0,0,0,0,0,0,0,0,0,0,0,0,0,0,0,0,0,0,0,0,0,0,0,0,0,0,0,0,0,0,0,0,0,0,0,0,0,0,0,0,0,0,0,0,0,0,0,0,0,0,0,0,0,0,0,0,0,0,0,0,0],"sum_hessian":[7.85781E5,6.38561E5,1.4722E5,3.90174E5,2.48387E5,1.28843E5,1.8377E4,8.2528E4,3.07646E5,3.1354E4,2.17033E5,8.6931E4,4.1912E4,1.0522E4,7.855E3,3.681E4,4.5718E4,1.55499E5,1.52147E5,1.3366E4,1.7988E4,1.14302E5,1.02731E5,2.0922E4,6.6009E4,2.4461E4,1.7451E4,2.059E3,8.463E3,4.221E3,3.634E3,1.9663E4,1.7147E4,2.0472E4,2.5246E4,6.5476E4,9.0023E4,1.18538E5,3.3609E4,1.2687E4,6.79E2,1.2383E4,5.605E3,8.7867E4,2.6435E4,7.8836E4,2.3895E4,1.9948E4,9.74E2,2.6421E4,3.9588E4,1.9601E4,4.86E3,2.121E3,1.533E4,1.767E3,2.92E2,3.211E3,5.252E3,3.934E3,2.87E2,2.426E3,1.208E3],"tree_param":{"num_deleted":"0","num_feature":"42","num_nodes":"63","size_leaf_vector":"1"}},{"base_weights":[3.6144506E-2,-7.6955145E2,1.9684136E3,-1.4500264E3,-2.3424086E2,1.4112152E3,5.059017E3,-2.0158783E3,-7.419724E2,-6.52526E2,6.571311E2,9.766303E2,2.2569163E3,3.9860623E3,7.24769E3,-2.5044058E3,-1.807897E3,3.353209E2,-1.2074341E3,-9.8873956E2,-1.6446627E1,2.5516218E3,1.9423716E1,7.9608055E1,1.3048947E3,1.6550162E3,3.166662E3,2.5096738E3,4.411922E3,6.5510264E3,9.607743E3,-1.2956923E2,-4.045753E1,-9.6761734E1,-6.0781475E1,-5.4047405E1,3.443162E1,-9.654355E1,-5.0048195E1,-5.5778393E1,-1.2040014E1,-9.453375E0,4.138943E1,9.58774E1,1.703731E2,-1.3597953E1,1.9796164E1,-4.002135E0,7.892437E1,2.5631704E1,8.4856125E1,6.25084E1,1.3527545E2,3.04848E2,1.3601054E2,1.5571729E2,-1.0484347E2,1.5709616E2,2.5826608E2,3.3715298E2,1.02400475E2,4.96649E2,2.4149397E2],"categories":[],"categories_nodes":[],"categories_segments":[],"categories_sizes":[],"default_left":[0,0,0,0,0,0,0,0,0,0,0,0,0,0,0,0,0,0,0,0,0,0,0,0,0,0,0,0,0,0,0,0,0,0,0,0,0,0,0,0,0,0,0,0,0,0,0,0,0,0,0,0,0,0,0,0,0,0,0,0,0,0,0],"id":8,"left_children":[1,3,5,7,9,11,13,15,17,19,21,23,25,27,29,31,33,35,37,39,41,43,45,47,49,51,53,55,57,59,61,-1,-1,-1,-1,-1,-1,-1,-1,-1,-1,-1,-1,-1,-1,-1,-1,-1,-1,-1,-1,-1,-1,-1,-1,-1,-1,-1,-1,-1,-1,-1,-1],"loss_changes":[1.1903347E12,2.0577868E11,3.8034512E11,9.965391E10,1.1788889E11,6.877423E10,7.919724E10,1.4042071E10,5.5401857E10,4.6022345E10,1.2200303E11,3.6399022E10,3.4776777E10,1.4224097E10,1.8182308E10,6.0845425E9,7.310901E9,1.6681048E10,1.1521966E10,1.3354582E10,1.0844996E10,1.3794525E10,8.2887956E9,7.9251707E9,2.812045E10,1.6255476E10,3.3069974E10,1.4131534E10,1.6795992E10,7.3977364E9,3.87883E9,0E0,0E0,0E0,0E0,0E0,0E0,0E0,0E0,0E0,0E0,0E0,0E0,0E0,0E0,0E0,0E0,0E0,0E0,0E0,0E0,0E0,0E0,0E0,0E0,0E0,0E0,0E0,0E0,0E0,0E0,0E0,0E0],"parents":[2147483647,0,0,1,1,2,2,3,3,4,4,5,5,6,6,7,7,8,8,9,9,10,10,11,11,12,12,13,13,14,14,15,15,16,16,17,17,18,18,19,19,20,20,21,21,22,22,23,23,24,24,25,25,26,26,27,27,28,28,29,29,30,30],"right_children":[2,4,6,8,10,12,14,16,18,20,22,24,26,28,30,32,34,36,38,40,42,44,46,48,50,52,54,56,58,60,62,-1,-1,-1,-1,-1,-1,-1,-1,-1,-1,-1,-1,-1,-1,-1,-1,-1,-1,-1,-1,-1,-1,-1,-1,-1,-1,-1,-1,-1,-1,-1,-1],"split_conditions":[8.022E3,5.5595713E3,1.3094E4,1E0,1E0,9.481286E3,1.5041286E4,4.194857E3,2E0,7.4202856E3,2E0,1E0,1E0,1E0,2.0625E4,1E0,1E0,3.627E3,3.9857144E3,1E0,9.358714E3,6.7574287E3,6.6704287E3,1E0,6.933E3,1.1804571E4,2E0,1E0,1.0142857E4,1E0,1E0,-1.2956923E2,-4.045753E1,-9.6761734E1,-6.0781475E1,-5.4047405E1,3.443162E1,-9.654355E1,-5.0048195E1,-5.5778393E1,-1.2040014E1,-9.453375E0,4.138943E1,9.58774E1,1.703731E2,-1.3597953E1,1.9796164E1,-4.002135E0,7.892437E1,2.5631704E1,8.4856125E1,6.25084E1,1.3527545E2,3.04848E2,1.3601054E2,1.5571729E2,-1.0484347E2,1.5709616E2,2.5826608E2,3.3715298E2,1.02400475E2,4.96649E2,2.4149397E2],"split_indices":[39,41,39,3,3,41,41,41,1,41,1,3,3,3,39,38,17,41,41,17,41,41,41,17,41,41,1,37,41,37,37,0,0,0,0,0,0,0,0,0,0,0,0,0,0,0,0,0,0,0,0,0,0,0,0,0,0,0,0,0,0,0,0],"split_type":[0,0,0,0,0,0,0,0,0,0,0,0,0,0,0,0,0,0,0,0,0,0,0,0,0,0,0,0,0,0,0,0,0,0,0,0,0,0,0,0,0,0,0,0,0,0,0,0,0,0,0,0,0,0,0,0,0,0,0,0,0,0,0],"sum_hessian":[7.85781E5,5.64914E5,2.20867E5,2.48731E5,3.16183E5,1.87131E5,3.3736E4,1.38247E5,1.10484E5,2.15199E5,1.00984E5,1.23612E5,6.3519E4,2.264E4,1.1096E4,4.1278E4,9.6969E4,3.3334E4,7.715E4,1.40784E5,7.4415E4,2.5431E4,7.5553E4,3.3117E4,9.0495E4,3.8229E4,2.529E4,5.07E3,1.757E4,8.57E3,2.526E3,3.9263E4,2.015E3,7.9808E4,1.7161E4,6.655E3,2.6679E4,1.7128E4,6.0022E4,1.20372E5,2.0412E4,6.1783E4,1.2632E4,1.461E4,1.0821E4,4.2591E4,3.2962E4,2.993E4,3.187E3,2.9967E4,6.0528E4,2.7596E4,1.0633E4,3.342E3,2.1948E4,4.482E3,5.88E2,6.544E3,1.1026E4,8.219E3,3.51E2,2.364E3,1.62E2],"tree_param":{"num_deleted":"0","num_feature":"42","num_nodes":"63","size_leaf_vector":"1"}},{"base_weights":[3.716592E-2,-5.3257196E2,2.5685054E3,-1.1649169E3,1.9501178E2,2.038828E3,5.928378E3,-1.7218022E3,-4.7547183E2,-2.616295E2,1.042144E3,1.6210972E3,3.0244128E3,4.9667427E3,7.8475454E3,-2.1190066E3,-1.3638138E3,5.8250336E2,-8.7179004E2,-5.696012E2,5.9548456E2,2.9901104E3,5.308888E2,6.2529626E2,1.9414473E3,2.4351555E3,3.883889E3,4.220528E3,6.1104365E3,6.8468853E3,8.842394E3,-1.268208E2,-9.810108E1,-7.4197914E1,-3.6705845E1,-1.5488339E1,5.7898853E1,-7.109198E1,-2.5070095E1,-3.4567577E1,1.3217485E1,1.9505796E1,7.883907E1,1.3042664E2,2.264231E2,1.4030894E1,5.42549E1,3.955108E1,-1.2798755E2,5.9542084E1,1.23923485E2,1.3148015E2,-6.281207E1,3.5250595E2,1.7235417E2,1.1740603E2,2.3124857E2,3.1595438E2,5.4425842E1,3.514208E2,1.1291442E2,4.539183E2,2.328376E2],"categories":[],"categories_nodes":[],"categories_segments":[],"categories_sizes":[],"default_left":[0,0,0,0,0,0,0,0,0,0,0,0,0,0,0,0,0,0,0,0,0,0,0,0,0,0,0,0,0,0,0,0,0,0,0,0,0,0,0,0,0,0,0,0,0,0,0,0,0,0,0,0,0,0,0,0,0,0,0,0,0,0,0],"id":9,"left_children":[1,3,5,7,9,11,13,15,17,19,21,23,25,27,29,31,33,35,37,39,41,43,45,47,49,51,53,55,57,59,61,-1,-1,-1,-1,-1,-1,-1,-1,-1,-1,-1,-1,-1,-1,-1,-1,-1,-1,-1,-1,-1,-1,-1,-1,-1,-1,-1,-1,-1,-1,-1,-1],"loss_changes":[1.074943E12,2.994343E11,2.4016572E11,1.3368849E11,1.1706599E11,4.799257E10,3.387831E10,2.7386315E10,6.523649E10,5.190467E10,1.0555768E11,2.6118914E10,1.756545E10,1.0425434E10,6.0449096E9,5.97803E9,7.6636815E9,2.1771825E10,2.3058883E10,1.4687666E10,1.0474187E10,1.2922733E10,1.1645014E10,1.052246E10,2.496861E10,1.4782448E10,1.9494371E10,5.603631E9,5.0572984E9,2.5346867E9,2.9919314E9,0E0,0E0,0E0,0E0,0E0,0E0,0E0,0E0,0E0,0E0,0E0,0E0,0E0,0E0,0E0,0E0,0E0,0E0,0E0,0E0,0E0,0E0,0E0,0E0,0E0,0E0,0E0,0E0,0E0,0E0,0E0,0E0],"parents":[2147483647,0,0,1,1,2,2,3,3,4,4,5,5,6,6,7,7,8,8,9,9,10,10,11,11,12,12,13,13,14,14,15,15,16,16,17,17,18,18,19,19,20,20,21,21,22,22,23,23,24,24,25,25,26,26,27,27,28,28,29,29,30,30],"right_children":[2,4,6,8,10,12,14,16,18,20,22,24,26,28,30,32,34,36,38,40,42,44,46,48,50,52,54,56,58,60,62,-1,-1,-1,-1,-1,-1,-1,-1,-1,-1,-1,-1,-1,-1,-1,-1,-1,-1,-1,-1,-1,-1,-1,-1,-1,-1,-1,-1,-1,-1,-1,-1],"split_conditions":[9.337E3,6.207857E3,1.4984E4,1E0,1E0,1.074E4,1.8563E4,4.964857E3,2E0,8.482714E3,2E0,1E0,1E0,1.5041286E4,2.0625E4,3.8261428E3,1E0,4.4305713E3,5.506E3,1E0,1.0520571E4,8.362571E3,7.7534287E3,1E0,8.004E3,1E0,2E0,1E0,1E0,5.2E1,1E0,-1.268208E2,-9.810108E1,-7.4197914E1,-3.6705845E1,-1.5488339E1,5.7898853E1,-7.109198E1,-2.5070095E1,-3.4567577E1,1.3217485E1,1.9505796E1,7.883907E1,1.3042664E2,2.264231E2,1.4030894E1,5.42549E1,3.955108E1,-1.2798755E2,5.9542084E1,1.23923485E2,1.3148015E2,-6.281207E1,3.5250595E2,1.7235417E2,1.1740603E2,2.3124857E2,3.1595438E2,5.4425842E1,3.514208E2,1.1291442E2,4.539183E2,2.328376E2],"split_indices":[39,41,39,3,3,41,39,41,1,41,1,3,3,41,39,41,17,41,39,17,41,41,41,37,41,37,1,3,37,15,37,0,0,0,0,0,0,0,0,0,0,0,0,0,0,0,0,0,0,0,0,0,0,0,0,0,0,0,0,0,0,0,0],"split_type":[0,0,0,0,0,0,0,0,0,0,0,0,0,0,0,0,0,0,0,0,0,0,0,0,0,0,0,0,0,0,0,0,0,0,0,0,0,0,0,0,0,0,0,0,0,0,0,0,0,0,0,0,0,0,0,0,0,0,0,0,0,0,0],"sum_hessian":[7.85781E5,6.50824E5,1.34957E5,3.48201E5,3.02623E5,1.1658E5,1.8377E4,1.92617E5,1.55584E5,1.96631E5,1.05992E5,8.1879E4,3.4701E4,1.2245E4,6.132E3,9.1305E4,1.01312E5,4.2399E4,1.13185E5,1.44655E5,5.1976E4,2.2034E4,8.3958E4,1.993E4,6.1949E4,2.0589E4,1.4112E4,7.413E3,4.832E3,3.061E3,3.071E3,2.495E4,6.6355E4,8.5078E4,1.6234E4,1.6624E4,2.5775E4,4.5545E4,6.764E4,1.26227E5,1.8428E4,4.2982E4,8.994E3,1.7657E4,4.377E3,5.784E4,2.6118E4,1.8945E4,9.85E2,2.5838E4,3.6111E4,1.9559E4,1.03E3,1.709E3,1.2403E4,1.318E3,6.095E3,4.639E3,1.93E2,2.944E3,1.17E2,2.906E3,1.65E2],"tree_param":{"num_deleted":"0","num_feature":"42","num_nodes":"63","size_leaf_vector":"1"}},{"base_weights":[3.8668256E-2,-6.965286E2,1.7816517E3,-1.2277863E3,-1.3218219E2,1.249432E3,4.444307E3,-1.7324391E3,-5.8116455E2,-5.0288235E2,7.0720465E2,8.724279E2,2.0023704E3,3.5218035E3,6.545516E3,-2.076391E3,-1.4314031E3,4.2101166E2,-1.00184186E3,-7.451833E2,1.563983E2,2.5065193E3,1.0456913E2,7.217711E1,1.1677927E3,1.4773291E3,2.817442E3,2.2399087E3,3.9046694E3,5.826845E3,8.51369E3,-1.10042336E2,-7.906013E1,-7.7243675E1,-4.277647E1,-4.4590763E1,3.7857006E1,-7.580996E1,-3.5518753E1,-4.302605E1,-1.4242028E0,2.7096052E0,7.937396E1,1.1234717E2,2.0490666E2,-1.1991228E1,1.6716024E1,7.966999E0,-1.2293892E2,1.4143132E2,5.05455E1,5.4732525E1,1.1727846E2,2.7803842E2,1.1967372E2,1.3910393E2,-1.00563156E2,1.39768E2,2.3077945E2,2.3604576E2,3.5854037E2,3.769917E2,4.966152E2],"categories":[],"categories_nodes":[],"categories_segments":[],"categories_sizes":[],"default_left":[0,0,0,0,0,0,0,0,0,0,0,0,0,0,0,0,0,0,0,0,0,0,0,0,0,0,0,0,0,0,0,0,0,0,0,0,0,0,0,0,0,0,0,0,0,0,0,0,0,0,0,0,0,0,0,0,0,0,0,0,0,0,0],"id":10,"left_children":[1,3,5,7,9,11,13,15,17,19,21,23,25,27,29,31,33,35,37,39,41,43,45,47,49,51,53,55,57,59,61,-1,-1,-1,-1,-1,-1,-1,-1,-1,-1,-1,-1,-1,-1,-1,-1,-1,-1,-1,-1,-1,-1,-1,-1,-1,-1,-1,-1,-1,-1,-1,-1],"loss_changes":[9.7516716E11,1.6936886E11,3.1299037E11,9.495406E10,8.523603E10,5.2250214E10,7.12955E10,1.6919396E10,5.3776273E10,3.0353617E10,9.0992435E10,2.8992799E10,2.6278593E10,1.2540871E10,1.5826354E10,4.6974894E9,5.6939807E9,1.6642611E10,1.3467861E10,1.1485684E10,7.469246E9,8.689148E9,4.974109E9,7.2955904E9,2.3341146E10,1.2409225E10,2.7971568E10,1.3565063E10,1.5513649E10,1.2191203E10,4.069671E9,0E0,0E0,0E0,0E0,0E0,0E0,0E0,0E0,0E0,0E0,0E0,0E0,0E0,0E0,0E0,0E0,0E0,0E0,0E0,0E0,0E0,0E0,0E0,0E0,0E0,0E0,0E0,0E0,0E0,0E0,0E0,0E0],"parents":[2147483647,0,0,1,1,2,2,3,3,4,4,5,5,6,6,7,7,8,8,9,9,10,10,11,11,12,12,13,13,14,14,15,15,16,16,17,17,18,18,19,19,20,20,21,21,22,22,23,23,24,24,25,25,26,26,27,27,28,28,29,29,30,30],"right_children":[2,4,6,8,10,12,14,16,18,20,22,24,26,28,30,32,34,36,38,40,42,44,46,48,50,52,54,56,58,60,62,-1,-1,-1,-1,-1,-1,-1,-1,-1,-1,-1,-1,-1,-1,-1,-1,-1,-1,-1,-1,-1,-1,-1,-1,-1,-1,-1,-1,-1,-1,-1,-1],"split_conditions":[8.022E3,5.8644287E3,1.2834E4,1E0,1E0,9.481286E3,1.5041286E4,4.7595713E3,2E0,7.8754287E3,2E0,1E0,1E0,1E0,1.9410285E4,1E0,1E0,3.7318572E3,4.483857E3,1E0,1.0626857E4,8.1415713E3,6.823E3,1E0,2E0,1.1614286E4,2E0,1E0,1.0142857E4,1E0,1E0,-1.10042336E2,-7.906013E1,-7.7243675E1,-4.277647E1,-4.4590763E1,3.7857006E1,-7.580996E1,-3.5518753E1,-4.302605E1,-1.4242028E0,2.7096052E0,7.937396E1,1.1234717E2,2.0490666E2,-1.1991228E1,1.6716024E1,7.966999E0,-1.2293892E2,1.4143132E2,5.05455E1,5.4732525E1,1.1727846E2,2.7803842E2,1.1967372E2,1.3910393E2,-1.00563156E2,1.39768E2,2.3077945E2,2.3604576E2,3.5854037E2,3.769917E2,4.966152E2],"split_indices":[39,41,39,3,3,41,41,41,1,41,1,3,3,3,41,17,17,41,41,17,41,41,39,37,1,41,1,37,41,3,3,0,0,0,0,0,0,0,0,0,0,0,0,0,0,0,0,0,0,0,0,0,0,0,0,0,0,0,0,0,0,0,0],"split_type":[0,0,0,0,0,0,0,0,0,0,0,0,0,0,0,0,0,0,0,0,0,0,0,0,0,0,0,0,0,0,0,0,0,0,0,0,0,0,0,0,0,0,0,0,0,0,0,0,0,0,0,0,0,0,0,0,0,0,0,0,0,0,0],"sum_hessian":[7.85781E5,5.64914E5,2.20867E5,2.90987E5,2.73927E5,1.84075E5,3.6792E4,1.63434E5,1.27553E5,1.90012E5,8.3915E4,1.2266E5,6.1415E4,2.5569E4,1.1223E4,7.6277E4,8.7157E4,3.7712E4,8.9841E4,1.38946E5,5.1066E4,2.1053E4,6.2862E4,3.3068E4,8.9592E4,3.7355E4,2.406E4,5.882E3,1.9687E4,8.224E3,2.999E3,6.0954E4,1.5323E4,7.2809E4,1.4348E4,7.687E3,3.0025E4,3.2494E4,5.7347E4,1.19685E5,1.9261E4,4.7663E4,3.403E3,1.8103E4,2.95E3,2.5155E4,3.7707E4,3.1968E4,1.1E3,7.731E3,8.1861E4,2.5929E4,1.1426E4,3.219E3,2.0841E4,5.217E3,6.65E2,7.691E3,1.1996E4,4.514E3,3.71E3,1.782E3,1.217E3],"tree_param":{"num_deleted":"0","num_feature":"42","num_nodes":"63","size_leaf_vector":"1"}},{"base_weights":[3.9881337E-2,-4.6906018E2,2.3918035E3,-9.639127E2,3.2908432E2,1.9448945E3,5.6948457E3,3.100804E0,-1.2188828E3,1.4932505E3,1.6410783E2,1.5636602E3,2.9746597E3,5.109901E3,8.0320083E3,-1.0392911E3,8.417272E2,-1.6351282E3,-8.019836E2,2.3867715E2,2.4240654E3,-8.059189E1,5.72923E2,3.0669094E3,1.4146987E3,2.6412163E3,4.0672397E3,3.98098E3,5.816743E3,8.256167E3,4.0581528E3,-7.117904E1,-4.415175E-1,7.5715456E0,9.491057E1,-9.951618E1,-7.099536E1,-4.6257084E1,-1.8114368E1,1.2001555E0,1.977317E2,9.26667E1,1.8865546E2,4.54116E0,-3.210983E1,1.9263906E1,6.1001827E1,8.350637E1,2.0025627E2,6.2923702E1,1.17164696E2,7.7284615E1,1.4776349E2,3.1039548E2,1.8599898E2,7.945229E1,2.1274756E2,3.0426678E2,8.020384E1,3.832005E2,5.0122638E2,6.328647E2,-9.446591E1],"categories":[],"categories_nodes":[],"categories_segments":[],"categories_sizes":[],"default_left":[0,0,0,0,0,0,0,0,0,0,0,0,0,0,0,0,0,0,0,0,0,0,0,0,0,0,0,0,0,0,0,0,0,0,0,0,0,0,0,0,0,0,0,0,0,0,0,0,0,0,0,0,0,0,0,0,0,0,0,0,0,0,0],"id":11,"left_children":[1,3,5,7,9,11,13,15,17,19,21,23,25,27,29,31,33,35,37,39,41,43,45,47,49,51,53,55,57,59,61,-1,-1,-1,-1,-1,-1,-1,-1,-1,-1,-1,-1,-1,-1,-1,-1,-1,-1,-1,-1,-1,-1,-1,-1,-1,-1,-1,-1,-1,-1,-1,-1],"loss_changes":[8.8163E11,2.5946664E11,1.901862E11,9.9983884E10,4.8287883E10,4.455026E10,2.0950974E10,7.396766E10,5.568594E10,3.6442202E10,2.2029783E10,1.8543444E10,1.1160224E10,9.779085E9,2.7029504E9,1.4938513E10,3.4195988E10,1.2272534E10,8.681767E9,1.0603991E10,1.3786513E10,1.3261871E10,1.0012078E10,9.778692E9,1.0930078E10,8.079311E9,5.305377E9,3.0948803E9,8.5352284E9,2.9672243E9,8.513674E9,0E0,0E0,0E0,0E0,0E0,0E0,0E0,0E0,0E0,0E0,0E0,0E0,0E0,0E0,0E0,0E0,0E0,0E0,0E0,0E0,0E0,0E0,0E0,0E0,0E0,0E0,0E0,0E0,0E0,0E0,0E0,0E0],"parents":[2147483647,0,0,1,1,2,2,3,3,4,4,5,5,6,6,7,7,8,8,9,9,10,10,11,11,12,12,13,13,14,14,15,15,16,16,17,17,18,18,19,19,20,20,21,21,22,22,23,23,24,24,25,25,26,26,27,27,28,28,29,29,30,30],"right_children":[2,4,6,8,10,12,14,16,18,20,22,24,26,28,30,32,34,36,38,40,42,44,46,48,50,52,54,56,58,60,62,-1,-1,-1,-1,-1,-1,-1,-1,-1,-1,-1,-1,-1,-1,-1,-1,-1,-1,-1,-1,-1,-1,-1,-1,-1,-1,-1,-1,-1,-1,-1,-1],"split_conditions":[9.459E3,6.454E3,1.5572E4,2E0,2E0,1.2195E4,2.0625E4,1E0,4.991E3,1E0,7.813E3,2E0,1.3262857E4,1.3732E4,1E0,7.1207144E3,5.268143E3,3.904E3,1E0,5.1E1,7.9384287E3,6E0,1E0,1E0,1E0,1E0,2E0,1E0,1E0,4.8E1,1.1E1,-7.117904E1,-4.415175E-1,7.5715456E0,9.491057E1,-9.951618E1,-7.099536E1,-4.6257084E1,-1.8114368E1,1.2001555E0,1.977317E2,9.26667E1,1.8865546E2,4.54116E0,-3.210983E1,1.9263906E1,6.1001827E1,8.350637E1,2.0025627E2,6.2923702E1,1.17164696E2,7.7284615E1,1.4776349E2,3.1039548E2,1.8599898E2,7.945229E1,2.1274756E2,3.0426678E2,8.020384E1,3.832005E2,5.0122638E2,6.328647E2,-9.446591E1],"split_indices":[39,39,39,1,1,39,39,3,39,3,41,1,41,41,37,41,41,39,17,15,41,1,17,3,17,3,1,3,37,15,12,0,0,0,0,0,0,0,0,0,0,0,0,0,0,0,0,0,0,0,0,0,0,0,0,0,0,0,0,0,0,0,0],"split_type":[0,0,0,0,0,0,0,0,0,0,0,0,0,0,0,0,0,0,0,0,0,0,0,0,0,0,0,0,0,0,0,0,0,0,0,0,0,0,0,0,0,0,0,0,0,0,0,0,0,0,0,0,0,0,0,0,0,0,0,0,0,0,0],"sum_hessian":[7.85781E5,6.56936E5,1.28845E5,4.05515E5,2.51421E5,1.13491E5,1.5354E4,8.4612E4,3.20903E5,3.1206E4,2.20215E5,8.2829E4,3.0662E4,1.2283E4,3.071E3,3.7723E4,4.6889E4,1.60576E5,1.60327E5,1.3292E4,1.7914E4,1.37759E5,8.2456E4,7.466E3,7.5363E4,2.3495E4,7.167E3,4.732E3,7.551E3,2.906E3,1.65E2,2.7476E4,1.0247E4,2.836E4,1.8529E4,6.0583E4,9.9993E4,1.25245E5,3.5082E4,1.2567E4,7.25E2,1.259E4,5.324E3,1.05545E5,3.2214E4,6.3922E4,1.8534E4,3.001E3,4.465E3,6.4512E4,1.0851E4,5.236E3,1.8259E4,9.98E2,6.169E3,4.87E2,4.245E3,7.098E3,4.53E2,2.181E3,7.25E2,6.7E1,9.8E1],"tree_param":{"num_deleted":"0","num_feature":"42","num_nodes":"63","size_leaf_vector":"1"}},{"base_weights":[4.2532165E-2,-6.3055994E2,1.6129371E3,-1.2332051E3,-2.1209415E2,1.15683E3,4.1428193E3,-1.6954175E3,-6.610894E2,-5.572969E2,5.0825287E2,7.032428E2,1.7248468E3,3.3943696E3,6.2850327E3,-2.1198347E3,-1.5370317E3,2.033004E2,-1.0389363E3,-8.964308E2,-8.857154E1,2.0336953E3,-7.655222E0,-1.2007234E2,9.54103E2,1.202679E3,2.4064946E3,3.0112717E3,4.713363E3,5.3297427E3,7.549113E3,-1.10950584E2,-1.731228E1,-8.256728E1,-5.0907993E1,-6.0632282E1,2.3499617E1,-8.6398735E1,-4.4091053E1,-5.015328E1,-1.4496291E1,-1.2585746E1,2.6949362E1,7.5416885E1,1.4166945E2,-1.6307673E1,1.2781932E1,-1.7870636E0,-1.2859457E2,1.508317E1,6.3383556E1,4.335669E1,1.0877134E2,2.376411E2,1.036119E2,2.3282571E2,1.4334874E2,1.4082423E2,2.528232E2,2.842602E2,-5.8000035E0,5.313017E2,3.5096164E2],"categories":[],"categories_nodes":[],"categories_segments":[],"categories_sizes":[],"default_left":[0,0,0,0,0,0,0,0,0,0,0,0,0,0,0,0,0,0,0,0,0,0,0,0,0,0,0,0,0,0,0,0,0,0,0,0,0,0,0,0,0,0,0,0,0,0,0,0,0,0,0,0,0,0,0,0,0,0,0,0,0,0,0],"id":12,"left_children":[1,3,5,7,9,11,13,15,17,19,21,23,25,27,29,31,33,35,37,39,41,43,45,47,49,51,53,55,57,59,61,-1,-1,-1,-1,-1,-1,-1,-1,-1,-1,-1,-1,-1,-1,-1,-1,-1,-1,-1,-1,-1,-1,-1,-1,-1,-1,-1,-1,-1,-1,-1,-1],"loss_changes":[7.992162E11,1.424636E11,2.5485423E11,6.1219144E10,8.290694E10,4.8212394E10,5.4070542E10,8.604713E9,3.3789993E10,3.5828703E10,8.500495E10,2.1489877E10,2.9569909E10,1.2620431E10,1.0506633E10,6.1201777E9,5.5297966E9,1.1883936E10,7.7918863E9,8.4575027E9,9.687526E9,1.1464311E10,6.768816E9,5.0242857E9,1.6315007E10,1.5354618E10,2.8253864E10,4.587307E9,3.6472832E9,9.63679E9,6.0508406E9,0E0,0E0,0E0,0E0,0E0,0E0,0E0,0E0,0E0,0E0,0E0,0E0,0E0,0E0,0E0,0E0,0E0,0E0,0E0,0E0,0E0,0E0,0E0,0E0,0E0,0E0,0E0,0E0,0E0,0E0,0E0,0E0],"parents":[2147483647,0,0,1,1,2,2,3,3,4,4,5,5,6,6,7,7,8,8,9,9,10,10,11,11,12,12,13,13,14,14,15,15,16,16,17,17,18,18,19,19,20,20,21,21,22,22,23,23,24,24,25,25,26,26,27,27,28,28,29,29,30,30],"right_children":[2,4,6,8,10,12,14,16,18,20,22,24,26,28,30,32,34,36,38,40,42,44,46,48,50,52,54,56,58,60,62,-1,-1,-1,-1,-1,-1,-1,-1,-1,-1,-1,-1,-1,-1,-1,-1,-1,-1,-1,-1,-1,-1,-1,-1,-1,-1,-1,-1,-1,-1,-1,-1],"split_conditions":[8.022E3,5.435E3,1.3094E4,1E0,1E0,8.926E3,1.6074429E4,4.0611428E3,2E0,7.097143E3,2E0,1E0,1E0,1.6322E4,1E0,1E0,1E0,3.444E3,3.8261428E3,1E0,8.926E3,6.7574287E3,6.768E3,1E0,6.7574287E3,1.1614286E4,2E0,2E0,1E0,1E0,2E0,-1.10950584E2,-1.731228E1,-8.256728E1,-5.0907993E1,-6.0632282E1,2.3499617E1,-8.6398735E1,-4.4091053E1,-5.015328E1,-1.4496291E1,-1.2585746E1,2.6949362E1,7.5416885E1,1.4166945E2,-1.6307673E1,1.2781932E1,-1.7870636E0,-1.2859457E2,1.508317E1,6.3383556E1,4.335669E1,1.0877134E2,2.376411E2,1.036119E2,2.3282571E2,1.4334874E2,1.4082423E2,2.528232E2,2.842602E2,-5.8000035E0,5.313017E2,3.5096164E2],"split_indices":[39,41,39,3,3,41,41,41,1,41,1,3,3,39,3,38,17,41,41,17,41,41,39,37,41,41,1,1,3,37,1,0,0,0,0,0,0,0,0,0,0,0,0,0,0,0,0,0,0,0,0,0,0,0,0,0,0,0,0,0,0,0,0],"split_type":[0,0,0,0,0,0,0,0,0,0,0,0,0,0,0,0,0,0,0,0,0,0,0,0,0,0,0,0,0,0,0,0,0,0,0,0,0,0,0,0,0,0,0,0,0,0,0,0,0,0,0,0,0,0,0,0,0,0,0,0,0,0,0],"sum_hessian":[7.85781E5,5.64914E5,2.20867E5,2.31509E5,3.33405E5,1.87131E5,3.3736E4,1.28053E5,1.03456E5,2.25393E5,1.08012E5,1.04047E5,8.3084E4,2.5003E4,8.733E3,3.4797E4,9.3256E4,3.1468E4,7.1988E4,1.30774E5,9.4619E4,2.7297E4,8.0715E4,2.4299E4,7.9748E4,4.7047E4,3.6037E4,1.9378E4,5.625E3,4.977E3,3.756E3,3.2954E4,1.843E3,7.6418E4,1.6838E4,4.987E3,2.6481E4,1.3365E4,5.8623E4,1.11219E5,1.9555E4,7.5097E4,1.9522E4,1.6476E4,1.0821E4,3.6528E4,4.4187E4,2.3492E4,8.07E2,2.5887E4,5.3861E4,3.4982E4,1.2065E4,4.492E3,3.1545E4,1.56E3,1.7818E4,8.63E2,4.762E3,4.672E3,3.05E2,5.49E2,3.207E3],"tree_param":{"num_deleted":"0","num_feature":"42","num_nodes":"63","size_leaf_vector":"1"}},{"base_weights":[4.310191E-2,-4.1245078E2,2.228792E3,-9.379152E2,2.2691655E2,1.775022E3,4.9265547E3,-1.3940226E3,-3.7442242E2,-1.54929E2,9.193529E2,1.4238987E3,2.6535437E3,4.177735E3,6.835303E3,-1.7443798E3,-1.10276E3,4.9109247E2,-6.9260675E2,-4.059969E2,6.046416E2,2.55803E3,5.0703964E2,2.6968445E3,1.3039598E3,1.4609736E3,2.9786177E3,6.0160576E3,3.8288354E3,7.0716533E3,3.2542805E3,-9.281E1,-6.4360374E1,-5.9651196E1,-2.4507555E1,-1.9153051E1,4.654121E1,-5.8378963E1,-1.8234402E1,-2.571762E1,1.7649363E1,2.1590073E1,7.700526E1,1.1602142E2,2.2565286E2,2.0557934E1,8.0460075E1,5.765576E1,1.8031224E2,5.7894684E1,1.0871264E2,9.58471E1,-1.2009002E2,1.0076708E2,1.7599042E2,2.1778772E2,4.5981064E2,1.8388092E2,4.081096E2,3.3840543E2,4.7584967E2,5.471144E2,-1.1063958E2],"categories":[],"categories_nodes":[],"categories_segments":[],"categories_sizes":[],"default_left":[0,0,0,0,0,0,0,0,0,0,0,0,0,0,0,0,0,0,0,0,0,0,0,0,0,0,0,0,0,0,0,0,0,0,0,0,0,0,0,0,0,0,0,0,0,0,0,0,0,0,0,0,0,0,0,0,0,0,0,0,0,0,0],"id":13,"left_children":[1,3,5,7,9,11,13,15,17,19,21,23,25,27,29,31,33,35,37,39,41,43,45,47,49,51,53,55,57,59,61,-1,-1,-1,-1,-1,-1,-1,-1,-1,-1,-1,-1,-1,-1,-1,-1,-1,-1,-1,-1,-1,-1,-1,-1,-1,-1,-1,-1,-1,-1,-1,-1],"loss_changes":[7.224059E11,2.2276635E11,1.5021946E11,9.353966E10,7.9087E10,3.240126E10,2.5225888E10,2.0523713E10,4.4837392E10,3.676736E10,7.183229E10,1.1455693E10,1.1624301E10,8.118108E9,4.1894052E9,4.6652785E9,6.072959E9,1.6823321E10,1.8541429E10,1.1916943E10,7.7434327E9,9.917645E9,8.97612E9,9.067639E9,8.717287E9,1.1324499E10,1.2280332E10,1.0641433E10,6.9624627E9,3.4004992E9,1.3053788E10,0E0,0E0,0E0,0E0,0E0,0E0,0E0,0E0,0E0,0E0,0E0,0E0,0E0,0E0,0E0,0E0,0E0,0E0,0E0,0E0,0E0,0E0,0E0,0E0,0E0,0E0,0E0,0E0,0E0,0E0,0E0,0E0],"parents":[2147483647,0,0,1,1,2,2,3,3,4,4,5,5,6,6,7,7,8,8,9,9,10,10,11,11,12,12,13,13,14,14,15,15,16,16,17,17,18,18,19,19,20,20,21,21,22,22,23,23,24,24,25,25,26,26,27,27,28,28,29,29,30,30],"right_children":[2,4,6,8,10,12,14,16,18,20,22,24,26,28,30,32,34,36,38,40,42,44,46,48,50,52,54,56,58,60,62,-1,-1,-1,-1,-1,-1,-1,-1,-1,-1,-1,-1,-1,-1,-1,-1,-1,-1,-1,-1,-1,-1,-1,-1,-1,-1,-1,-1,-1,-1,-1,-1],"split_conditions":[9.585E3,6.3105713E3,1.3732E4,1E0,1E0,1.2195E4,1.8563E4,4.964857E3,2E0,8.695857E3,2E0,2E0,1E0,2E0,1E0,1E0,2.8E1,4.286143E3,4.8517144E3,1E0,1.0860857E4,9.128429E3,2.7E1,1E0,1E0,1E0,9.419571E3,1E0,7E0,5.1E1,1.1E1,-9.281E1,-6.4360374E1,-5.9651196E1,-2.4507555E1,-1.9153051E1,4.654121E1,-5.8378963E1,-1.8234402E1,-2.571762E1,1.7649363E1,2.1590073E1,7.700526E1,1.1602142E2,2.2565286E2,2.0557934E1,8.0460075E1,5.765576E1,1.8031224E2,5.7894684E1,1.0871264E2,9.58471E1,-1.2009002E2,1.0076708E2,1.7599042E2,2.1778772E2,4.5981064E2,1.8388092E2,4.081096E2,3.3840543E2,4.7584967E2,5.471144E2,-1.1063958E2],"split_indices":[39,41,41,3,3,39,39,41,1,41,1,1,3,1,37,17,13,41,41,17,41,41,13,3,17,37,41,3,1,15,12,0,0,0,0,0,0,0,0,0,0,0,0,0,0,0,0,0,0,0,0,0,0,0,0,0,0,0,0,0,0,0,0],"split_type":[0,0,0,0,0,0,0,0,0,0,0,0,0,0,0,0,0,0,0,0,0,0,0,0,0,0,0,0,0,0,0,0,0,0,0,0,0,0,0,0,0,0,0,0,0,0,0,0,0,0,0,0,0,0,0,0,0,0,0,0,0,0,0],"sum_hessian":[7.85781E5,6.63063E5,1.22718E5,3.6395E5,2.99113E5,1.0505E5,1.7668E4,2.0114E5,1.6281E5,1.92796E5,1.06317E5,7.5055E4,2.9995E4,1.2692E4,4.976E3,9.1305E4,1.09835E5,4.3764E4,1.19046E5,1.44901E5,4.7895E4,2.1372E4,8.4945E4,6.461E3,6.8594E4,6.426E3,2.3569E4,2.022E3,1.067E4,4.667E3,3.09E2,7.3359E4,1.7946E4,9.5729E4,1.4106E4,1.4647E4,2.9117E4,4.862E4,7.0426E4,1.26799E5,1.8102E4,4.0427E4,7.468E3,1.9058E4,2.314E3,7.8148E4,6.797E3,2.396E3,4.065E3,5.8738E4,9.856E3,5.748E3,6.78E2,8.48E3,1.5089E4,1.33E3,6.92E2,1.0312E4,3.58E2,4.155E3,5.12E2,1.28E2,1.81E2],"tree_param":{"num_deleted":"0","num_feature":"42","num_nodes":"63","size_leaf_vector":"1"}},{"base_weights":[4.5352545E-2,-5.9377844E2,1.4075969E3,-1.1437427E3,-2.3204564E2,9.701549E2,3.52797E3,-1.5567269E3,-6.314988E2,-5.3763995E2,4.1610245E2,7.002633E2,1.7017968E3,2.891285E3,5.6437954E3,-1.9864072E3,-1.426622E3,1.4436664E2,-9.776866E2,-8.5596716E2,-1.2941269E2,1.7900978E3,-6.5702866E1,7.7693275E1,9.612212E2,1.2824592E3,2.4390674E3,2.425425E3,3.8529934E3,4.9662646E3,6.9985635E3,-1.0525176E2,-6.4659476E0,-7.676165E1,-4.7222866E1,-5.6643826E1,1.9853182E1,-8.2134056E1,-4.2083443E1,-4.723724E1,-1.024339E1,-9.970966E0,4.8503685E1,6.99382E1,1.3483694E2,-1.6775461E1,8.849904E0,-3.620992E0,7.067748E1,1.9574377E1,6.6419815E1,5.225658E1,1.0999294E2,2.4315392E2,1.022296E2,6.2841156E1,1.3567044E2,2.9238565E2,1.7673108E2,2.4457666E2,6.435075E2,3.5956238E2,1.7910556E2],"categories":[],"categories_nodes":[],"categories_segments":[],"categories_sizes":[],"default_left":[0,0,0,0,0,0,0,0,0,0,0,0,0,0,0,0,0,0,0,0,0,0,0,0,0,0,0,0,0,0,0,0,0,0,0,0,0,0,0,0,0,0,0,0,0,0,0,0,0,0,0,0,0,0,0,0,0,0,0,0,0,0,0],"id":14,"left_children":[1,3,5,7,9,11,13,15,17,19,21,23,25,27,29,31,33,35,37,39,41,43,45,47,49,51,53,55,57,59,61,-1,-1,-1,-1,-1,-1,-1,-1,-1,-1,-1,-1,-1,-1,-1,-1,-1,-1,-1,-1,-1,-1,-1,-1,-1,-1,-1,-1,-1,-1,-1,-1],"loss_changes":[6.5678705E11,1.0994098E11,2.1625074E11,4.6384873E10,6.6030543E10,3.816384E10,5.3697184E10,6.783566E9,2.6288628E10,2.944029E10,7.071279E10,2.2938943E10,1.6099131E10,1.3723402E10,8.4300923E9,6.214902E9,4.8784343E9,9.747021E9,6.120071E9,7.3576694E9,7.640445E9,9.835512E9,5.17879E9,8.362987E9,2.081221E10,7.226581E9,1.8045272E10,6.946775E9,6.330581E9,3.5702538E9,1.9965379E9,0E0,0E0,0E0,0E0,0E0,0E0,0E0,0E0,0E0,0E0,0E0,0E0,0E0,0E0,0E0,0E0,0E0,0E0,0E0,0E0,0E0,0E0,0E0,0E0,0E0,0E0,0E0,0E0,0E0,0E0,0E0,0E0],"parents":[2147483647,0,0,1,1,2,2,3,3,4,4,5,5,6,6,7,7,8,8,9,9,10,10,11,11,12,12,13,13,14,14,15,15,16,16,17,17,18,18,19,19,20,20,21,21,22,22,23,23,24,24,25,25,26,26,27,27,28,28,29,29,30,30],"right_children":[2,4,6,8,10,12,14,16,18,20,22,24,26,28,30,32,34,36,38,40,42,44,46,48,50,52,54,56,58,60,62,-1,-1,-1,-1,-1,-1,-1,-1,-1,-1,-1,-1,-1,-1,-1,-1,-1,-1,-1,-1,-1,-1,-1,-1,-1,-1,-1,-1,-1,-1,-1,-1],"split_conditions":[7.875E3,5.352143E3,1.2604E4,1E0,1E0,9.747571E3,1.7252E4,3.9095715E3,2E0,6.9567144E3,2E0,1E0,1E0,1.3262857E4,2.0625E4,1E0,1E0,3.444E3,3.7318572E3,2.8E1,9.977143E3,6.9792856E3,6.714E3,1E0,7.168857E3,1.2266714E4,2E0,1E0,2E0,7E0,1E0,-1.0525176E2,-6.4659476E0,-7.676165E1,-4.7222866E1,-5.6643826E1,1.9853182E1,-8.2134056E1,-4.2083443E1,-4.723724E1,-1.024339E1,-9.970966E0,4.8503685E1,6.99382E1,1.3483694E2,-1.6775461E1,8.849904E0,-3.620992E0,7.067748E1,1.9574377E1,6.6419815E1,5.225658E1,1.0999294E2,2.4315392E2,1.022296E2,6.2841156E1,1.3567044E2,2.9238565E2,1.7673108E2,2.4457666E2,6.435075E2,3.5956238E2,1.7910556E2],"split_indices":[39,41,39,3,3,41,39,41,1,41,1,3,3,41,39,38,17,41,41,13,41,41,39,17,41,41,1,3,1,1,37,0,0,0,0,0,0,0,0,0,0,0,0,0,0,0,0,0,0,0,0,0,0,0,0,0,0,0,0,0,0,0,0],"split_type":[0,0,0,0,0,0,0,0,0,0,0,0,0,0,0,0,0,0,0,0,0,0,0,0,0,0,0,0,0,0,0,0,0,0,0,0,0,0,0,0,0,0,0,0,0,0,0,0,0,0,0,0,0,0,0,0,0,0,0,0,0,0,0],"sum_hessian":[7.85781E5,5.52634E5,2.33147E5,2.19267E5,3.33367E5,1.93275E5,3.9872E4,1.21394E5,9.7873E4,2.26551E5,1.06816E5,1.41193E5,5.2082E4,3.0651E4,9.221E3,2.8211E4,9.3183E4,3.0197E4,6.7676E4,1.27291E5,9.926E4,2.7731E4,7.9085E4,4.1703E4,9.949E4,3.3201E4,1.8881E4,2.0651E4,1E4,6.15E3,3.071E3,2.6517E4,1.694E3,7.605E4,1.7133E4,4.987E3,2.521E4,1.149E4,5.6186E4,1.12017E5,1.5274E4,9.3319E4,5.941E3,1.9372E4,8.359E3,3.7451E4,4.1634E4,3.7491E4,4.212E3,3.8991E4,6.0499E4,2.6379E4,6.822E3,2.641E3,1.624E4,4.084E3,1.6567E4,1.374E3,8.626E3,6.094E3,5.6E1,2.906E3,1.65E2],"tree_param":{"num_deleted":"0","num_feature":"42","num_nodes":"63","size_leaf_vector":"1"}},{"base_weights":[4.6341676E-2,-5.747239E2,1.3130597E3,-1.056114E3,-2.0874826E2,9.879577E2,3.876876E3,-1.4460673E3,-5.662248E2,-4.9425024E2,4.2185495E2,6.7506726E2,1.816242E3,2.9918152E3,5.428708E3,-1.8010364E3,-1.2926731E3,1.8320613E2,-8.9758026E2,-7.9912854E2,-1.3712648E2,1.7496849E3,-5.0571346E1,1.7083876E3,5.53698E2,9.181461E2,2.1037537E3,4.497573E3,2.6936104E3,4.8756133E3,6.8093037E3,-9.39627E1,-1.5470163E1,-6.963657E1,-4.170732E1,-4.3914642E1,2.30566E1,-7.42048E1,-3.7687862E1,-4.48477E1,-1.2484489E1,-9.407811E0,6.2659565E1,8.291913E1,2.552989E2,-6.1350455E0,4.0991955E1,2.0914106E1,1.27748E2,1.451559E1,4.395021E1,6.053889E1,-1.297409E2,6.626992E1,1.2910735E2,1.6837779E2,3.68752E2,1.4025133E2,1.799763E0,2.545496E2,4.722858E1,3.5102237E2,1.7012685E2],"categories":[],"categories_nodes":[],"categories_segments":[],"categories_sizes":[],"default_left":[0,0,0,0,0,0,0,0,0,0,0,0,0,0,0,0,0,0,0,0,0,0,0,0,0,0,0,0,0,0,0,0,0,0,0,0,0,0,0,0,0,0,0,0,0,0,0,0,0,0,0,0,0,0,0,0,0,0,0,0,0,0,0],"id":15,"left_children":[1,3,5,7,9,11,13,15,17,19,21,23,25,27,29,31,33,35,37,39,41,43,45,47,49,51,53,55,57,59,61,-1,-1,-1,-1,-1,-1,-1,-1,-1,-1,-1,-1,-1,-1,-1,-1,-1,-1,-1,-1,-1,-1,-1,-1,-1,-1,-1,-1,-1,-1,-1,-1],"loss_changes":[5.930155E11,9.628708E10,1.9940812E11,4.509234E10,5.5900353E10,5.502514E10,3.6961583E10,7.1539753E9,2.598024E10,2.3270343E10,6.0700324E10,1.9326493E10,1.5029928E10,7.6873073E9,7.432536E9,4.626055E9,4.2094264E9,9.463404E9,6.1183795E9,6.1968794E9,6.983673E9,7.7729055E9,4.481E9,1.7689862E10,1.1816288E10,1.4517539E10,1.6416539E10,9.18691E9,4.23859E9,5.9083E9,1.9858964E9,0E0,0E0,0E0,0E0,0E0,0E0,0E0,0E0,0E0,0E0,0E0,0E0,0E0,0E0,0E0,0E0,0E0,0E0,0E0,0E0,0E0,0E0,0E0,0E0,0E0,0E0,0E0,0E0,0E0,0E0,0E0,0E0],"parents":[2147483647,0,0,1,1,2,2,3,3,4,4,5,5,6,6,7,7,8,8,9,9,10,10,11,11,12,12,13,13,14,14,15,15,16,16,17,17,18,18,19,19,20,20,21,21,22,22,23,23,24,24,25,25,26,26,27,27,28,28,29,29,30,30],"right_children":[2,4,6,8,10,12,14,16,18,20,22,24,26,28,30,32,34,36,38,40,42,44,46,48,50,52,54,56,58,60,62,-1,-1,-1,-1,-1,-1,-1,-1,-1,-1,-1,-1,-1,-1,-1,-1,-1,-1,-1,-1,-1,-1,-1,-1,-1,-1,-1,-1,-1,-1,-1,-1],"split_conditions":[7.805E3,5.475857E3,1.2549E4,1E0,1E0,1.0611E4,1.6322E4,4.1624287E3,2E0,6.933E3,2E0,2E0,1E0,2E0,2.0625E4,1E0,1E0,3.627E3,3.8684285E3,1E0,1.0418143E4,5E1,2.7E1,1E0,8.362571E3,1E0,8.738857E3,1E0,1E0,5.2E1,1E0,-9.39627E1,-1.5470163E1,-6.963657E1,-4.170732E1,-4.3914642E1,2.30566E1,-7.42048E1,-3.7687862E1,-4.48477E1,-1.2484489E1,-9.407811E0,6.2659565E1,8.291913E1,2.552989E2,-6.1350455E0,4.0991955E1,2.0914106E1,1.27748E2,1.451559E1,4.395021E1,6.053889E1,-1.297409E2,6.626992E1,1.2910735E2,1.6837779E2,3.68752E2,1.4025133E2,1.799763E0,2.545496E2,4.722858E1,3.5102237E2,1.7012685E2],"split_indices":[39,41,41,3,3,39,39,41,1,41,1,1,3,1,39,38,17,41,41,17,41,15,13,3,41,37,41,3,37,15,37,0,0,0,0,0,0,0,0,0,0,0,0,0,0,0,0,0,0,0,0,0,0,0,0,0,0,0,0,0,0,0,0],"split_type":[0,0,0,0,0,0,0,0,0,0,0,0,0,0,0,0,0,0,0,0,0,0,0,0,0,0,0,0,0,0,0,0,0,0,0,0,0,0,0,0,0,0,0,0,0,0,0,0,0,0,0,0,0,0,0,0,0,0,0,0,0,0,0],"sum_hessian":[7.85781E5,5.46536E5,2.39245E5,2.36047E5,3.10489E5,2.12323E5,2.6922E4,1.31428E5,1.04619E5,2.13726E5,9.6763E4,1.54109E5,5.8214E4,1.7146E4,9.776E3,3.9654E4,9.1774E4,3.2075E4,7.2544E4,1.15296E5,9.843E4,2.5392E4,7.1371E4,1.6197E4,1.37912E5,1.4118E4,4.4096E4,2.832E3,1.4314E4,6.983E3,2.793E3,3.7678E4,1.976E3,7.5333E4,1.6441E4,6.655E3,2.542E4,1.4284E4,5.826E4,9.787E4,1.7426E4,9.4946E4,3.484E3,2.4721E4,6.71E2,6.591E4,5.461E3,6.418E3,9.779E3,7.621E4,6.1702E4,1.3033E4,1.085E3,1.6787E4,2.7309E4,2.035E3,7.97E2,1.3738E4,5.76E2,6.62E3,3.63E2,2.629E3,1.64E2],"tree_param":{"num_deleted":"0","num_feature":"42","num_nodes":"63","size_leaf_vector":"1"}},{"base_weights":[4.6413254E-2,-3.503454E2,1.9510875E3,-7.45516E2,3.011627E2,1.5815892E3,4.4603486E3,1.1696903E1,-9.432187E2,1.2195603E3,1.7289145E2,1.2975244E3,2.4692983E3,3.9936204E3,6.4893057E3,-7.9579297E2,6.6058606E2,-1.2553219E3,-5.732815E2,2.3232431E2,1.9541643E3,4.5252605E1,7.223572E2,5.421523E2,1.5560177E3,2.0067015E3,3.2100752E3,4.144838E3,3.0661343E2,6.270453E3,1.3029552E4,-5.2024616E1,1.5669841E1,-8.339606E0,6.1726116E1,-7.784351E1,-5.4025616E1,-3.3861263E1,-1.0034816E1,6.794743E-1,1.9067737E2,7.1506676E1,1.5502861E2,-9.495766E0,1.3895609E1,2.7424213E1,9.208152E1,3.594449E1,-1.2402488E2,4.3588104E1,9.69317E1,1.0913141E2,-6.518813E1,3.0438217E2,1.3951636E2,1.5955058E2,2.3958557E2,2.888242E2,-1.387743E2,2.6263864E2,3.8035678E2,6.907165E2,2.9974417E2],"categories":[],"categories_nodes":[],"categories_segments":[],"categories_sizes":[],"default_left":[0,0,0,0,0,0,0,0,0,0,0,0,0,0,0,0,0,0,0,0,0,0,0,0,0,0,0,0,0,0,0,0,0,0,0,0,0,0,0,0,0,0,0,0,0,0,0,0,0,0,0,0,0,0,0,0,0,0,0,0,0,0,0],"id":16,"left_children":[1,3,5,7,9,11,13,15,17,19,21,23,25,27,29,31,33,35,37,39,41,43,45,47,49,51,53,55,57,59,61,-1,-1,-1,-1,-1,-1,-1,-1,-1,-1,-1,-1,-1,-1,-1,-1,-1,-1,-1,-1,-1,-1,-1,-1,-1,-1,-1,-1,-1,-1,-1,-1],"loss_changes":[5.3718398E11,1.7150457E11,1.1091463E11,6.20738E10,2.9627847E10,2.629301E10,1.4514815E10,4.4982428E10,3.7961925E10,2.2352503E10,1.5477096E10,1.5425184E10,8.656191E9,6.960169E9,4.026278E9,1.0382066E10,2.260318E10,9.399206E9,5.826904E9,1.0301629E10,1.0612068E10,9.798411E9,8.0948204E9,1.0763019E10,1.5408284E10,9.067295E9,1.1718517E10,7.385088E9,8.327364E9,3.7403607E9,4.250839E8,0E0,0E0,0E0,0E0,0E0,0E0,0E0,0E0,0E0,0E0,0E0,0E0,0E0,0E0,0E0,0E0,0E0,0E0,0E0,0E0,0E0,0E0,0E0,0E0,0E0,0E0,0E0,0E0,0E0,0E0,0E0,0E0],"parents":[2147483647,0,0,1,1,2,2,3,3,4,4,5,5,6,6,7,7,8,8,9,9,10,10,11,11,12,12,13,13,14,14,15,15,16,16,17,17,18,18,19,19,20,20,21,21,22,22,23,23,24,24,25,25,26,26,27,27,28,28,29,29,30,30],"right_children":[2,4,6,8,10,12,14,16,18,20,22,24,26,28,30,32,34,36,38,40,42,44,46,48,50,52,54,56,58,60,62,-1,-1,-1,-1,-1,-1,-1,-1,-1,-1,-1,-1,-1,-1,-1,-1,-1,-1,-1,-1,-1,-1,-1,-1,-1,-1,-1,-1,-1,-1,-1,-1],"split_conditions":[9.655E3,6.53E3,1.5572E4,2E0,2E0,1.1438857E4,1.9410285E4,1E0,5.157E3,1E0,1E0,1E0,1E0,5.2E1,7E0,7.6375713E3,4.637857E3,3.97E3,1E0,5.1E1,7.9384287E3,7.771E3,2.7E1,1E0,8.004E3,1E0,2E0,1.1415E4,1E0,1E0,2.64E2,-5.2024616E1,1.5669841E1,-8.339606E0,6.1726116E1,-7.784351E1,-5.4025616E1,-3.3861263E1,-1.0034816E1,6.794743E-1,1.9067737E2,7.1506676E1,1.5502861E2,-9.495766E0,1.3895609E1,2.7424213E1,9.208152E1,3.594449E1,-1.2402488E2,4.3588104E1,9.69317E1,1.0913141E2,-6.518813E1,3.0438217E2,1.3951636E2,1.5955058E2,2.3958557E2,2.888242E2,-1.387743E2,2.6263864E2,3.8035678E2,6.907165E2,2.9974417E2],"split_indices":[39,39,39,1,1,41,41,3,39,3,17,3,3,15,1,41,41,39,17,15,41,39,13,37,41,37,1,40,37,3,0,0,0,0,0,0,0,0,0,0,0,0,0,0,0,0,0,0,0,0,0,0,0,0,0,0,0,0,0,0,0,0,0],"split_type":[0,0,0,0,0,0,0,0,0,0,0,0,0,0,0,0,0,0,0,0,0,0,0,0,0,0,0,0,0,0,0,0,0,0,0,0,0,0,0,0,0,0,0,0,0,0,0,0,0,0,0,0,0,0,0,0,0,0,0,0,0,0,0],"sum_hessian":[7.85781E5,6.66147E5,1.19634E5,4.14645E5,2.51502E5,1.0428E5,1.5354E4,8.5847E4,3.28798E5,3.0821E4,2.20681E5,7.9002E4,2.5278E4,1.2485E4,2.869E3,3.8249E4,4.7598E4,1.78338E5,1.5046E5,1.315E4,1.7671E4,1.79082E5,4.1599E4,2.0143E4,5.8859E4,1.5563E4,9.715E3,1.1993E4,4.92E2,2.778E3,9.1E1,3.1336E4,6.913E3,1.9495E4,2.8103E4,6.5442E4,1.12896E5,1.1764E5,3.282E4,1.2394E4,7.56E2,1.2129E4,5.542E3,8.9061E4,9.0021E4,3.6007E4,5.592E3,1.9031E4,1.112E3,2.111E4,3.7749E4,1.4778E4,7.85E2,1.235E3,8.48E3,4.849E3,7.144E3,1.77E2,3.15E2,1.58E3,1.198E3,8.1E1,1E1],"tree_param":{"num_deleted":"0","num_feature":"42","num_nodes":"63","size_leaf_vector":"1"}},{"base_weights":[4.8007876E-2,-4.2201605E2,1.474757E3,-8.36315E2,8.47841E1,1.056186E3,3.3922346E3,-1.2259913E3,-4.5102332E2,-3.8730698E2,6.000042E2,6.199133E2,1.7628195E3,2.9131482E3,5.4242573E3,-1.5215966E3,-1.0315403E3,-5.4262146E2,1.5862508E2,2.8206332E2,-6.372521E2,1.6539774E3,3.811737E2,3.5501315E2,1.524891E3,3.5099138E3,1.4499545E3,2.5293198E3,3.9077634E3,5.251183E3,1.0610762E4,-7.835934E1,-2.3043753E1,-5.555572E1,-2.5075294E1,-3.9240738E1,-1.9569643E1,-2.4101684E0,6.546459E1,-3.1226212E1,2.8197916E1,-4.964265E1,-1.8058546E1,7.717092E1,2.3655699E2,1.3190726E1,7.746638E1,1.2171478E1,6.753086E1,6.856969E1,1.4564098E2,1.6581206E2,4.162857E2,6.644248E1,1.5016168E2,9.4571556E1,1.4297289E2,1.1829241E2,2.1476761E2,2.153535E2,3.258717E2,6.4810126E2,3.1638376E2],"categories":[],"categories_nodes":[],"categories_segments":[],"categories_sizes":[],"default_left":[0,0,0,0,0,0,0,0,0,0,0,0,0,0,0,0,0,0,0,0,0,0,0,0,0,0,0,0,0,0,0,0,0,0,0,0,0,0,0,0,0,0,0,0,0,0,0,0,0,0,0,0,0,0,0,0,0,0,0,0,0,0,0],"id":17,"left_children":[1,3,5,7,9,11,13,15,17,19,21,23,25,27,29,31,33,35,37,39,41,43,45,47,49,51,53,55,57,59,61,-1,-1,-1,-1,-1,-1,-1,-1,-1,-1,-1,-1,-1,-1,-1,-1,-1,-1,-1,-1,-1,-1,-1,-1,-1,-1,-1,-1,-1,-1,-1,-1],"loss_changes":[4.8908835E11,1.2827569E11,1.4033109E11,5.0467635E10,6.683787E10,4.4244566E10,3.0483448E10,9.604612E9,9.438835E9,2.3991507E10,3.0304276E10,2.1272508E10,2.9940646E10,9.669296E9,5.308629E9,3.2059228E9,4.2513613E9,5.3818163E9,5.254657E9,9.964223E9,1.0250162E10,7.678001E9,1.4916056E10,7.625767E9,4.2766828E9,7.7323633E9,8.736711E9,3.8477824E9,4.2078945E9,6.887801E9,1.8515476E9,0E0,0E0,0E0,0E0,0E0,0E0,0E0,0E0,0E0,0E0,0E0,0E0,0E0,0E0,0E0,0E0,0E0,0E0,0E0,0E0,0E0,0E0,0E0,0E0,0E0,0E0,0E0,0E0,0E0,0E0,0E0,0E0],"parents":[2147483647,0,0,1,1,2,2,3,3,4,4,5,5,6,6,7,7,8,8,9,9,10,10,11,11,12,12,13,13,14,14,15,15,16,16,17,17,18,18,19,19,20,20,21,21,22,22,23,23,24,24,25,25,26,26,27,27,28,28,29,29,30,30],"right_children":[2,4,6,8,10,12,14,16,18,20,22,24,26,28,30,32,34,36,38,40,42,44,46,48,50,52,54,56,58,60,62,-1,-1,-1,-1,-1,-1,-1,-1,-1,-1,-1,-1,-1,-1,-1,-1,-1,-1,-1,-1,-1,-1,-1,-1,-1,-1,-1,-1,-1,-1,-1,-1],"split_conditions":[8.362571E3,1E0,1.3094E4,5.9054287E3,5.944857E3,1E0,1.7498715E4,4.612143E3,1E0,2E0,2E0,1.0991571E4,2E0,1.6322E4,7E0,1E0,2.8E1,6.7134287E3,2.8E1,3.8684285E3,4.782143E3,5E1,2.8E1,1E0,1.4302429E4,5E1,2.7E1,1E0,1E0,1E0,2.64E2,-7.835934E1,-2.3043753E1,-5.555572E1,-2.5075294E1,-3.9240738E1,-1.9569643E1,-2.4101684E0,6.546459E1,-3.1226212E1,2.8197916E1,-4.964265E1,-1.8058546E1,7.717092E1,2.3655699E2,1.3190726E1,7.746638E1,1.2171478E1,6.753086E1,6.856969E1,1.4564098E2,1.6581206E2,4.162857E2,6.644248E1,1.5016168E2,9.4571556E1,1.4297289E2,1.1829241E2,2.1476761E2,2.153535E2,3.258717E2,6.4810126E2,3.1638376E2],"split_indices":[41,3,39,41,41,3,41,41,17,1,1,41,1,39,1,38,13,41,13,41,41,15,13,17,41,15,13,3,3,3,0,0,0,0,0,0,0,0,0,0,0,0,0,0,0,0,0,0,0,0,0,0,0,0,0,0,0,0,0,0,0,0,0],"split_type":[0,0,0,0,0,0,0,0,0,0,0,0,0,0,0,0,0,0,0,0,0,0,0,0,0,0,0,0,0,0,0,0,0,0,0,0,0,0,0,0,0,0,0,0,0,0,0,0,0,0,0,0,0,0,0,0,0,0,0,0,0,0,0],"sum_hessian":[7.85781E5,6.10932E5,1.74849E5,3.36142E5,2.7479E5,1.43521E5,3.1328E4,1.67119E5,1.69023E5,1.43397E5,1.31393E5,8.8737E4,5.4784E4,2.5353E4,5.975E3,6.6309E4,1.0081E5,1.46945E5,2.2078E4,3.8987E4,1.0441E5,2.2589E4,1.08804E5,6.8645E4,2.0092E4,8.319E3,4.6465E4,1.8296E4,7.057E3,5.784E3,1.91E2,6.3576E4,2.733E3,8.765E4,1.316E4,5.6483E4,9.0462E4,1.8715E4,3.363E3,9.247E3,2.974E4,4.5632E4,5.8778E4,2.1807E4,7.82E2,9.8872E4,9.932E3,6.1728E4,6.917E3,1.8093E4,1.999E3,7.999E3,3.2E2,4.3106E4,3.359E3,6.242E3,1.2054E4,1.419E3,5.638E3,3.316E3,2.468E3,1.22E2,6.9E1],"tree_param":{"num_deleted":"0","num_feature":"42","num_nodes":"63","size_leaf_vector":"1"}},{"base_weights":[4.9850266E-2,-3.791384E2,1.4890997E3,-7.251967E2,1.5366324E2,1.1618186E3,3.6738943E3,-1.0673864E3,-2.8864014E2,-1.1944476E2,7.2293066E2,8.939984E2,1.9109285E3,3.1230813E3,5.3516885E3,-1.3458291E3,-8.223354E2,3.9252518E2,-5.438503E2,-2.885039E2,4.581749E2,2.0819739E3,3.430316E2,1.0518898E3,2.2861455E2,1.01768616E3,2.1637742E3,2.6266414E3,4.0326855E3,5.5456826E3,2.4061514E3,-7.220212E1,-4.694581E1,-4.507261E1,-1.3970222E1,-1.3447237E1,3.8685055E1,-4.5752735E1,-1.3858884E1,-1.9116655E1,1.8583477E1,1.7984472E1,8.2970314E1,7.5457886E1,1.3702776E2,1.3481529E1,6.6589584E1,1.9020323E1,6.310863E1,-6.953074E0,4.7678116E1,6.8823906E1,-1.16188774E2,7.500512E1,1.319056E2,1.4114114E2,-4.864549E1,3.707982E2,1.7180034E2,2.6305368E2,3.909017E2,4.5969516E2,-1.344269E2],"categories":[],"categories_nodes":[],"categories_segments":[],"categories_sizes":[],"default_left":[0,0,0,0,0,0,0,0,0,0,0,0,0,0,0,0,0,0,0,0,0,0,0,0,0,0,0,0,0,0,0,0,0,0,0,0,0,0,0,0,0,0,0,0,0,0,0,0,0,0,0,0,0,0,0,0,0,0,0,0,0,0,0],"id":18,"left_children":[1,3,5,7,9,11,13,15,17,19,21,23,25,27,29,31,33,35,37,39,41,43,45,47,49,51,53,55,57,59,61,-1,-1,-1,-1,-1,-1,-1,-1,-1,-1,-1,-1,-1,-1,-1,-1,-1,-1,-1,-1,-1,-1,-1,-1,-1,-1,-1,-1,-1,-1,-1,-1],"loss_changes":[4.4367682E11,1.1547682E11,1.1403559E11,5.6719294E10,3.834091E10,2.782724E10,1.9185336E10,1.4522073E10,2.9003725E10,1.6274504E10,4.1279476E10,1.0734715E10,8.248189E9,7.054115E9,2.9203005E9,3.9804436E9,4.862894E9,1.1465607E10,1.2013969E10,7.9861524E9,4.4634803E9,6.585213E9,4.5347686E9,1.1660509E10,5.223899E9,9.667447E9,8.958542E9,7.15196E9,1.1121951E10,3.0735237E9,1.1056212E10,0E0,0E0,0E0,0E0,0E0,0E0,0E0,0E0,0E0,0E0,0E0,0E0,0E0,0E0,0E0,0E0,0E0,0E0,0E0,0E0,0E0,0E0,0E0,0E0,0E0,0E0,0E0,0E0,0E0,0E0,0E0,0E0],"parents":[2147483647,0,0,1,1,2,2,3,3,4,4,5,5,6,6,7,7,8,8,9,9,10,10,11,11,12,12,13,13,14,14,15,15,16,16,17,17,18,18,19,19,20,20,21,21,22,22,23,23,24,24,25,25,26,26,27,27,28,28,29,29,30,30],"right_children":[2,4,6,8,10,12,14,16,18,20,22,24,26,28,30,32,34,36,38,40,42,44,46,48,50,52,54,56,58,60,62,-1,-1,-1,-1,-1,-1,-1,-1,-1,-1,-1,-1,-1,-1,-1,-1,-1,-1,-1,-1,-1,-1,-1,-1,-1,-1,-1,-1,-1,-1,-1,-1],"split_conditions":[8.896E3,6.4564287E3,1.3262857E4,1E0,1E0,1.1689E4,1.8563E4,5.0757144E3,2E0,8.695857E3,2E0,6E0,1E0,1E0,1E0,1E0,2.8E1,4.4305713E3,5.643E3,1E0,1.1438857E4,1.4E1,2.7E1,7.267143E3,9.592E3,1E0,9.481286E3,1E0,2E0,5.1E1,1.1E1,-7.220212E1,-4.694581E1,-4.507261E1,-1.3970222E1,-1.3447237E1,3.8685055E1,-4.5752735E1,-1.3858884E1,-1.9116655E1,1.8583477E1,1.7984472E1,8.2970314E1,7.5457886E1,1.3702776E2,1.3481529E1,6.6589584E1,1.9020323E1,6.310863E1,-6.953074E0,4.7678116E1,6.8823906E1,-1.16188774E2,7.500512E1,1.319056E2,1.4114114E2,-4.864549E1,3.707982E2,1.7180034E2,2.6305368E2,3.909017E2,4.5969516E2,-1.344269E2],"split_indices":[39,41,41,3,3,39,39,41,1,41,1,1,3,3,37,17,13,41,39,17,41,13,13,41,40,37,41,37,1,15,12,0,0,0,0,0,0,0,0,0,0,0,0,0,0,0,0,0,0,0,0,0,0,0,0,0,0,0,0,0,0,0,0],"split_type":[0,0,0,0,0,0,0,0,0,0,0,0,0,0,0,0,0,0,0,0,0,0,0,0,0,0,0,0,0,0,0,0,0,0,0,0,0,0,0,0,0,0,0,0,0,0,0,0,0,0,0,0,0,0,0,0,0,0,0,0,0,0,0],"sum_hessian":[7.85781E5,6.26295E5,1.59486E5,3.79686E5,2.46609E5,1.38709E5,2.0777E4,2.12847E5,1.66839E5,1.66656E5,7.9953E4,1.0218E5,3.6529E4,1.5644E4,5.133E3,9.9633E4,1.13214E5,4.5472E4,1.21367E5,1.28923E5,3.7733E4,1.7466E4,6.2487E4,8.2583E4,1.9597E4,8.06E3,2.8469E4,1.0123E4,5.521E3,4.815E3,3.18E2,8.0259E4,1.9374E4,9.8814E4,1.44E4,1.6624E4,2.8848E4,5.0738E4,7.0629E4,1.1288E5,1.6043E4,3.4875E4,2.858E3,9.343E3,8.123E3,5.817E4,4.317E3,1.9695E4,6.2888E4,1.3003E4,6.594E3,7.279E3,7.81E2,1.1868E4,1.6601E4,9.6E3,5.23E2,8.26E2,4.695E3,4.282E3,5.33E2,1.36E2,1.82E2],"tree_param":{"num_deleted":"0","num_feature":"42","num_nodes":"63","size_leaf_vector":"1"}},{"base_weights":[5.0080337E-2,-3.8261404E2,1.3370941E3,-7.558716E2,7.3981255E1,9.042302E2,2.8560908E3,-1.1080264E3,-4.0767917E2,-3.1642923E2,5.83909E2,5.291431E2,1.5466556E3,2.2787407E3,4.240277E3,-1.3919689E3,-9.355852E2,-4.8981293E2,2.1894093E2,2.925085E2,-5.36798E2,1.5516777E3,3.8610806E2,2.3412013E2,1.1405885E3,3.2072864E3,1.2364785E3,1.3161885E3,2.6441567E3,3.717474E3,5.7010093E3,-5.9938087E1,-8.546113E1,-6.1782673E1,-3.747772E1,-3.471767E1,-1.6532354E1,4.1517767E-1,6.1740337E1,-5.3469494E1,2.2829037E1,-4.537426E1,-1.4518819E1,7.218291E1,2.2397859E2,1.3782733E1,7.5305374E1,6.485429E0,5.766914E1,5.5910255E1,3.5627826E2,1.5116542E2,3.968095E2,5.6453426E1,1.3359277E2,8.620621E1,-1.049813E2,1.0930868E2,1.6380614E2,1.4704677E2,2.3440181E2,2.7544382E2,5.378494E2],"categories":[],"categories_nodes":[],"categories_segments":[],"categories_sizes":[],"default_left":[0,0,0,0,0,0,0,0,0,0,0,0,0,0,0,0,0,0,0,0,0,0,0,0,0,0,0,0,0,0,0,0,0,0,0,0,0,0,0,0,0,0,0,0,0,0,0,0,0,0,0,0,0,0,0,0,0,0,0,0,0,0,0],"id":19,"left_children":[1,3,5,7,9,11,13,15,17,19,21,23,25,27,29,31,33,35,37,39,41,43,45,47,49,51,53,55,57,59,61,-1,-1,-1,-1,-1,-1,-1,-1,-1,-1,-1,-1,-1,-1,-1,-1,-1,-1,-1,-1,-1,-1,-1,-1,-1,-1,-1,-1,-1,-1,-1,-1],"loss_changes":[4.0203705E11,1.041199E11,1.14964595E11,4.1216623E10,5.4705893E10,3.2788554E10,3.0978572E10,8.1814487E9,8.699212E9,2.0884947E10,2.2809096E10,1.5497976E10,2.5833447E10,9.621651E9,8.693875E9,3.8683525E9,5.8033275E9,4.864819E9,4.1914166E9,9.241695E9,1.043859E10,6.38883E9,1.2238854E10,5.562372E9,3.7379318E9,6.8439163E9,6.5136026E9,1.0498953E10,5.733384E9,6.322381E9,2.8608348E9,0E0,0E0,0E0,0E0,0E0,0E0,0E0,0E0,0E0,0E0,0E0,0E0,0E0,0E0,0E0,0E0,0E0,0E0,0E0,0E0,0E0,0E0,0E0,0E0,0E0,0E0,0E0,0E0,0E0,0E0,0E0,0E0],"parents":[2147483647,0,0,1,1,2,2,3,3,4,4,5,5,6,6,7,7,8,8,9,9,10,10,11,11,12,12,13,13,14,14,15,15,16,16,17,17,18,18,19,19,20,20,21,21,22,22,23,23,24,24,25,25,26,26,27,27,28,28,29,29,30,30],"right_children":[2,4,6,8,10,12,14,16,18,20,22,24,26,28,30,32,34,36,38,40,42,44,46,48,50,52,54,56,58,60,62,-1,-1,-1,-1,-1,-1,-1,-1,-1,-1,-1,-1,-1,-1,-1,-1,-1,-1,-1,-1,-1,-1,-1,-1,-1,-1,-1,-1,-1,-1,-1,-1],"split_conditions":[8.362571E3,1E0,1.2392E4,5.9054287E3,6.1272856E3,1E0,1.5041286E4,4.868E3,2.8E1,2E0,2E0,1.0322143E4,2E0,1E0,1.9410285E4,6E0,4.246E3,6.821E3,1E0,3.3737144E3,4.782143E3,5E1,2.8E1,1E0,1.7498715E4,5E1,2.7E1,1E0,1.1614286E4,1E0,7E0,-5.9938087E1,-8.546113E1,-6.1782673E1,-3.747772E1,-3.471767E1,-1.6532354E1,4.1517767E-1,6.1740337E1,-5.3469494E1,2.2829037E1,-4.537426E1,-1.4518819E1,7.218291E1,2.2397859E2,1.3782733E1,7.5305374E1,6.485429E0,5.766914E1,5.5910255E1,3.5627826E2,1.5116542E2,3.968095E2,5.6453426E1,1.3359277E2,8.620621E1,-1.049813E2,1.0930868E2,1.6380614E2,1.4704677E2,2.3440181E2,2.7544382E2,5.378494E2],"split_indices":[41,3,39,41,41,3,41,40,13,1,1,41,1,3,41,1,39,41,17,41,41,15,13,17,41,15,13,37,41,3,1,0,0,0,0,0,0,0,0,0,0,0,0,0,0,0,0,0,0,0,0,0,0,0,0,0,0,0,0,0,0,0,0],"split_type":[0,0,0,0,0,0,0,0,0,0,0,0,0,0,0,0,0,0,0,0,0,0,0,0,0,0,0,0,0,0,0,0,0,0,0,0,0,0,0,0,0,0,0,0,0,0,0,0,0,0,0,0,0,0,0,0,0,0,0,0,0,0,0],"sum_hessian":[7.85781E5,6.10932E5,1.74849E5,3.36142E5,2.7479E5,1.36074E5,3.8775E4,1.67119E5,1.69023E5,1.55634E5,1.19156E5,8.5914E4,5.016E4,2.7364E4,1.1411E4,6.3142E4,1.03977E5,1.49436E5,1.9587E4,4.1356E4,1.14278E5,2.022E4,9.8936E4,5.7953E4,2.7961E4,7.893E3,4.2267E4,7.531E3,1.9833E4,8.406E3,3.005E3,3.9246E4,2.3896E4,3.979E4,6.4187E4,6.5395E4,8.4041E4,1.6224E4,3.363E3,4.446E3,3.691E4,4.5632E4,6.8646E4,1.9502E4,7.18E2,9.0056E4,8.88E3,5.2043E4,5.91E3,2.7858E4,1.03E2,7.599E3,2.94E2,3.9326E4,2.941E3,6.728E3,8.03E2,1.1502E4,8.331E3,4.672E3,3.734E3,2.897E3,1.08E2],"tree_param":{"num_deleted":"0","num_feature":"42","num_nodes":"63","size_leaf_vector":"1"}},{"base_weights":[5.1056672E-2,-2.8034305E2,1.6615139E3,-6.385098E2,2.2688292E2,1.3518635E3,3.7237588E3,-9.555515E2,-2.4528168E2,-4.7917347E1,7.246117E2,1.0933777E3,1.9659755E3,3.28854E3,5.4227476E3,-1.2650532E3,-7.659535E2,3.6397665E2,-4.6340692E2,-2.1060425E2,5.851873E2,1.9697744E3,4.24017E2,2.0619016E3,1.0019655E3,1.0679834E3,2.2242388E3,2.5654814E3,4.282538E3,5.2411025E3,1.0224073E4,-8.0129814E1,-5.7840725E1,-4.248412E1,-1.6030218E1,-2.3186884E1,3.1356073E1,-4.1259796E1,-1.0814567E1,-1.5075938E1,2.259575E1,2.6002455E1,1.10763145E2,9.303314E1,2.6995706E2,1.7221075E1,6.8849144E1,8.5698135E1,2.7253802E2,4.4096054E1,8.6802055E1,7.217165E1,-1.020297E2,7.8069885E1,1.349613E2,1.413336E2,-7.498092E1,3.5319977E2,1.8843709E2,2.188273E2,3.2187686E2,5.855745E2,2.378946E2],"categories":[],"categories_nodes":[],"categories_segments":[],"categories_sizes":[],"default_left":[0,0,0,0,0,0,0,0,0,0,0,0,0,0,0,0,0,0,0,0,0,0,0,0,0,0,0,0,0,0,0,0,0,0,0,0,0,0,0,0,0,0,0,0,0,0,0,0,0,0,0,0,0,0,0,0,0,0,0,0,0,0,0],"id":20,"left_children":[1,3,5,7,9,11,13,15,17,19,21,23,25,27,29,31,33,35,37,39,41,43,45,47,49,51,53,55,57,59,61,-1,-1,-1,-1,-1,-1,-1,-1,-1,-1,-1,-1,-1,-1,-1,-1,-1,-1,-1,-1,-1,-1,-1,-1,-1,-1,-1,-1,-1,-1,-1,-1],"loss_changes":[3.6606833E11,1.2214151E11,7.244956E10,4.9127375E10,3.8059184E10,1.5657812E10,1.0934616E10,1.2801147E10,2.3376067E10,1.846547E10,3.704669E10,6.1449994E9,6.774743E9,8.465588E9,2.5793905E9,3.026002E9,5.0445353E9,1.0100734E10,1.1579924E10,8.591055E9,3.8904607E9,7.19224E9,6.047493E9,7.050027E9,5.58934E9,7.6230374E9,7.140786E9,7.2560927E9,7.068877E9,2.9829202E9,8.3050086E8,0E0,0E0,0E0,0E0,0E0,0E0,0E0,0E0,0E0,0E0,0E0,0E0,0E0,0E0,0E0,0E0,0E0,0E0,0E0,0E0,0E0,0E0,0E0,0E0,0E0,0E0,0E0,0E0,0E0,0E0,0E0,0E0],"parents":[2147483647,0,0,1,1,2,2,3,3,4,4,5,5,6,6,7,7,8,8,9,9,10,10,11,11,12,12,13,13,14,14,15,15,16,16,17,17,18,18,19,19,20,20,21,21,22,22,23,23,24,24,25,25,26,26,27,27,28,28,29,29,30,30],"right_children":[2,4,6,8,10,12,14,16,18,20,22,24,26,28,30,32,34,36,38,40,42,44,46,48,50,52,54,56,58,60,62,-1,-1,-1,-1,-1,-1,-1,-1,-1,-1,-1,-1,-1,-1,-1,-1,-1,-1,-1,-1,-1,-1,-1,-1,-1,-1,-1,-1,-1,-1,-1,-1],"split_conditions":[9.795E3,6.5204287E3,1.4302429E4,1E0,1E0,1.2392E4,1.9410285E4,4.8517144E3,2E0,9.128429E3,2E0,2E0,1E0,1E0,7E0,3.682E3,1E0,4.0232856E3,5.69E3,1E0,1.2873429E4,5E1,2.7E1,5.1E1,1E0,1E0,9.977143E3,1E0,2E0,1E0,2.64E2,-8.0129814E1,-5.7840725E1,-4.248412E1,-1.6030218E1,-2.3186884E1,3.1356073E1,-4.1259796E1,-1.0814567E1,-1.5075938E1,2.259575E1,2.6002455E1,1.10763145E2,9.303314E1,2.6995706E2,1.7221075E1,6.8849144E1,8.5698135E1,2.7253802E2,4.4096054E1,8.6802055E1,7.217165E1,-1.020297E2,7.8069885E1,1.349613E2,1.413336E2,-7.498092E1,3.5319977E2,1.8843709E2,2.188273E2,3.2187686E2,5.855745E2,2.378946E2],"split_indices":[39,41,41,3,3,39,41,41,1,41,1,1,3,3,1,41,17,41,39,17,41,15,13,15,17,37,41,37,1,3,0,0,0,0,0,0,0,0,0,0,0,0,0,0,0,0,0,0,0,0,0,0,0,0,0,0,0,0,0,0,0,0,0],"split_type":[0,0,0,0,0,0,0,0,0,0,0,0,0,0,0,0,0,0,0,0,0,0,0,0,0,0,0,0,0,0,0,0,0,0,0,0,0,0,0,0,0,0,0,0,0,0,0,0,0,0,0,0,0,0,0,0,0,0,0,0,0,0,0],"sum_hessian":[7.85781E5,6.72319E5,1.13462E5,3.94061E5,2.78258E5,9.8651E4,1.4811E4,2.18164E5,1.75897E5,1.79278E5,9.898E4,6.943E4,2.9221E4,1.1793E4,3.018E3,8.2874E4,1.3529E5,4.6372E4,1.29525E5,1.42628E5,3.665E4,1.9247E4,7.9733E4,5.986E3,6.3444E4,6.528E3,2.2693E4,6.829E3,4.964E3,2.91E3,1.08E2,2.0119E4,6.2755E4,1.13879E5,2.1411E4,1.1186E4,3.5186E4,5.2565E4,7.696E4,1.25418E5,1.721E4,3.5243E4,1.407E3,1.8655E4,5.92E2,7.3588E4,6.145E3,5.43E3,5.56E2,5.4529E4,8.915E3,5.825E3,7.03E2,9.475E3,1.3218E4,6.417E3,4.12E2,7.72E2,4.192E3,1.692E3,1.218E3,8.4E1,2.4E1],"tree_param":{"num_deleted":"0","num_feature":"42","num_nodes":"63","size_leaf_vector":"1"}},{"base_weights":[5.2318405E-2,-3.7545978E2,1.1283243E3,-7.0720605E2,2.9935013E1,7.670282E2,2.5572856E3,-1.1131705E3,-4.7445413E2,-4.672468E2,3.3413226E2,4.1478543E2,1.3526215E3,2.1058162E3,4.0558142E3,-1.3708218E3,-9.754892E2,-5.4998456E2,8.2757645E1,5.582966E1,-6.8484247E2,1.1263204E3,1.532764E2,1.5578543E2,1.00888116E3,2.815923E3,1.0789025E3,3.6119573E3,1.9438348E3,3.5371047E3,5.089874E3,-1.530366E1,-7.308504E1,-5.279208E1,-2.4692049E1,-3.622342E1,-1.7665672E1,-5.6044307E0,4.840103E1,-6.0142506E1,1.07123E1,-6.772236E1,-2.9507345E1,5.0751297E1,1.742691E2,4.046387E0,7.80053E1,2.927903E0,4.9731735E1,4.1956676E1,8.512217E1,1.3252856E2,3.5298895E2,4.8807384E1,1.1971604E2,1.1504537E2,2.3169817E2,1.01643394E2,-2.4057867E1,1.7381476E2,4.9657614E2,2.6261484E2,1.1041298E2],"categories":[],"categories_nodes":[],"categories_segments":[],"categories_sizes":[],"default_left":[0,0,0,0,0,0,0,0,0,0,0,0,0,0,0,0,0,0,0,0,0,0,0,0,0,0,0,0,0,0,0,0,0,0,0,0,0,0,0,0,0,0,0,0,0,0,0,0,0,0,0,0,0,0,0,0,0,0,0,0,0,0,0],"id":21,"left_children":[1,3,5,7,9,11,13,15,17,19,21,23,25,27,29,31,33,35,37,39,41,43,45,47,49,51,53,55,57,59,61,-1,-1,-1,-1,-1,-1,-1,-1,-1,-1,-1,-1,-1,-1,-1,-1,-1,-1,-1,-1,-1,-1,-1,-1,-1,-1,-1,-1,-1,-1,-1,-1],"loss_changes":[3.329204E11,7.928944E10,1.0130163E11,3.0636016E10,4.012917E10,3.2305807E10,2.6781762E10,4.1899622E9,8.67335E9,1.146368E10,2.3584383E10,1.5047946E10,2.3558349E10,7.4176184E9,4.89898E9,3.980968E9,2.9797745E9,6.227497E9,4.2435395E9,5.9003684E9,4.509393E9,8.0294584E9,1.3640625E10,5.5546875E9,3.4941092E9,6.4856146E9,6.696055E9,3.9474053E9,5.934031E9,2.3405117E9,1.4206075E9,0E0,0E0,0E0,0E0,0E0,0E0,0E0,0E0,0E0,0E0,0E0,0E0,0E0,0E0,0E0,0E0,0E0,0E0,0E0,0E0,0E0,0E0,0E0,0E0,0E0,0E0,0E0,0E0,0E0,0E0,0E0,0E0],"parents":[2147483647,0,0,1,1,2,2,3,3,4,4,5,5,6,6,7,7,8,8,9,9,10,10,11,11,12,12,13,13,14,14,15,15,16,16,17,17,18,18,19,19,20,20,21,21,22,22,23,23,24,24,25,25,26,26,27,27,28,28,29,29,30,30],"right_children":[2,4,6,8,10,12,14,16,18,20,22,24,26,28,30,32,34,36,38,40,42,44,46,48,50,52,54,56,58,60,62,-1,-1,-1,-1,-1,-1,-1,-1,-1,-1,-1,-1,-1,-1,-1,-1,-1,-1,-1,-1,-1,-1,-1,-1,-1,-1,-1,-1,-1,-1,-1,-1],"split_conditions":[8.1072856E3,1E0,1.2392E4,5.3102856E3,5.3102856E3,1E0,1.7252E4,4.463E3,2.8E1,2E0,2E0,1.0230857E4,2E0,2E0,2.0625E4,2E0,2.8E1,6.6464287E3,1E0,3.20475E3,3.5721428E3,3E1,3E1,1E0,1.2549E4,5E1,2.7E1,1E0,5.2E1,7E0,1E0,-1.530366E1,-7.308504E1,-5.279208E1,-2.4692049E1,-3.622342E1,-1.7665672E1,-5.6044307E0,4.840103E1,-6.0142506E1,1.07123E1,-6.772236E1,-2.9507345E1,5.0751297E1,1.742691E2,4.046387E0,7.80053E1,2.927903E0,4.9731735E1,4.1956676E1,8.512217E1,1.3252856E2,3.5298895E2,4.8807384E1,1.1971604E2,1.1504537E2,2.3169817E2,1.01643394E2,-2.4057867E1,1.7381476E2,4.9657614E2,2.6261484E2,1.1041298E2],"split_indices":[41,3,39,41,41,3,39,40,13,1,1,41,1,1,39,15,13,41,17,41,41,13,13,17,41,15,13,3,15,1,37,0,0,0,0,0,0,0,0,0,0,0,0,0,0,0,0,0,0,0,0,0,0,0,0,0,0,0,0,0,0,0,0],"split_type":[0,0,0,0,0,0,0,0,0,0,0,0,0,0,0,0,0,0,0,0,0,0,0,0,0,0,0,0,0,0,0,0,0,0,0,0,0,0,0,0,0,0,0,0,0,0,0,0,0,0,0,0,0,0,0,0,0,0,0,0,0,0,0],"sum_hessian":[7.85781E5,5.89563E5,1.96218E5,3.24233E5,2.6533E5,1.5662E5,3.9598E4,1.18151E5,2.06082E5,1.00717E5,1.64613E5,9.7796E4,5.8824E4,3.0432E4,9.166E3,4.1145E4,7.7006E4,1.81482E5,2.46E4,2.9589E4,7.1128E4,3.0595E4,1.34018E5,6.8106E4,2.969E4,9.268E3,4.9556E4,2.953E3,2.7479E4,6.107E3,3.059E3,3.236E3,3.7909E4,6.5995E4,1.1011E4,9.6164E4,8.5318E4,2.0163E4,4.437E3,3.307E3,2.6282E4,8.811E3,6.2317E4,2.9218E4,1.377E3,1.27464E5,6.554E3,6.1033E4,7.073E3,2.3854E4,5.836E3,8.922E3,3.46E2,4.5967E4,3.589E3,1.295E3,1.658E3,2.6506E4,9.73E2,6.051E3,5.6E1,2.895E3,1.64E2],"tree_param":{"num_deleted":"0","num_feature":"42","num_nodes":"63","size_leaf_vector":"1"}},{"base_weights":[5.2604612E-2,-4.4546198E2,8.665999E2,-8.193446E2,-2.2145985E2,6.248697E2,2.58317E3,-1.0823053E3,-4.912498E2,-4.1201617E2,2.051182E2,4.0309253E2,1.1635244E3,2.0169108E3,3.8469138E3,-1.1714796E3,-7.072745E2,1.8297476E1,-7.311145E2,-5.9621436E2,-1.1474628E2,1.137705E3,-1.523934E2,5.287645E2,-9.051703E1,4.8704965E2,1.3823649E3,3.2402285E3,1.7790142E3,3.430902E3,4.9119263E3,-4.62281E1,-6.628686E1,-4.2124035E1,-1.3612804E0,-5.7196064E1,8.796265E0,-6.640476E1,-3.1955778E1,-3.3932423E1,-8.932134E0,-6.9929633E0,9.36332E1,5.330728E1,1.9436803E2,-1.0700181E1,2.8533808E1,7.782809E0,3.4794918E1,2.3964102E1,-3.255494E1,3.4489773E1,-1.2219574E2,6.3998554E1,1.485194E2,1.1722257E2,2.6798788E2,7.7459816E1,1.356579E2,1.7949135E2,2.0705095E1,1.9490202E2,2.699232E2],"categories":[],"categories_nodes":[],"categories_segments":[],"categories_sizes":[],"default_left":[0,0,0,0,0,0,0,0,0,0,0,0,0,0,0,0,0,0,0,0,0,0,0,0,0,0,0,0,0,0,0,0,0,0,0,0,0,0,0,0,0,0,0,0,0,0,0,0,0,0,0,0,0,0,0,0,0,0,0,0,0,0,0],"id":22,"left_children":[1,3,5,7,9,11,13,15,17,19,21,23,25,27,29,31,33,35,37,39,41,43,45,47,49,51,53,55,57,59,61,-1,-1,-1,-1,-1,-1,-1,-1,-1,-1,-1,-1,-1,-1,-1,-1,-1,-1,-1,-1,-1,-1,-1,-1,-1,-1,-1,-1,-1,-1,-1,-1],"loss_changes":[3.0335897E11,4.3463647E10,1.1071242E11,1.6774537E10,2.6380521E10,2.7939267E10,2.3560733E10,3.6086825E9,1.0572984E10,1.2283257E10,3.3410916E10,1.0277165E10,1.0097132E10,6.613852E9,4.4978995E9,3.319939E9,1.9065856E9,5.07277E9,3.2295322E9,4.767482E9,4.2836726E9,5.459976E9,3.2272136E9,8.2345247E9,1.0739496E10,9.910057E9,8.376312E9,7.016149E9,4.084433E9,3.5133194E9,1.3897728E9,0E0,0E0,0E0,0E0,0E0,0E0,0E0,0E0,0E0,0E0,0E0,0E0,0E0,0E0,0E0,0E0,0E0,0E0,0E0,0E0,0E0,0E0,0E0,0E0,0E0,0E0,0E0,0E0,0E0,0E0,0E0,0E0],"parents":[2147483647,0,0,1,1,2,2,3,3,4,4,5,5,6,6,7,7,8,8,9,9,10,10,11,11,12,12,13,13,14,14,15,15,16,16,17,17,18,18,19,19,20,20,21,21,22,22,23,23,24,24,25,25,26,26,27,27,28,28,29,29,30,30],"right_children":[2,4,6,8,10,12,14,16,18,20,22,24,26,28,30,32,34,36,38,40,42,44,46,48,50,52,54,56,58,60,62,-1,-1,-1,-1,-1,-1,-1,-1,-1,-1,-1,-1,-1,-1,-1,-1,-1,-1,-1,-1,-1,-1,-1,-1,-1,-1,-1,-1,-1,-1,-1,-1],"split_conditions":[7.508E3,5.182857E3,1.2025E4,1E0,1E0,1.0171E4,1.6322E4,1E0,2E0,6.9567144E3,2E0,6E0,1E0,2E0,2.0625E4,1E0,2.8E1,3.20475E3,3.5088572E3,2.7E1,1.1438857E4,5E1,2.7E1,7.0722856E3,1E0,1E0,3E1,1E0,1E0,5.2E1,1E0,-4.62281E1,-6.628686E1,-4.2124035E1,-1.3612804E0,-5.7196064E1,8.796265E0,-6.640476E1,-3.1955778E1,-3.3932423E1,-8.932134E0,-6.9929633E0,9.36332E1,5.330728E1,1.9436803E2,-1.0700181E1,2.8533808E1,7.782809E0,3.4794918E1,2.3964102E1,-3.255494E1,3.4489773E1,-1.2219574E2,6.3998554E1,1.485194E2,1.1722257E2,2.6798788E2,7.7459816E1,1.356579E2,1.7949135E2,2.0705095E1,1.9490202E2,2.699232E2],"split_indices":[39,41,41,3,3,39,39,17,1,41,1,1,3,1,39,23,13,41,41,13,41,15,13,41,23,37,13,3,17,15,3,0,0,0,0,0,0,0,0,0,0,0,0,0,0,0,0,0,0,0,0,0,0,0,0,0,0,0,0,0,0,0,0],"split_type":[0,0,0,0,0,0,0,0,0,0,0,0,0,0,0,0,0,0,0,0,0,0,0,0,0,0,0,0,0,0,0,0,0,0,0,0,0,0,0,0,0,0,0,0,0,0,0,0,0,0,0,0,0,0,0,0,0,0,0,0,0,0,0],"sum_hessian":[7.85781E5,5.18967E5,2.66814E5,1.94434E5,3.24533E5,2.3388E5,3.2934E4,1.07929E5,8.6505E4,2.24325E5,1.00208E5,1.65671E5,6.8209E4,2.2745E4,1.0189E4,8.7194E4,2.0735E4,2.7688E4,5.8817E4,1.38503E5,8.5822E4,2.7769E4,7.2439E4,1.32051E5,3.362E4,1.6673E4,5.1536E4,3.701E3,1.9044E4,7.33E3,2.859E3,3.353E4,5.3664E4,1.7296E4,3.439E3,3.306E3,2.4382E4,7.852E3,5.0965E4,1.15668E5,2.2835E4,8.4752E4,1.07E3,2.7066E4,7.03E2,6.6752E4,5.687E3,4.0853E4,9.1198E4,1.6673E4,1.6947E4,1.5595E4,1.078E3,4.8416E4,3.12E3,2.603E3,1.098E3,1.5286E4,3.758E3,6.963E3,3.67E2,9.3E2,1.929E3],"tree_param":{"num_deleted":"0","num_feature":"42","num_nodes":"63","size_leaf_vector":"1"}},{"base_weights":[5.1773217E-2,-2.958226E2,1.1910197E3,-5.519965E2,1.8945505E2,8.903072E2,2.7176987E3,-3.4975544E1,-6.8284753E2,9.378951E1,8.33984E2,5.395296E2,1.4521582E3,2.3059314E3,4.0995107E3,-6.5731384E2,4.338937E2,-9.1250885E2,-4.061997E2,-2.4863551E2,2.563424E2,9.278965E2,-1.791394E3,3.176006E2,1.2096376E3,2.9570698E3,1.1922495E3,1.4708158E3,2.649649E3,3.9474583E3,9.027429E3,-3.4770657E1,1.0457295E2,-1.0935931E1,4.0493313E1,-5.881573E1,-3.9736717E1,-2.3982573E1,1.035121E0,-3.2256203E1,1.8297688E0,-3.1962273E0,2.5851255E1,5.897713E1,6.681186E0,3.523064E1,-1.4408351E2,1.1258914E1,5.7954334E1,5.831576E1,2.7153482E2,1.3935075E2,3.5945563E2,5.4355145E1,1.2768652E2,9.48529E1,-1.0124052E2,2.4087706E2,1.2275954E2,1.5922954E2,2.4781042E2,5.435458E2,2.3870528E2],"categories":[],"categories_nodes":[],"categories_segments":[],"categories_sizes":[],"default_left":[0,0,0,0,0,0,0,0,0,0,0,0,0,0,0,0,0,0,0,0,0,0,0,0,0,0,0,0,0,0,0,0,0,0,0,0,0,0,0,0,0,0,0,0,0,0,0,0,0,0,0,0,0,0,0,0,0,0,0,0,0,0,0],"id":23,"left_children":[1,3,5,7,9,11,13,15,17,19,21,23,25,27,29,31,33,35,37,39,41,43,45,47,49,51,53,55,57,59,61,-1,-1,-1,-1,-1,-1,-1,-1,-1,-1,-1,-1,-1,-1,-1,-1,-1,-1,-1,-1,-1,-1,-1,-1,-1,-1,-1,-1,-1,-1,-1,-1],"loss_changes":[2.768918E11,7.824625E10,7.17843E10,2.786957E10,1.34087E10,2.5745785E10,1.4631092E10,2.4278528E10,2.0886815E10,1.054031E10,6.9313536E9,1.1960426E10,1.9635978E10,5.6870257E9,4.3897405E9,3.7455155E9,1.1643449E10,5.58003E9,4.6759834E9,6.8935844E9,1.0720399E10,5.4236733E9,2.6444485E9,4.698651E9,3.6526305E9,5.3012726E9,6.126838E9,8.620415E9,5.9086275E9,4.3944673E9,1.3281065E9,0E0,0E0,0E0,0E0,0E0,0E0,0E0,0E0,0E0,0E0,0E0,0E0,0E0,0E0,0E0,0E0,0E0,0E0,0E0,0E0,0E0,0E0,0E0,0E0,0E0,0E0,0E0,0E0,0E0,0E0,0E0,0E0],"parents":[2147483647,0,0,1,1,2,2,3,3,4,4,5,5,6,6,7,7,8,8,9,9,10,10,11,11,12,12,13,13,14,14,15,15,16,16,17,17,18,18,19,19,20,20,21,21,22,22,23,23,24,24,25,25,26,26,27,27,28,28,29,29,30,30],"right_children":[2,4,6,8,10,12,14,16,18,20,22,24,26,28,30,32,34,36,38,40,42,44,46,48,50,52,54,56,58,60,62,-1,-1,-1,-1,-1,-1,-1,-1,-1,-1,-1,-1,-1,-1,-1,-1,-1,-1,-1,-1,-1,-1,-1,-1,-1,-1,-1,-1,-1,-1,-1,-1],"split_conditions":[8.607857E3,6.582E3,1.3703E4,2E0,2.8E1,1E0,1.7498715E4,1E0,5.18E3,1E0,1.2E1,1.1127429E4,2E0,1E0,7E0,5.1E1,4.483857E3,3.835E3,2.7E1,7.228E3,6.7574287E3,6E0,3.1E1,1E0,1.7498715E4,5E1,2.7E1,1E0,2E0,1E0,2.64E2,-3.4770657E1,1.0457295E2,-1.0935931E1,4.0493313E1,-5.881573E1,-3.9736717E1,-2.3982573E1,1.035121E0,-3.2256203E1,1.8297688E0,-3.1962273E0,2.5851255E1,5.897713E1,6.681186E0,3.523064E1,-1.4408351E2,1.1258914E1,5.7954334E1,5.831576E1,2.7153482E2,1.3935075E2,3.5945563E2,5.4355145E1,1.2768652E2,9.48529E1,-1.0124052E2,2.4087706E2,1.2275954E2,1.5922954E2,2.4781042E2,5.435458E2,2.3870528E2],"split_indices":[41,39,39,1,13,3,41,3,39,3,12,41,1,3,1,15,41,39,13,40,41,1,13,17,41,15,13,37,1,3,0,0,0,0,0,0,0,0,0,0,0,0,0,0,0,0,0,0,0,0,0,0,0,0,0,0,0,0,0,0,0,0,0],"split_type":[0,0,0,0,0,0,0,0,0,0,0,0,0,0,0,0,0,0,0,0,0,0,0,0,0,0,0,0,0,0,0,0,0,0,0,0,0,0,0,0,0,0,0,0,0,0,0,0,0,0,0,0,0,0,0,0,0,0,0,0,0,0,0],"sum_hessian":[7.85781E5,6.29415E5,1.56366E5,4.1195E5,2.17465E5,1.30636E5,2.573E4,8.3202E4,3.28748E5,1.8936E5,2.8105E4,8.0426E4,5.021E4,1.9825E4,5.905E3,3.575E4,4.7452E4,1.79627E5,1.49121E5,6.0955E4,1.28405E5,2.7135E4,9.7E2,6.0418E4,2.0008E4,7.393E3,4.2817E4,5.782E3,1.4043E4,5.73E3,1.75E2,3.5262E4,4.88E2,1.7345E4,3.0107E4,5.5439E4,1.24188E5,1.2723E5,2.1891E4,2.5503E4,3.5452E4,5.7618E4,7.0787E4,2.0606E4,6.529E3,2.95E2,6.75E2,5.444E4,5.978E3,1.9806E4,2.02E2,7.109E3,2.84E2,3.9749E4,3.068E3,5.154E3,6.28E2,1.154E3,1.2889E4,3.265E3,2.465E3,1.21E2,5.4E1],"tree_param":{"num_deleted":"0","num_feature":"42","num_nodes":"63","size_leaf_vector":"1"}},{"base_weights":[5.2459504E-2,-2.776747E2,1.145756E3,-5.2388464E2,1.8362675E2,8.829852E2,2.759887E3,-3.2175404E1,-6.4844525E2,9.269926E1,7.9814136E2,4.3911783E2,1.4743793E3,2.2876938E3,3.9436611E3,-6.213496E2,4.1300998E2,-8.772308E2,-3.9754993E2,-2.3269266E2,2.4852493E2,8.879606E2,-1.6945824E3,4.9788095E2,-1.2559432E3,2.788721E3,1.2748187E3,1.6804373E3,3.151432E3,3.794847E3,8.218258E3,-3.289729E1,9.978053E1,-4.8180313E0,4.2496662E1,-6.463589E1,-4.0306652E1,-2.3347462E1,3.242742E-1,-2.8591608E1,3.3666954E0,-7.382442E-1,2.7097584E1,5.632334E1,6.777366E0,3.3795803E1,-1.3728299E2,2.022911E1,9.140549E1,9.74722E1,-1.3520023E2,1.3077885E2,3.3843707E2,5.758213E1,1.3317561E2,9.381977E1,-7.1418236E1,2.7446127E2,1.3868608E2,1.5635353E2,2.360219E2,5.172814E2,2.4833177E2],"categories":[],"categories_nodes":[],"categories_segments":[],"categories_sizes":[],"default_left":[0,0,0,0,0,0,0,0,0,0,0,0,0,0,0,0,0,0,0,0,0,0,0,0,0,0,0,0,0,0,0,0,0,0,0,0,0,0,0,0,0,0,0,0,0,0,0,0,0,0,0,0,0,0,0,0,0,0,0,0,0,0,0],"id":24,"left_children":[1,3,5,7,9,11,13,15,17,19,21,23,25,27,29,31,33,35,37,39,41,43,45,47,49,51,53,55,57,59,61,-1,-1,-1,-1,-1,-1,-1,-1,-1,-1,-1,-1,-1,-1,-1,-1,-1,-1,-1,-1,-1,-1,-1,-1,-1,-1,-1,-1,-1,-1,-1,-1],"loss_changes":[2.5003065E11,7.183391E10,6.5025573E10,2.5256845E10,1.229807E10,3.461057E10,1.1988713E10,2.1862275E10,1.8886033E10,9.721514E9,6.3531704E9,7.503228E9,1.4824014E10,8.0438477E9,3.8612419E9,3.4369956E9,1.0566367E10,5.0826445E9,4.4003103E9,6.3172403E9,1.001582E10,4.913869E9,2.4610427E9,9.034244E9,1.1720662E10,5.1169075E9,8.3924255E9,5.4933524E9,5.5777444E9,3.641221E9,1.3666836E9,0E0,0E0,0E0,0E0,0E0,0E0,0E0,0E0,0E0,0E0,0E0,0E0,0E0,0E0,0E0,0E0,0E0,0E0,0E0,0E0,0E0,0E0,0E0,0E0,0E0,0E0,0E0,0E0,0E0,0E0,0E0,0E0],"parents":[2147483647,0,0,1,1,2,2,3,3,4,4,5,5,6,6,7,7,8,8,9,9,10,10,11,11,12,12,13,13,14,14,15,15,16,16,17,17,18,18,19,19,20,20,21,21,22,22,23,23,24,24,25,25,26,26,27,27,28,28,29,29,30,30],"right_children":[2,4,6,8,10,12,14,16,18,20,22,24,26,28,30,32,34,36,38,40,42,44,46,48,50,52,54,56,58,60,62,-1,-1,-1,-1,-1,-1,-1,-1,-1,-1,-1,-1,-1,-1,-1,-1,-1,-1,-1,-1,-1,-1,-1,-1,-1,-1,-1,-1,-1,-1,-1,-1],"split_conditions":[8.652429E3,6.582E3,1.3262857E4,2E0,2.8E1,1E0,1.7498715E4,1E0,5.109E3,1E0,1.2E1,1E0,2E0,1E0,7E0,5.1E1,4.8057144E3,3.627E3,2.7E1,7.574E3,7.002857E3,6E0,3.1E1,2.9E1,1.1E1,5E1,2.7E1,1E0,2E0,1E0,2.64E2,-3.289729E1,9.978053E1,-4.8180313E0,4.2496662E1,-6.463589E1,-4.0306652E1,-2.3347462E1,3.242742E-1,-2.8591608E1,3.3666954E0,-7.382442E-1,2.7097584E1,5.632334E1,6.777366E0,3.3795803E1,-1.3728299E2,2.022911E1,9.140549E1,9.74722E1,-1.3520023E2,1.3077885E2,3.3843707E2,5.758213E1,1.3317561E2,9.381977E1,-7.1418236E1,2.7446127E2,1.3868608E2,1.5635353E2,2.360219E2,5.172814E2,2.4833177E2],"split_indices":[41,39,41,1,13,3,41,3,39,3,12,37,1,3,1,15,41,41,13,40,41,1,13,13,12,15,13,37,1,3,0,0,0,0,0,0,0,0,0,0,0,0,0,0,0,0,0,0,0,0,0,0,0,0,0,0,0,0,0,0,0,0,0],"split_type":[0,0,0,0,0,0,0,0,0,0,0,0,0,0,0,0,0,0,0,0,0,0,0,0,0,0,0,0,0,0,0,0,0,0,0,0,0,0,0,0,0,0,0,0,0,0,0,0,0,0,0,0,0,0,0,0,0,0,0,0,0,0,0],"sum_hessian":[7.85781E5,6.32467E5,1.53314E5,4.12372E5,2.20095E5,1.31851E5,2.1463E4,8.3349E4,3.29023E5,1.91727E5,2.8368E4,7.5321E4,5.653E4,1.5345E4,6.118E3,3.5873E4,4.7476E4,1.72093E5,1.5693E5,6.2084E4,1.29643E5,2.7382E4,9.86E2,7.2798E4,2.523E3,7.45E3,4.908E4,9.012E3,6.333E3,5.914E3,2.04E2,3.5379E4,4.94E2,2.1921E4,2.5555E4,2.5143E4,1.4695E5,1.33926E5,2.3004E4,2.9142E4,3.2942E4,6.8331E4,6.1312E4,2.0791E4,6.591E3,3.03E2,6.83E2,6.8028E4,4.77E3,7.85E2,1.738E3,7.141E3,3.09E2,4.5083E4,3.997E3,8.478E3,5.34E2,8.79E2,5.454E3,3.438E3,2.476E3,1.22E2,8.2E1],"tree_param":{"num_deleted":"0","num_feature":"42","num_nodes":"63","size_leaf_vector":"1"}},{"base_weights":[5.2747022E-2,-2.2116617E2,1.3108757E3,-5.0640506E2,1.8278133E2,1.0656189E3,2.944265E3,-7.503403E2,-2.0385112E2,-3.1483843E1,5.708666E2,7.925477E2,1.4623197E3,2.5881045E3,4.334663E3,-1.0034251E3,-5.942353E2,2.6759512E2,-3.726371E2,-1.4189377E2,5.342804E2,1.636343E3,3.136505E2,7.1143295E1,9.596195E2,9.017243E2,1.9636234E3,2.0103268E3,3.3823909E3,4.2466924E3,1.1933049E4,-4.1003292E1,-6.507314E1,-4.5490585E1,-2.1124197E1,8.737449E0,