{"learner":{"attributes":{"best_iteration":"557","best_score":"1056.9974425512048"},"feature_names":["Store","DayOfWeek","Open","Promo","SchoolHoliday","CompetitionDistance","CompetitionOpenSinceMonth","CompetitionOpenSinceYear","Promo2","Promo2SinceWeek","Promo2SinceYear","year","month","day","dayofweek","WeekOfYear","IsMonthEnd","IsFriday","StateHoliday_0","StateHoliday_a","StateHoliday_b","StateHoliday_c","StateHoliday_nan","StoreType_a","StoreType_b","StoreType_c","StoreType_d","StoreType_nan","Assortment_a","Assortment_b","Assortment_c","Assortment_nan","PromoInterval_Feb,May,Aug,Nov","PromoInterval_Jan,Apr,Jul,Oct","PromoInterval_Mar,Jun,Sept,Dec","PromoInterval_nan","temperature_mean","temperature_max","precipitation_sum","sunshine_sum","GoogleTrend","UnemploymentRate","PublicHoliday","BeforeHoliday","AfterHoliday","TempRange","IsRainy","IsSunny","IsHot","IsCold","Promo_Temperature","Promo_Sunny","Promo_Rainy","Sales_Lag1","Sales_Lag7","Sales_Rolling7"],"feature_types":["int","int","int","int","int","float","float","float","int","float","float","int","int","int","int","int","int","int","i","i","i","i","i","i","i","i","i","i","i","i","i","i","i","i","i","i","float","float","float","float","float","float","int","int","int","float","int","int","int","int","float","int","int","float","float","float"],"gradient_booster":{"model":{"cats":{"enc":[],"feature_segments":[],"sorted_idx":[]},"gbtree_model_param":{"num_parallel_tree":"1","num_trees":"608"},"iteration_indptr":[0,1,2,3,4,5,6,7,8,9,10,11,12,13,14,15,16,17,18,19,20,21,22,23,24,25,26,27,28,29,30,31,32,33,34,35,36,37,38,39,40,41,42,43,44,45,46,47,48,49,50,51,52,53,54,55,56,57,58,59,60,61,62,63,64,65,66,67,68,69,70,71,72,73,74,75,76,77,78,79,80,81,82,83,84,85,86,87,88,89,90,91,92,93,94,95,96,97,98,99,100,101,102,103,104,105,106,107,108,109,110,111,112,113,114,115,116,117,118,119,120,121,122,123,124,125,126,127,128,129,130,131,132,133,134,135,136,137,138,139,140,141,142,143,144,145,146,147,148,149,150,151,152,153,154,155,156,157,158,159,160,161,162,163,164,165,166,167,168,169,170,171,172,173,174,175,176,177,178,179,180,181,182,183,184,185,186,187,188,189,190,191,192,193,194,195,196,197,198,199,200,201,202,203,204,205,206,207,208,209,210,211,212,213,214,215,216,217,218,219,220,221,222,223,224,225,226,227,228,229,230,231,232,233,234,235,236,237,238,239,240,241,242,243,244,245,246,247,248,249,250,251,252,253,254,255,256,257,258,259,260,261,262,263,264,265,266,267,268,269,270,271,272,273,274,275,276,277,278,279,280,281,282,283,284,285,286,287,288,289,290,291,292,293,294,295,296,297,298,299,300,301,302,303,304,305,306,307,308,309,310,311,312,313,314,315,316,317,318,319,320,321,322,323,324,325,326,327,328,329,330,331,332,333,334,335,336,337,338,339,340,341,342,343,344,345,346,347,348,349,350,351,352,353,354,355,356,357,358,359,360,361,362,363,364,365,366,367,368,369,370,371,372,373,374,375,376,377,378,379,380,381,382,383,384,385,386,387,388,389,390,391,392,393,394,395,396,397,398,399,400,401,402,403,404,405,406,407,408,409,410,411,412,413,414,415,416,417,418,419,420,421,422,423,424,425,426,427,428,429,430,431,432,433,434,435,436,437,438,439,440,441,442,443,444,445,446,447,448,449,450,451,452,453,454,455,456,457,458,459,460,461,462,463,464,465,466,467,468,469,470,471,472,473,474,475,476,477,478,479,480,481,482,483,484,485,486,487,488,489,490,491,492,493,494,495,496,497,498,499,500,501,502,503,504,505,506,507,508,509,510,511,512,513,514,515,516,517,518,519,520,521,522,523,524,525,526,527,528,529,530,531,532,533,534,535,536,537,538,539,540,541,542,543,544,545,546,547,548,549,550,551,552,553,554,555,556,557,558,559,560,561,562,563,564,565,566,567,568,569,570,571,572,573,574,575,576,577,578,579,580,581,582,583,584,585,586,587,588,589,590,591,592,593,594,595,596,597,598,599,600,601,602,603,604,605,606,607,608],"tree_info":[0,0,0,0,0,0,0,0,0,0,0,0,0,0,0,0,0,0,0,0,0,0,0,0,0,0,0,0,0,0,0,0,0,0,0,0,0,0,0,0,0,0,0,0,0,0,0,0,0,0,0,0,0,0,0,0,0,0,0,0,0,0,0,0,0,0,0,0,0,0,0,0,0,0,0,0,0,0,0,0,0,0,0,0,0,0,0,0,0,0,0,0,0,0,0,0,0,0,0,0,0,0,0,0,0,0,0,0,0,0,0,0,0,0,0,0,0,0,0,0,0,0,0,0,0,0,0,0,0,0,0,0,0,0,0,0,0,0,0,0,0,0,0,0,0,0,0,0,0,0,0,0,0,0,0,0,0,0,0,0,0,0,0,0,0,0,0,0,0,0,0,0,0,0,0,0,0,0,0,0,0,0,0,0,0,0,0,0,0,0,0,0,0,0,0,0,0,0,0,0,0,0,0,0,0,0,0,0,0,0,0,0,0,0,0,0,0,0,0,0,0,0,0,0,0,0,0,0,0,0,0,0,0,0,0,0,0,0,0,0,0,0,0,0,0,0,0,0,0,0,0,0,0,0,0,0,0,0,0,0,0,0,0,0,0,0,0,0,0,0,0,0,0,0,0,0,0,0,0,0,0,0,0,0,0,0,0,0,0,0,0,0,0,0,0,0,0,0,0,0,0,0,0,0,0,0,0,0,0,0,0,0,0,0,0,0,0,0,0,0,0,0,0,0,0,0,0,0,0,0,0,0,0,0,0,0,0,0,0,0,0,0,0,0,0,0,0,0,0,0,0,0,0,0,0,0,0,0,0,0,0,0,0,0,0,0,0,0,0,0,0,0,0,0,0,0,0,0,0,0,0,0,0,0,0,0,0,0,0,0,0,0,0,0,0,0,0,0,0,0,0,0,0,0,0,0,0,0,0,0,0,0,0,0,0,0,0,0,0,0,0,0,0,0,0,0,0,0,0,0,0,0,0,0,0,0,0,0,0,0,0,0,0,0,0,0,0,0,0,0,0,0,0,0,0,0,0,0,0,0,0,0,0,0,0,0,0,0,0,0,0,0,0,0,0,0,0,0,0,0,0,0,0,0,0,0,0,0,0,0,0,0,0,0,0,0,0,0,0,0,0,0,0,0,0,0,0,0,0,0,0,0,0,0,0,0,0,0,0,0,0,0,0,0,0,0,0,0,0,0,0,0,0,0,0,0,0,0,0,0,0,0,0,0,0,0,0,0,0,0,0,0,0,0,0,0,0,0,0,0,0,0,0,0,0,0,0,0,0,0,0,0,0,0,0,0,0,0,0,0,0,0,0,0,0,0,0,0,0,0,0,0,0,0,0,0,0,0,0,0,0,0,0,0,0,0,0,0],"trees":[{"base_weights":[-1.1447842E-4,-1.0289308E3,3.2933447E3,-1.8536731E3,-7.116888E-1,2.514889E3,8.446933E3,-1.5785497E2,-2.3402593E3,1.9930553E3,-3.0612967E2,1.8697944E3,3.8819197E3,6.868193E3,1.1491874E4,-1.9482446E3,1.2993093E3,-2.99779E3,-1.7885938E3,-1.535064E2,3.601234E3,-7.956824E2,2.3253812E2,4.086737E3,1.620627E3,3.4928687E3,5.2779873E3,6.2318247E3,9.118563E3,1.0406734E4,1.4177205E4,-1.3474988E2,-3.5353443E1,7.9134874E0,1.4462285E2,-1.7276962E2,-1.2963321E2,-7.980546E1,-1.2489166E2,-4.516801E1,7.167269E1,1.2349908E2,2.5286063E2,-2.810301E1,-7.852357E1,2.4760378E1,-3.126712E1,8.9452736E1,2.840235E2,7.040509E1,1.3717754E2,1.0930418E2,1.950829E2,3.6790106E2,2.4736845E2,2.3711397E2,3.3654178E2,3.0223416E2,4.7811197E2,5.1004282E2,9.650065E2,7.307973E2,4.0210275E2],"categories":[],"categories_nodes":[],"categories_segments":[],"categories_sizes":[],"default_left":[0,0,0,0,0,0,0,0,0,0,0,0,0,0,0,0,0,0,0,0,0,0,0,0,0,0,0,0,0,0,0,0,0,0,0,0,0,0,0,0,0,0,0,0,0,0,0,0,0,0,0,0,0,0,0,0,0,0,0,0,0,0,0],"id":0,"left_children":[1,3,5,7,9,11,13,15,17,19,21,23,25,27,29,31,33,35,37,39,41,43,45,47,49,51,53,55,57,59,61,-1,-1,-1,-1,-1,-1,-1,-1,-1,-1,-1,-1,-1,-1,-1,-1,-1,-1,-1,-1,-1,-1,-1,-1,-1,-1,-1,-1,-1,-1,-1,-1],"loss_changes":[2.6627227E12,5.0772817E11,7.504255E11,2.741481E11,1.6227498E11,1.4330613E11,1.17922726E11,1.932588E11,9.363928E10,1.2220329E11,6.094033E10,6.098387E10,2.8279767E10,2.3096721E10,2.4271389E10,3.080478E10,7.423849E10,2.182552E10,1.9160924E10,1.8045086E10,3.3321075E10,2.1912838E10,2.4793682E10,4.0838234E10,2.3684039E10,2.175959E10,7.7710295E9,9.338847E9,4.800086E9,1.0737615E10,6.3669207E9,0E0,0E0,0E0,0E0,0E0,0E0,0E0,0E0,0E0,0E0,0E0,0E0,0E0,0E0,0E0,0E0,0E0,0E0,0E0,0E0,0E0,0E0,0E0,0E0,0E0,0E0,0E0,0E0,0E0,0E0,0E0,0E0],"parents":[2147483647,0,0,1,1,2,2,3,3,4,4,5,5,6,6,7,7,8,8,9,9,10,10,11,11,12,12,13,13,14,14,15,15,16,16,17,17,18,18,19,19,20,20,21,21,22,22,23,23,24,24,25,25,26,26,27,27,28,28,29,29,30,30],"right_children":[2,4,6,8,10,12,14,16,18,20,22,24,26,28,30,32,34,36,38,40,42,44,46,48,50,52,54,56,58,60,62,-1,-1,-1,-1,-1,-1,-1,-1,-1,-1,-1,-1,-1,-1,-1,-1,-1,-1,-1,-1,-1,-1,-1,-1,-1,-1,-1,-1,-1,-1,-1,-1],"split_conditions":[8.471E3,5.876E3,1.4069E4,2E0,2E0,1.0815E4,1.6074429E4,1E0,4.57E3,1E0,7.05E3,2E0,1.2025E4,1.7252E4,2.0625E4,6.435857E3,4.987E3,4.3165713E3,6E0,9.024E3,6.8665713E3,6E0,6E0,1E0,1E0,1E0,2E0,1E0,1E0,3.3E1,1E0,-1.3474988E2,-3.5353443E1,7.9134874E0,1.4462285E2,-1.7276962E2,-1.2963321E2,-7.980546E1,-1.2489166E2,-4.516801E1,7.167269E1,1.2349908E2,2.5286063E2,-2.810301E1,-7.852357E1,2.4760378E1,-3.126712E1,8.9452736E1,2.840235E2,7.040509E1,1.3717754E2,1.0930418E2,1.950829E2,3.6790106E2,2.4736845E2,2.3711397E2,3.3654178E2,3.0223416E2,4.7811197E2,5.1004282E2,9.650065E2,7.307973E2,4.0210275E2],"split_indices":[53,53,53,1,1,53,55,3,53,3,53,1,55,53,53,55,55,55,1,55,55,1,1,3,17,3,1,3,3,40,43,0,0,0,0,0,0,0,0,0,0,0,0,0,0,0,0,0,0,0,0,0,0,0,0,0,0,0,0,0,0,0,0],"split_type":[0,0,0,0,0,0,0,0,0,0,0,0,0,0,0,0,0,0,0,0,0,0,0,0,0,0,0,0,0,0,0,0,0,0,0,0,0,0,0,0,0,0,0,0,0,0,0,0,0,0,0,0,0,0,0,0,0,0,0,0,0,0,0],"sum_hessian":[7.85781E5,5.98724E5,1.87057E5,3.32235E5,2.66489E5,1.62511E5,2.4546E4,7.4075E4,2.5816E5,3.5399E4,2.3109E5,1.10411E5,5.21E4,1.6167E4,8.379E3,3.3237E4,4.0838E4,1.17777E5,1.40383E5,1.5162E4,2.0237E4,1.21064E5,1.10026E5,1.1154E4,9.9257E4,4.0748E4,1.1352E4,1.2606E4,3.561E3,5.971E3,2.408E3,2.0751E4,1.2486E4,2.3796E4,1.7042E4,5.5303E4,6.2474E4,1.10419E5,2.9964E4,1.0297E4,4.865E3,1.139E4,8.847E3,9.3018E4,2.8046E4,8.4235E4,2.5791E4,4.569E3,6.585E3,8.3463E4,1.5794E4,9.711E3,3.1037E4,1.554E3,9.798E3,3.166E3,9.44E3,4.51E2,3.11E3,5.838E3,1.33E2,2.246E3,1.62E2],"tree_param":{"num_deleted":"0","num_feature":"56","num_nodes":"63","size_leaf_vector":"1"}},{"base_weights":[6.553875E-3,-9.4607355E2,3.2336013E3,-1.7287158E3,7.7577225E1,2.466493E3,8.024747E3,-1.2504312E2,-2.1825989E3,1.9927336E3,-2.1138855E2,1.8636561E3,3.746975E3,6.5248667E3,1.0917592E4,-1.8288378E3,1.2618016E3,-2.823586E3,-1.6424777E3,-6.5730675E1,3.5215227E3,-6.5563635E2,3.4021613E2,3.9751501E3,1.6301631E3,6.0751616E3,3.5300146E3,5.6872046E3,8.0934673E3,9.886645E3,1.3468815E4,-1.2604821E2,-3.011183E1,6.1961484E-1,1.293806E2,-1.6379419E2,-1.2214551E2,-7.288144E1,-1.1588273E2,-3.8912045E1,7.322979E1,1.25133484E2,2.510824E2,-2.14631E1,-7.022895E1,2.9565886E1,-2.4115145E1,9.029049E1,2.7443723E2,7.1333855E1,1.3592729E2,2.1466946E2,3.658485E2,1.602125E2,2.3651811E2,2.2234013E2,3.0626047E2,2.6695856E2,4.2956964E2,4.8454507E2,9.1711633E2,6.9427374E2,3.82121E2],"categories":[],"categories_nodes":[],"categories_segments":[],"categories_sizes":[],"default_left":[0,0,0,0,0,0,0,0,0,0,0,0,0,0,0,0,0,0,0,0,0,0,0,0,0,0,0,0,0,0,0,0,0,0,0,0,0,0,0,0,0,0,0,0,0,0,0,0,0,0,0,0,0,0,0,0,0,0,0,0,0,0,0],"id":1,"left_children":[1,3,5,7,9,11,13,15,17,19,21,23,25,27,29,31,33,35,37,39,41,43,45,47,49,51,53,55,57,59,61,-1,-1,-1,-1,-1,-1,-1,-1,-1,-1,-1,-1,-1,-1,-1,-1,-1,-1,-1,-1,-1,-1,-1,-1,-1,-1,-1,-1,-1,-1,-1,-1],"loss_changes":[2.4038985E12,4.870359E11,6.536886E11,2.5076603E11,1.4577207E11,1.1834242E11,1.0643623E11,1.7958026E11,9.2959015E10,1.0867411E11,5.6085115E10,5.138786E10,2.4767627E10,2.1198078E10,2.1907767E10,2.8950667E10,6.940149E10,2.113418E10,1.8184143E10,1.6049253E10,3.0274355E10,2.1492675E10,2.108759E10,3.4069529E10,2.078466E10,9.221751E9,1.7539793E10,5.70078E9,7.669809E9,9.706799E9,5.742035E9,0E0,0E0,0E0,0E0,0E0,0E0,0E0,0E0,0E0,0E0,0E0,0E0,0E0,0E0,0E0,0E0,0E0,0E0,0E0,0E0,0E0,0E0,0E0,0E0,0E0,0E0,0E0,0E0,0E0,0E0,0E0,0E0],"parents":[2147483647,0,0,1,1,2,2,3,3,4,4,5,5,6,6,7,7,8,8,9,9,10,10,11,11,12,12,13,13,14,14,15,15,16,16,17,17,18,18,19,19,20,20,21,21,22,22,23,23,24,24,25,25,26,26,27,27,28,28,29,29,30,30],"right_children":[2,4,6,8,10,12,14,16,18,20,22,24,26,28,30,32,34,36,38,40,42,44,46,48,50,52,54,56,58,60,62,-1,-1,-1,-1,-1,-1,-1,-1,-1,-1,-1,-1,-1,-1,-1,-1,-1,-1,-1,-1,-1,-1,-1,-1,-1,-1,-1,-1,-1,-1,-1,-1],"split_conditions":[8.605E3,5.969E3,1.4069E4,2E0,2E0,1.0925E4,1.6074429E4,1E0,4.621E3,1E0,7.227E3,2E0,2E0,1.6322E4,2.0625E4,6.5392856E3,4.8057144E3,4.3165713E3,6E0,9.128429E3,7.0492856E3,6E0,6E0,1E0,1E0,1E0,1.2025E4,1E0,1E0,3.3E1,1E0,-1.2604821E2,-3.011183E1,6.1961484E-1,1.293806E2,-1.6379419E2,-1.2214551E2,-7.288144E1,-1.1588273E2,-3.8912045E1,7.322979E1,1.25133484E2,2.510824E2,-2.14631E1,-7.022895E1,2.9565886E1,-2.4115145E1,9.029049E1,2.7443723E2,7.1333855E1,1.3592729E2,2.1466946E2,3.658485E2,1.602125E2,2.3651811E2,2.2234013E2,3.0626047E2,2.6695856E2,4.2956964E2,4.8454507E2,9.1711633E2,6.9427374E2,3.82121E2],"split_indices":[53,53,53,1,1,53,55,3,53,3,53,1,1,53,53,55,55,55,1,55,55,1,1,3,17,3,55,3,3,40,43,0,0,0,0,0,0,0,0,0,0,0,0,0,0,0,0,0,0,0,0,0,0,0,0,0,0,0,0,0,0,0,0],"split_type":[0,0,0,0,0,0,0,0,0,0,0,0,0,0,0,0,0,0,0,0,0,0,0,0,0,0,0,0,0,0,0,0,0,0,0,0,0,0,0,0,0,0,0,0,0,0,0,0,0,0,0,0,0,0,0,0,0,0,0,0,0,0,0],"sum_hessian":[7.85781E5,6.07918E5,1.77863E5,3.44515E5,2.63403E5,1.53317E5,2.4546E4,7.5998E4,2.68517E5,3.4532E4,2.28871E5,1.04243E5,4.9074E4,1.6167E4,8.379E3,3.4102E4,4.1896E4,1.22791E5,1.45726E5,1.4717E4,1.9815E4,1.26772E5,1.02099E5,1.0378E4,9.3865E4,4.181E3,4.4893E4,1.0542E4,5.625E3,5.971E3,2.408E3,2.18E4,1.2302E4,2.157E4,2.0326E4,5.6113E4,6.6678E4,1.14407E5,3.1319E4,1.0042E4,4.675E3,1.1802E4,8.013E3,9.7349E4,2.9423E4,7.822E4,2.3879E4,4.266E3,6.112E3,7.9082E4,1.4783E4,1.719E3,2.462E3,3.5313E4,9.58E3,2.754E3,7.788E3,8.63E2,4.762E3,5.838E3,1.33E2,2.246E3,1.62E2],"tree_param":{"num_deleted":"0","num_feature":"56","num_nodes":"63","size_leaf_vector":"1"}},{"base_weights":[1.267179E-2,-9.7933203E2,2.82241E3,-1.8244614E3,-1.9145882E2,2.1118103E3,7.323905E3,-2.5888909E3,-8.6328E2,-7.6002985E2,1.0071026E3,1.4781051E3,3.1981719E3,5.975578E3,1.0325881E4,-3.1460562E3,-2.2139636E3,6.5650397E2,-1.49432E3,-1.1459241E3,1.8080121E2,3.6291213E3,1.7189943E2,3.4425728E3,1.2468219E3,5.3926123E3,2.9920532E3,5.2569116E3,7.6889175E3,9.355762E3,1.2795821E4,-1.6045595E2,-8.462086E1,-1.18122696E2,-7.382852E1,-3.1464914E1,6.4370316E1,-1.06939285E2,-5.1448048E1,-6.509689E1,-9.23008E0,-1.5182527E0,6.1945797E1,1.5551022E2,2.6380334E2,-8.838617E0,3.469572E1,6.942473E1,2.4543079E2,7.431791E1,2.0077625E1,1.779786E2,3.3037512E2,1.2848172E2,1.8976976E2,2.2477237E2,2.9458594E2,2.5362608E2,4.0809567E2,4.5869635E2,8.660581E2,5.4214954E2,6.976673E2],"categories":[],"categories_nodes":[],"categories_segments":[],"categories_sizes":[],"default_left":[0,0,0,0,0,0,0,0,0,0,0,0,0,0,0,0,0,0,0,0,0,0,0,0,0,0,0,0,0,0,0,0,0,0,0,0,0,0,0,0,0,0,0,0,0,0,0,0,0,0,0,0,0,0,0,0,0,0,0,0,0,0,0],"id":2,"left_children":[1,3,5,7,9,11,13,15,17,19,21,23,25,27,29,31,33,35,37,39,41,43,45,47,49,51,53,55,57,59,61,-1,-1,-1,-1,-1,-1,-1,-1,-1,-1,-1,-1,-1,-1,-1,-1,-1,-1,-1,-1,-1,-1,-1,-1,-1,-1,-1,-1,-1,-1,-1,-1],"loss_changes":[2.1719826E12,3.8843403E11,6.4748074E11,2.0679754E11,2.057419E11,1.2035064E11,1.1164123E11,3.2742244E10,1.195775E11,7.434461E10,2.1272589E11,5.0163925E10,2.911653E10,2.3411229E10,2.0371997E10,5.775098E9,1.0257891E10,2.96767E10,2.6420298E10,2.1778465E10,1.3308236E10,2.003914E10,1.3409486E10,3.5015393E10,2.0001473E10,1.2289229E10,1.9970982E10,6.4609976E9,6.920995E9,8.740045E9,5.294129E9,0E0,0E0,0E0,0E0,0E0,0E0,0E0,0E0,0E0,0E0,0E0,0E0,0E0,0E0,0E0,0E0,0E0,0E0,0E0,0E0,0E0,0E0,0E0,0E0,0E0,0E0,0E0,0E0,0E0,0E0,0E0,0E0],"parents":[2147483647,0,0,1,1,2,2,3,3,4,4,5,5,6,6,7,7,8,8,9,9,10,10,11,11,12,12,13,13,14,14,15,15,16,16,17,17,18,18,19,19,20,20,21,21,22,22,23,23,24,24,25,25,26,26,27,27,28,28,29,29,30,30],"right_children":[2,4,6,8,10,12,14,16,18,20,22,24,26,28,30,32,34,36,38,40,42,44,46,48,50,52,54,56,58,60,62,-1,-1,-1,-1,-1,-1,-1,-1,-1,-1,-1,-1,-1,-1,-1,-1,-1,-1,-1,-1,-1,-1,-1,-1,-1,-1,-1,-1,-1,-1,-1,-1],"split_conditions":[8.259E3,5.7837144E3,1.3703E4,1E0,1E0,1.0339E4,1.6074429E4,4.561857E3,2E0,7.813E3,2E0,2E0,2E0,1.6322E4,2.0625E4,1E0,1E0,4.0948572E3,5.273E3,1E0,9.747571E3,7.609143E3,6.9567144E3,1E0,6E0,1E0,1.074E4,1.1438857E4,1E0,3.3E1,1E0,-1.6045595E2,-8.462086E1,-1.18122696E2,-7.382852E1,-3.1464914E1,6.4370316E1,-1.06939285E2,-5.1448048E1,-6.509689E1,-9.23008E0,-1.5182527E0,6.1945797E1,1.5551022E2,2.6380334E2,-8.838617E0,3.469572E1,6.942473E1,2.4543079E2,7.431791E1,2.0077625E1,1.779786E2,3.3037512E2,1.2848172E2,1.8976976E2,2.2477237E2,2.9458594E2,2.5362608E2,4.0809567E2,4.5869635E2,8.660581E2,5.4214954E2,6.976673E2],"split_indices":[53,55,53,3,3,53,55,55,1,55,1,1,1,53,53,44,17,55,53,17,55,55,55,3,1,3,55,55,3,40,3,0,0,0,0,0,0,0,0,0,0,0,0,0,0,0,0,0,0,0,0,0,0,0,0,0,0,0,0,0,0,0,0],"split_type":[0,0,0,0,0,0,0,0,0,0,0,0,0,0,0,0,0,0,0,0,0,0,0,0,0,0,0,0,0,0,0,0,0,0,0,0,0,0,0,0,0,0,0,0,0,0,0,0,0,0,0,0,0,0,0,0,0,0,0,0,0,0,0],"sum_hessian":[7.85781E5,5.83361E5,2.0242E5,2.81453E5,3.01908E5,1.74824E5,2.7596E4,1.56771E5,1.24682E5,2.0477E5,9.7138E4,1.10417E5,6.4407E4,1.9045E4,8.551E3,6.3057E4,9.3714E4,3.6581E4,8.8101E4,1.4521E5,5.956E4,2.3466E4,7.3672E4,1.1629E4,9.8788E4,5.528E3,5.8879E4,1.342E4,5.625E3,6.143E3,2.408E3,6.0434E4,2.623E3,7.8004E4,1.571E4,1.2041E4,2.454E4,3.694E4,5.1161E4,1.24934E5,2.0276E4,4.9652E4,9.908E3,1.7846E4,5.62E3,4.417E4,2.9502E4,4.844E3,6.785E3,7.6974E4,2.1814E4,2.205E3,3.323E3,3.8591E4,2.0288E4,6.105E3,7.315E3,8.63E2,4.762E3,6.008E3,1.35E2,9E2,1.508E3],"tree_param":{"num_deleted":"0","num_feature":"56","num_nodes":"63","size_leaf_vector":"1"}},{"base_weights":[1.8170718E-2,-8.1744116E2,3.0608958E3,-1.5380123E3,1.5634009E2,2.3864321E3,7.5938804E3,-9.022142E1,-1.9416869E3,1.891221E3,-1.021706E2,1.8708042E3,3.733685E3,6.4743066E3,1.0629638E4,-1.6348217E3,1.163436E3,-2.5164265E3,-1.4181151E3,3.003048E1,3.2709563E3,-5.2480505E2,3.9890396E2,3.8097341E3,1.6636285E3,3.412266E3,5.2167705E3,5.720939E3,8.210932E3,9.303806E3,1.2425533E4,-1.1060602E2,-1.9665731E1,8.052846E0,1.2800458E2,-1.5117247E2,-1.110188E2,-6.2558174E1,-1.0106721E2,-3.3682858E1,6.9247765E1,1.26704056E2,2.5149857E2,-1.5841863E1,-6.0646004E1,9.883404E0,6.3935574E1,9.2439316E1,2.585596E2,6.268385E1,1.11082985E2,1.0918833E2,1.9036449E2,3.6534396E2,2.4364355E2,2.4485643E2,3.243643E2,4.225052E2,9.2411415E1,4.4729916E2,9.2005383E2,5.5601953E2,6.82019E2],"categories":[],"categories_nodes":[],"categories_segments":[],"categories_sizes":[],"default_left":[0,0,0,0,0,0,0,0,0,0,0,0,0,0,0,0,0,0,0,0,0,0,0,0,0,0,0,0,0,0,0,0,0,0,0,0,0,0,0,0,0,0,0,0,0,0,0,0,0,0,0,0,0,0,0,0,0,0,0,0,0,0,0],"id":3,"left_children":[1,3,5,7,9,11,13,15,17,19,21,23,25,27,29,31,33,35,37,39,41,43,45,47,49,51,53,55,57,59,61,-1,-1,-1,-1,-1,-1,-1,-1,-1,-1,-1,-1,-1,-1,-1,-1,-1,-1,-1,-1,-1,-1,-1,-1,-1,-1,-1,-1,-1,-1,-1,-1],"loss_changes":[1.9661413E12,4.3515255E11,5.063495E11,2.0830408E11,1.1828414E11,1.0014799E11,7.283789E10,1.5048147E11,8.386478E10,8.783152E10,4.8609997E10,4.1878815E10,1.9004588E10,2.0459618E10,1.364217E10,2.4952463E10,6.0053053E10,1.9936313E10,1.4685929E10,1.3884981E10,2.5446711E10,1.7818579E10,1.8594124E10,2.6861437E10,2.1548351E10,1.5909093E10,5.072093E9,6.8717773E9,7.197655E9,1.0668704E10,3.7344707E9,0E0,0E0,0E0,0E0,0E0,0E0,0E0,0E0,0E0,0E0,0E0,0E0,0E0,0E0,0E0,0E0,0E0,0E0,0E0,0E0,0E0,0E0,0E0,0E0,0E0,0E0,0E0,0E0,0E0,0E0,0E0,0E0],"parents":[2147483647,0,0,1,1,2,2,3,3,4,4,5,5,6,6,7,7,8,8,9,9,10,10,11,11,12,12,13,13,14,14,15,15,16,16,17,17,18,18,19,19,20,20,21,21,22,22,23,23,24,24,25,25,26,26,27,27,28,28,29,29,30,30],"right_children":[2,4,6,8,10,12,14,16,18,20,22,24,26,28,30,32,34,36,38,40,42,44,46,48,50,52,54,56,58,60,62,-1,-1,-1,-1,-1,-1,-1,-1,-1,-1,-1,-1,-1,-1,-1,-1,-1,-1,-1,-1,-1,-1,-1,-1,-1,-1,-1,-1,-1,-1,-1,-1],"split_conditions":[8.795E3,6.061E3,1.4494E4,2E0,2E0,1.1404E4,1.7498715E4,1E0,4.723E3,1E0,7.319E3,2E0,1.2873429E4,1.7252E4,1E0,6.7574287E3,5.0534287E3,4.1624287E3,6E0,9.128429E3,7.5815713E3,6E0,1E0,1E0,9.128429E3,1E0,2E0,1.2549E4,5.2E1,3.3E1,2.0625E4,-1.1060602E2,-1.9665731E1,8.052846E0,1.2800458E2,-1.5117247E2,-1.110188E2,-6.2558174E1,-1.0106721E2,-3.3682858E1,6.9247765E1,1.26704056E2,2.5149857E2,-1.5841863E1,-6.0646004E1,9.883404E0,6.3935574E1,9.2439316E1,2.585596E2,6.268385E1,1.11082985E2,1.0918833E2,1.9036449E2,3.6534396E2,2.4364355E2,2.4485643E2,3.243643E2,4.225052E2,9.2411415E1,4.4729916E2,9.2005383E2,5.5601953E2,6.82019E2],"split_indices":[53,53,53,1,1,53,55,3,53,3,53,1,55,53,3,55,55,55,1,55,55,1,17,3,55,3,1,55,15,40,53,0,0,0,0,0,0,0,0,0,0,0,0,0,0,0,0,0,0,0,0,0,0,0,0,0,0,0,0,0,0,0,0],"split_type":[0,0,0,0,0,0,0,0,0,0,0,0,0,0,0,0,0,0,0,0,0,0,0,0,0,0,0,0,0,0,0,0,0,0,0,0,0,0,0,0,0,0,0,0,0,0,0,0,0,0,0,0,0,0,0,0,0,0,0,0,0,0,0],"sum_hessian":[7.85781E5,6.20158E5,1.65623E5,3.56418E5,2.6374E5,1.44173E5,2.145E4,7.771E4,2.78708E5,3.4202E4,2.29538E5,1.04269E5,3.9904E4,1.5673E4,5.777E3,3.4815E4,4.2895E4,1.3286E5,1.45848E5,1.4561E4,1.9641E4,1.24515E5,1.05023E5,1.0064E4,9.4205E4,3.2799E4,7.105E3,1.0934E4,4.739E3,3.327E3,2.45E3,2.3764E4,1.1051E4,2.4973E4,1.7922E4,4.8975E4,8.3885E4,1.14235E5,3.1613E4,9.584E3,4.977E3,1.3844E4,5.797E3,9.5618E4,2.8897E4,8.5474E4,1.9549E4,4.125E3,5.939E3,5.431E4,3.9895E4,7.982E3,2.4817E4,1.001E3,6.104E3,5.273E3,5.661E3,4.567E3,1.72E2,3.203E3,1.24E2,1.186E3,1.264E3],"tree_param":{"num_deleted":"0","num_feature":"56","num_nodes":"63","size_leaf_vector":"1"}},{"base_weights":[2.3759326E-2,-7.7656915E2,2.9078818E3,-1.5402474E3,6.42853E1,2.2671204E3,7.2143584E3,-2.2426428E3,-6.622291E2,-4.8174863E2,1.1511743E3,1.7507059E3,3.4835532E3,6.1506606E3,1.0098607E4,-2.7739521E3,-1.8539277E3,7.246366E2,-1.2031581E3,-8.4786383E2,4.646562E2,3.593154E3,4.5041238E2,3.58781E3,1.5534227E3,2.915988E3,4.268919E3,5.434944E3,7.8004937E3,8.839026E3,1.1804762E4,-1.5827586E2,-1.27204185E2,-9.9760376E1,-5.632684E1,-3.0331837E1,6.436965E1,-9.735403E1,-4.051923E1,-4.956897E1,4.742353E0,1.4347821E1,8.865115E1,1.5709477E2,2.6706546E2,2.3562381E0,4.433807E1,8.614709E1,2.4439766E2,6.802348E1,1.3028593E2,7.060847E1,1.604481E2,2.2189929E2,3.469916E1,2.8057294E2,1.0265037E2,4.0138455E2,8.781756E1,4.2494122E2,8.7441907E2,5.294195E2,6.517729E2],"categories":[],"categories_nodes":[],"categories_segments":[],"categories_sizes":[],"default_left":[0,0,0,0,0,0,0,0,0,0,0,0,0,0,0,0,0,0,0,0,0,0,0,0,0,0,0,0,0,0,0,0,0,0,0,0,0,0,0,0,0,0,0,0,0,0,0,0,0,0,0,0,0,0,0,0,0,0,0,0,0,0,0],"id":4,"left_children":[1,3,5,7,9,11,13,15,17,19,21,23,25,27,29,31,33,35,37,39,41,43,45,47,49,51,53,55,57,59,61,-1,-1,-1,-1,-1,-1,-1,-1,-1,-1,-1,-1,-1,-1,-1,-1,-1,-1,-1,-1,-1,-1,-1,-1,-1,-1,-1,-1,-1,-1,-1,-1],"loss_changes":[1.7744724E12,3.9823042E11,4.5701045E11,2.004275E11,1.7517517E11,9.056158E10,6.574886E10,3.7284348E10,1.0835991E11,6.8074525E10,1.689001E11,3.6675944E10,1.9139035E10,1.8465686E10,1.2312838E10,6.85808E9,1.0713301E10,3.0365143E10,3.0360764E10,1.916634E10,1.2740997E10,1.734466E10,1.3496118E10,2.3786545E10,1.8554028E10,1.0985292E10,1.0889495E10,6.5162445E9,6.4949125E9,9.64413E9,3.5311124E9,0E0,0E0,0E0,0E0,0E0,0E0,0E0,0E0,0E0,0E0,0E0,0E0,0E0,0E0,0E0,0E0,0E0,0E0,0E0,0E0,0E0,0E0,0E0,0E0,0E0,0E0,0E0,0E0,0E0,0E0,0E0,0E0],"parents":[2147483647,0,0,1,1,2,2,3,3,4,4,5,5,6,6,7,7,8,8,9,9,10,10,11,11,12,12,13,13,14,14,15,15,16,16,17,17,18,18,19,19,20,20,21,21,22,22,23,23,24,24,25,25,26,26,27,27,28,28,29,29,30,30],"right_children":[2,4,6,8,10,12,14,16,18,20,22,24,26,28,30,32,34,36,38,40,42,44,46,48,50,52,54,56,58,60,62,-1,-1,-1,-1,-1,-1,-1,-1,-1,-1,-1,-1,-1,-1,-1,-1,-1,-1,-1,-1,-1,-1,-1,-1,-1,-1,-1,-1,-1,-1,-1,-1],"split_conditions":[8.795E3,6.066143E3,1.4494E4,1E0,1E0,1.1273E4,1.7498715E4,4.7595713E3,2E0,8.176E3,2E0,2E0,1.0991571E4,1.7252E4,1E0,3.9095715E3,1E0,4.0948572E3,4.561857E3,1E0,1.0520571E4,8.1072856E3,7.539E3,1E0,1E0,1E0,1E0,1E0,5.2E1,3.3E1,1.9410285E4,-1.5827586E2,-1.27204185E2,-9.9760376E1,-5.632684E1,-3.0331837E1,6.436965E1,-9.735403E1,-4.051923E1,-4.956897E1,4.742353E0,1.4347821E1,8.865115E1,1.5709477E2,2.6706546E2,2.3562381E0,4.433807E1,8.614709E1,2.4439766E2,6.802348E1,1.3028593E2,7.060847E1,1.604481E2,2.2189929E2,3.469916E1,2.8057294E2,1.0265037E2,4.0138455E2,8.781756E1,4.2494122E2,8.7441907E2,5.294195E2,6.517729E2],"split_indices":[53,55,53,3,3,53,55,55,1,55,1,1,55,53,3,55,17,55,55,17,55,55,53,3,17,3,43,43,15,40,55,0,0,0,0,0,0,0,0,0,0,0,0,0,0,0,0,0,0,0,0,0,0,0,0,0,0,0,0,0,0,0,0],"split_type":[0,0,0,0,0,0,0,0,0,0,0,0,0,0,0,0,0,0,0,0,0,0,0,0,0,0,0,0,0,0,0,0,0,0,0,0,0,0,0,0,0,0,0,0,0,0,0,0,0,0,0,0,0,0,0,0,0,0,0,0,0,0,0],"sum_hessian":[7.85781E5,6.20158E5,1.65623E5,3.24993E5,2.95165E5,1.44173E5,2.145E4,1.80553E5,1.4444E5,1.96465E5,9.87E4,1.01209E5,4.2964E4,1.5673E4,5.777E3,7.6282E4,1.04271E5,4.0529E4,1.03911E5,1.41663E5,5.4802E4,2.2007E4,7.6693E4,9.813E3,9.1396E4,2.4943E4,1.8021E4,1.0934E4,4.739E3,3.327E3,2.45E3,2.8212E4,4.807E4,8.7311E4,1.696E4,1.2042E4,2.8487E4,3.5904E4,6.8007E4,1.22946E5,1.8717E4,4.825E4,6.552E3,1.7494E4,4.513E3,3.9857E4,3.6836E4,4.032E3,5.781E3,7.7236E4,1.416E4,4.068E3,2.0875E4,1.7207E4,8.14E2,1.0391E4,5.43E2,4.567E3,1.72E2,3.203E3,1.24E2,1.237E3,1.213E3],"tree_param":{"num_deleted":"0","num_feature":"56","num_nodes":"63","size_leaf_vector":"1"}},{"base_weights":[2.8057188E-2,-8.417726E2,2.4260337E3,-1.6157289E3,-1.8759654E2,1.7748242E3,6.071607E3,-2.2733213E3,-7.9559686E2,-6.816229E2,8.360933E2,1.1995691E3,2.6002869E3,4.765443E3,8.436483E3,-2.7633347E3,-1.9736604E3,4.899713E2,-1.3338917E3,-1.0791589E3,5.5572773E1,3.0611953E3,1.23885506E2,2.883361E3,9.989887E2,4.54081E3,2.4162695E3,2.9947612E3,5.2479663E3,7.210029E3,1.0129146E4,-1.4151822E2,-6.3491596E1,-1.0536065E2,-6.6352745E1,-4.1244335E1,4.8010647E1,-1.03517876E2,-5.1977314E1,-6.0921417E1,-1.2007049E1,-9.406741E0,4.0091946E1,1.2684287E2,2.1653531E2,-1.0203844E1,2.9389753E1,5.7052883E1,2.0667577E2,6.098423E1,1.1364133E1,1.4133688E2,2.83432E2,1.0110072E2,1.5237224E2,1.8305641E2,-9.951609E1,2.0766478E2,3.183956E2,3.7046213E2,8.339598E1,5.247303E2,2.3414494E2],"categories":[],"categories_nodes":[],"categories_segments":[],"categories_sizes":[],"default_left":[0,0,0,0,0,0,0,0,0,0,0,0,0,0,0,0,0,0,0,0,0,0,0,0,0,0,0,0,0,0,0,0,0,0,0,0,0,0,0,0,0,0,0,0,0,0,0,0,0,0,0,0,0,0,0,0,0,0,0,0,0,0,0],"id":5,"left_children":[1,3,5,7,9,11,13,15,17,19,21,23,25,27,29,31,33,35,37,39,41,43,45,47,49,51,53,55,57,59,61,-1,-1,-1,-1,-1,-1,-1,-1,-1,-1,-1,-1,-1,-1,-1,-1,-1,-1,-1,-1,-1,-1,-1,-1,-1,-1,-1,-1,-1,-1,-1,-1],"loss_changes":[1.6047364E12,2.9535804E11,4.805431E11,1.441117E11,1.5988503E11,8.154979E10,9.472154E10,2.1771125E10,8.2290885E10,6.2492287E10,1.6308155E11,3.4180366E10,2.5175294E10,1.6871358E10,2.2584164E10,5.630034E9,7.944536E9,2.17013E10,1.8167513E10,1.6187326E10,1.3586985E10,1.6598368E10,1.1860878E10,2.346047E10,1.5402951E10,1.179186E10,1.6025616E10,1.4075515E10,1.9014156E10,6.9786337E9,9.072804E9,0E0,0E0,0E0,0E0,0E0,0E0,0E0,0E0,0E0,0E0,0E0,0E0,0E0,0E0,0E0,0E0,0E0,0E0,0E0,0E0,0E0,0E0,0E0,0E0,0E0,0E0,0E0,0E0,0E0,0E0,0E0,0E0],"parents":[2147483647,0,0,1,1,2,2,3,3,4,4,5,5,6,6,7,7,8,8,9,9,10,10,11,11,12,12,13,13,14,14,15,15,16,16,17,17,18,18,19,19,20,20,21,21,22,22,23,23,24,24,25,25,26,26,27,27,28,28,29,29,30,30],"right_children":[2,4,6,8,10,12,14,16,18,20,22,24,26,28,30,32,34,36,38,40,42,44,46,48,50,52,54,56,58,60,62,-1,-1,-1,-1,-1,-1,-1,-1,-1,-1,-1,-1,-1,-1,-1,-1,-1,-1,-1,-1,-1,-1,-1,-1,-1,-1,-1,-1,-1,-1,-1,-1],"split_conditions":[8.259E3,5.6815713E3,1.3385E4,1E0,1E0,1.0091E4,1.5041286E4,4.4574287E3,2E0,7.5264287E3,2E0,2E0,2E0,1E0,1.8563E4,1E0,1E0,3.8684285E3,4.2264287E3,1E0,9.128429E3,7.317E3,6.8665713E3,1E0,6E0,1E0,1.0322143E4,1E0,1.1127429E4,1E0,1E0,-1.4151822E2,-6.3491596E1,-1.0536065E2,-6.6352745E1,-4.1244335E1,4.8010647E1,-1.03517876E2,-5.1977314E1,-6.0921417E1,-1.2007049E1,-9.406741E0,4.0091946E1,1.2684287E2,2.1653531E2,-1.0203844E1,2.9389753E1,5.7052883E1,2.0667577E2,6.098423E1,1.1364133E1,1.4133688E2,2.83432E2,1.0110072E2,1.5237224E2,1.8305641E2,-9.951609E1,2.0766478E2,3.183956E2,3.7046213E2,8.339598E1,5.247303E2,2.3414494E2],"split_indices":[53,55,53,3,3,53,55,55,1,55,1,1,1,3,53,44,17,55,55,17,55,55,55,3,1,3,55,43,55,43,43,0,0,0,0,0,0,0,0,0,0,0,0,0,0,0,0,0,0,0,0,0,0,0,0,0,0,0,0,0,0,0,0],"split_type":[0,0,0,0,0,0,0,0,0,0,0,0,0,0,0,0,0,0,0,0,0,0,0,0,0,0,0,0,0,0,0,0,0,0,0,0,0,0,0,0,0,0,0,0,0,0,0,0,0,0,0,0,0,0,0,0,0,0,0,0,0,0,0],"sum_hessian":[7.85781E5,5.83361E5,2.0242E5,2.67216E5,3.16145E5,1.71743E5,3.0677E4,1.48303E5,1.18913E5,2.13238E5,1.02907E5,1.01212E5,7.0531E4,1.9764E4,1.0913E4,5.6274E4,9.2029E4,3.5096E4,8.3817E4,1.38533E5,7.4705E4,2.4951E4,7.7956E4,1.0772E4,9.044E4,6.107E3,6.4424E4,4.234E3,1.553E4,6.331E3,4.582E3,5.3856E4,2.418E3,7.6273E4,1.5756E4,9.245E3,2.5851E4,2.3932E4,5.9885E4,1.18811E5,1.9722E4,5.6315E4,1.839E4,1.766E4,7.291E3,4.567E4,3.2286E4,4.501E3,6.271E3,7.0327E4,2.0113E4,2.425E3,3.682E3,3.9657E4,2.4767E4,3.735E3,4.99E2,7.856E3,7.674E3,6.111E3,2.2E2,4.293E3,2.89E2],"tree_param":{"num_deleted":"0","num_feature":"56","num_nodes":"63","size_leaf_vector":"1"}},{"base_weights":[3.0007493E-2,-6.358564E2,2.905934E3,-1.2808536E3,2.9596042E2,2.3090078E3,6.891164E3,-3.7638214E1,-1.617657E3,1.7835704E3,8.083032E1,1.8538054E3,3.5084321E3,5.8746143E3,9.183077E3,-1.3739541E3,1.0409125E3,-2.1434197E3,-1.1387239E3,1.7042982E2,2.9796108E3,-2.6474768E2,5.7504346E2,3.5791897E3,1.6784276E3,3.2322314E3,5.127295E3,5.3794673E3,7.806211E3,8.011795E3,1.0721634E4,-9.083395E1,-4.178209E0,9.404944E0,1.16117714E2,-1.3310432E2,-9.627006E1,-7.540192E1,-4.6675045E1,-2.1070871E1,7.901206E1,1.17610085E2,2.3625252E2,-2.2089697E1,2.07876E1,1.9717764E1,7.099847E1,9.589689E1,2.3595357E2,7.466113E1,1.3724413E2,1.0632584E2,1.8044475E2,3.7293967E2,2.3546342E2,2.7800925E2,7.197143E1,2.4903755E2,4.113474E2,4.2116806E2,5.8014557E1,4.7539987E2,5.919265E2],"categories":[],"categories_nodes":[],"categories_segments":[],"categories_sizes":[],"default_left":[0,0,0,0,0,0,0,0,0,0,0,0,0,0,0,0,0,0,0,0,0,0,0,0,0,0,0,0,0,0,0,0,0,0,0,0,0,0,0,0,0,0,0,0,0,0,0,0,0,0,0,0,0,0,0,0,0,0,0,0,0,0,0],"id":6,"left_children":[1,3,5,7,9,11,13,15,17,19,21,23,25,27,29,31,33,35,37,39,41,43,45,47,49,51,53,55,57,59,61,-1,-1,-1,-1,-1,-1,-1,-1,-1,-1,-1,-1,-1,-1,-1,-1,-1,-1,-1,-1,-1,-1,-1,-1,-1,-1,-1,-1,-1,-1,-1,-1],"loss_changes":[1.4519894E12,3.8748055E11,3.3559295E11,1.5952694E11,8.439744E10,6.6985853E10,4.2763944E10,1.1705391E11,7.548253E10,6.4284557E10,3.9349977E10,2.690882E10,1.507636E10,1.2137103E10,1.008681E10,2.0722168E10,4.9113567E10,1.6153838E10,1.1888493E10,1.18382E10,2.094152E10,1.6336054E10,1.4474054E10,1.5530082E10,1.59435E10,1.200282E10,4.758094E9,7.2113193E9,3.045081E9,9.039151E9,3.1908168E9,0E0,0E0,0E0,0E0,0E0,0E0,0E0,0E0,0E0,0E0,0E0,0E0,0E0,0E0,0E0,0E0,0E0,0E0,0E0,0E0,0E0,0E0,0E0,0E0,0E0,0E0,0E0,0E0,0E0,0E0,0E0,0E0],"parents":[2147483647,0,0,1,1,2,2,3,3,4,4,5,5,6,6,7,7,8,8,9,9,10,10,11,11,12,12,13,13,14,14,15,15,16,16,17,17,18,18,19,19,20,20,21,21,22,22,23,23,24,24,25,25,26,26,27,27,28,28,29,29,30,30],"right_children":[2,4,6,8,10,12,14,16,18,20,22,24,26,28,30,32,34,36,38,40,42,44,46,48,50,52,54,56,58,60,62,-1,-1,-1,-1,-1,-1,-1,-1,-1,-1,-1,-1,-1,-1,-1,-1,-1,-1,-1,-1,-1,-1,-1,-1,-1,-1,-1,-1,-1,-1,-1,-1],"split_conditions":[9.221E3,6.254E3,1.4984E4,2E0,2E0,1.1849E4,1.7498715E4,1E0,4.821E3,1E0,7.704E3,2E0,1.3732E4,1.8563E4,1E0,7.1207144E3,5.182857E3,4.0232856E3,5.4552856E3,9.611714E3,7.9384287E3,1E0,1E0,1E0,1E0,1E0,2E0,5.2E1,1E0,1E0,2.0625E4,-9.083395E1,-4.178209E0,9.404944E0,1.16117714E2,-1.3310432E2,-9.627006E1,-7.540192E1,-4.6675045E1,-2.1070871E1,7.901206E1,1.17610085E2,2.3625252E2,-2.2089697E1,2.07876E1,1.9717764E1,7.099847E1,9.589689E1,2.3595357E2,7.466113E1,1.3724413E2,1.0632584E2,1.8044475E2,3.7293967E2,2.3546342E2,2.7800925E2,7.197143E1,2.4903755E2,4.113474E2,4.2116806E2,5.8014557E1,4.7539987E2,5.919265E2],"split_indices":[53,53,53,1,1,53,55,3,53,3,53,1,55,53,3,55,55,55,55,55,55,17,17,3,17,3,1,15,3,43,53,0,0,0,0,0,0,0,0,0,0,0,0,0,0,0,0,0,0,0,0,0,0,0,0,0,0,0,0,0,0,0,0],"split_type":[0,0,0,0,0,0,0,0,0,0,0,0,0,0,0,0,0,0,0,0,0,0,0,0,0,0,0,0,0,0,0,0,0,0,0,0,0,0,0,0,0,0,0,0,0,0,0,0,0,0,0,0,0,0,0,0,0,0,0,0,0,0,0],"sum_hessian":[7.85781E5,6.44704E5,1.41077E5,3.80987E5,2.63717E5,1.227E5,1.8377E4,8.1213E4,2.99774E5,3.3318E4,2.30399E5,8.8946E4,3.3754E4,1.2733E4,5.644E3,3.6272E4,4.4941E4,1.42899E5,1.56875E5,1.4186E4,1.9132E4,1.35589E5,9.481E4,8.205E3,8.0741E4,2.8837E4,4.917E3,1.0138E4,2.595E3,3.208E3,2.436E3,2.7006E4,9.266E3,2.6984E4,1.7957E4,4.2287E4,1.00612E5,5.6033E4,1.00842E5,9.992E3,4.194E3,1.4075E4,5.057E3,1.07596E5,2.7993E4,7.8108E4,1.6702E4,3.34E3,4.865E3,6.8796E4,1.1945E4,7.329E3,2.1508E4,7.45E2,4.172E3,9.693E3,4.45E2,3.38E2,2.257E3,3.026E3,1.82E2,1.172E3,1.264E3],"tree_param":{"num_deleted":"0","num_feature":"56","num_nodes":"63","size_leaf_vector":"1"}},{"base_weights":[3.38233E-2,-6.2020447E2,2.6902793E3,-1.1992098E3,2.8931616E2,2.1401814E3,6.546745E3,-2.0714832E1,-1.5153475E3,1.7134987E3,8.356253E1,1.6370249E3,3.1837297E3,5.51793E3,8.599952E3,-1.2953319E3,1.0055532E3,-1.9963668E3,-1.02372076E3,1.8190846E2,2.8514749E3,-2.6775827E2,4.744528E2,5.272312E2,1.9887682E3,2.5073684E3,4.131585E3,4.686679E3,6.7919585E3,7.500497E3,9.693029E3,-9.8700516E1,-2.5850025E1,-5.444134E0,9.546094E1,-1.19032104E2,-8.584252E1,-4.3844788E1,-7.707634E1,-1.2409067E0,2.019458E2,1.0919795E2,2.1627747E2,-3.1930187E0,-4.7273205E1,1.3566508E1,5.7228462E1,3.4175594E1,-1.3354459E2,5.832023E1,1.26878494E2,1.0373232E2,2.1259026E2,3.7163187E2,1.8372044E2,1.3123613E2,2.5660294E2,3.513437E2,5.6918148E1,3.8486682E2,1.2621478E2,4.971025E2,2.636887E2],"categories":[],"categories_nodes":[],"categories_segments":[],"categories_sizes":[],"default_left":[0,0,0,0,0,0,0,0,0,0,0,0,0,0,0,0,0,0,0,0,0,0,0,0,0,0,0,0,0,0,0,0,0,0,0,0,0,0,0,0,0,0,0,0,0,0,0,0,0,0,0,0,0,0,0,0,0,0,0,0,0,0,0],"id":7,"left_children":[1,3,5,7,9,11,13,15,17,19,21,23,25,27,29,31,33,35,37,39,41,43,45,47,49,51,53,55,57,59,61,-1,-1,-1,-1,-1,-1,-1,-1,-1,-1,-1,-1,-1,-1,-1,-1,-1,-1,-1,-1,-1,-1,-1,-1,-1,-1,-1,-1,-1,-1,-1,-1],"loss_changes":[1.3111523E12,3.3627813E11,3.123057E11,1.4536619E11,7.278517E10,6.7646652E10,3.877359E10,1.07957395E11,7.275086E10,5.464852E10,2.9804943E10,3.393395E10,2.6859766E10,1.2937167E10,7.2978596E9,1.9443905E10,4.604277E10,1.6698311E10,1.156599E10,1.0658226E10,1.7691148E10,1.5794647E10,1.3983134E10,1.0459238E10,2.9788291E10,1.8456478E10,2.6310574E10,6.7951985E9,6.4107807E9,2.9798564E9,3.3282785E9,0E0,0E0,0E0,0E0,0E0,0E0,0E0,0E0,0E0,0E0,0E0,0E0,0E0,0E0,0E0,0E0,0E0,0E0,0E0,0E0,0E0,0E0,0E0,0E0,0E0,0E0,0E0,0E0,0E0,0E0,0E0,0E0],"parents":[2147483647,0,0,1,1,2,2,3,3,4,4,5,5,6,6,7,7,8,8,9,9,10,10,11,11,12,12,13,13,14,14,15,15,16,16,17,17,18,18,19,19,20,20,21,21,22,22,23,23,24,24,25,25,26,26,27,27,28,28,29,29,30,30],"right_children":[2,4,6,8,10,12,14,16,18,20,22,24,26,28,30,32,34,36,38,40,42,44,46,48,50,52,54,56,58,60,62,-1,-1,-1,-1,-1,-1,-1,-1,-1,-1,-1,-1,-1,-1,-1,-1,-1,-1,-1,-1,-1,-1,-1,-1,-1,-1,-1,-1,-1,-1,-1,-1],"split_conditions":[9.108E3,6.329E3,1.4984E4,2E0,2E0,1.0418143E4,1.8563E4,1E0,4.943E3,1E0,7.317E3,1E0,1E0,1.5041286E4,2.0625E4,6.248857E3,4.7114287E3,4.4024287E3,6E0,5.1E1,7.7245713E3,6E0,1E0,1E0,7.783E3,1.3732E4,2E0,1E0,1E0,5.2E1,1E0,-9.8700516E1,-2.5850025E1,-5.444134E0,9.546094E1,-1.19032104E2,-8.584252E1,-4.3844788E1,-7.707634E1,-1.2409067E0,2.019458E2,1.0919795E2,2.1627747E2,-3.1930187E0,-4.7273205E1,1.3566508E1,5.7228462E1,3.4175594E1,-1.3354459E2,5.832023E1,1.26878494E2,1.0373232E2,2.1259026E2,3.7163187E2,1.8372044E2,1.3123613E2,2.5660294E2,3.513437E2,5.6918148E1,3.8486682E2,1.2621478E2,4.971025E2,2.636887E2],"split_indices":[53,53,53,1,1,55,53,3,53,3,55,3,3,55,53,55,55,55,1,15,55,1,17,43,55,55,1,3,43,15,43,0,0,0,0,0,0,0,0,0,0,0,0,0,0,0,0,0,0,0,0,0,0,0,0,0,0,0,0,0,0,0,0],"split_type":[0,0,0,0,0,0,0,0,0,0,0,0,0,0,0,0,0,0,0,0,0,0,0,0,0,0,0,0,0,0,0,0,0,0,0,0,0,0,0,0,0,0,0,0,0,0,0,0,0,0,0,0,0,0,0,0,0,0,0,0,0,0,0],"sum_hessian":[7.85781E5,6.38561E5,1.4722E5,3.90174E5,2.48387E5,1.28843E5,1.8377E4,8.2528E4,3.07646E5,3.1354E4,2.17033E5,8.6931E4,4.1912E4,1.2245E4,6.132E3,3.681E4,4.5718E4,1.55499E5,1.52147E5,1.3366E4,1.7988E4,1.14302E5,1.02731E5,2.0922E4,6.6009E4,2.4461E4,1.7451E4,7.413E3,4.832E3,3.061E3,3.071E3,1.9663E4,1.7147E4,2.0472E4,2.5246E4,6.5476E4,9.0023E4,1.18538E5,3.3609E4,1.2687E4,6.79E2,1.2383E4,5.605E3,8.7867E4,2.6435E4,7.8836E4,2.3895E4,1.9948E4,9.74E2,2.6421E4,3.9588E4,1.9601E4,4.86E3,2.121E3,1.533E4,1.318E3,6.095E3,4.639E3,1.93E2,2.944E3,1.17E2,2.906E3,1.65E2],"tree_param":{"num_deleted":"0","num_feature":"56","num_nodes":"63","size_leaf_vector":"1"}},{"base_weights":[3.6187567E-2,-7.6955145E2,1.9684137E3,-1.4500264E3,-2.3424086E2,1.4112057E3,5.0590703E3,-2.0158783E3,-7.419724E2,-6.52526E2,6.571311E2,9.7663043E2,2.2568882E3,3.984753E3,7.2505244E3,-2.5044058E3,-1.807897E3,3.353209E2,-1.2074341E3,-9.8873956E2,-1.6446627E1,2.5516218E3,1.9423716E1,7.960809E1,1.3048948E3,1.6549794E3,3.1666472E3,2.5130525E3,4.40926E3,6.4832563E3,9.320166E3,-1.2956923E2,-4.045753E1,-9.6761734E1,-6.0781475E1,-5.4047405E1,3.443162E1,-9.654355E1,-5.0048195E1,-5.5778393E1,-1.2040014E1,-9.453375E0,4.138943E1,9.58774E1,1.703731E2,-1.3597953E1,1.9796164E1,-4.002133E0,7.892437E1,2.5631704E1,8.485613E1,6.2508358E1,1.3526895E2,3.0484714E2,1.3600984E2,1.564384E2,-1.0887759E2,1.5627997E2,2.585384E2,2.6459613E2,3.9508762E2,4.1181012E2,5.449206E2],"categories":[],"categories_nodes":[],"categories_segments":[],"categories_sizes":[],"default_left":[0,0,0,0,0,0,0,0,0,0,0,0,0,0,0,0,0,0,0,0,0,0,0,0,0,0,0,0,0,0,0,0,0,0,0,0,0,0,0,0,0,0,0,0,0,0,0,0,0,0,0,0,0,0,0,0,0,0,0,0,0,0,0],"id":8,"left_children":[1,3,5,7,9,11,13,15,17,19,21,23,25,27,29,31,33,35,37,39,41,43,45,47,49,51,53,55,57,59,61,-1,-1,-1,-1,-1,-1,-1,-1,-1,-1,-1,-1,-1,-1,-1,-1,-1,-1,-1,-1,-1,-1,-1,-1,-1,-1,-1,-1,-1,-1,-1,-1],"loss_changes":[1.1903348E12,2.0577868E11,3.8035823E11,9.965391E10,1.1788889E11,6.8771185E10,7.93987E10,1.4042071E10,5.5401857E10,4.6022345E10,1.2200303E11,3.6399022E10,3.4777793E10,1.4133789E10,1.7561289E10,6.0845425E9,7.310901E9,1.6681048E10,1.1521966E10,1.3354582E10,1.0844996E10,1.3794525E10,8.2887956E9,7.9251707E9,2.8120465E10,1.6252576E10,3.3069924E10,1.4652256E10,1.7159782E10,1.3644726E10,5.040816E9,0E0,0E0,0E0,0E0,0E0,0E0,0E0,0E0,0E0,0E0,0E0,0E0,0E0,0E0,0E0,0E0,0E0,0E0,0E0,0E0,0E0,0E0,0E0,0E0,0E0,0E0,0E0,0E0,0E0,0E0,0E0,0E0],"parents":[2147483647,0,0,1,1,2,2,3,3,4,4,5,5,6,6,7,7,8,8,9,9,10,10,11,11,12,12,13,13,14,14,15,15,16,16,17,17,18,18,19,19,20,20,21,21,22,22,23,23,24,24,25,25,26,26,27,27,28,28,29,29,30,30],"right_children":[2,4,6,8,10,12,14,16,18,20,22,24,26,28,30,32,34,36,38,40,42,44,46,48,50,52,54,56,58,60,62,-1,-1,-1,-1,-1,-1,-1,-1,-1,-1,-1,-1,-1,-1,-1,-1,-1,-1,-1,-1,-1,-1,-1,-1,-1,-1,-1,-1,-1,-1,-1,-1],"split_conditions":[8.022E3,5.5595713E3,1.3094E4,1E0,1E0,9.481286E3,1.5041286E4,4.194857E3,2E0,7.4202856E3,2E0,1E0,1E0,1E0,1.9410285E4,1E0,1E0,3.627E3,3.9857144E3,1E0,9.358714E3,6.7574287E3,6.6704287E3,1E0,6.933E3,1.1804571E4,2E0,1E0,1.0142857E4,1E0,1E0,-1.2956923E2,-4.045753E1,-9.6761734E1,-6.0781475E1,-5.4047405E1,3.443162E1,-9.654355E1,-5.0048195E1,-5.5778393E1,-1.2040014E1,-9.453375E0,4.138943E1,9.58774E1,1.703731E2,-1.3597953E1,1.9796164E1,-4.002133E0,7.892437E1,2.5631704E1,8.485613E1,6.2508358E1,1.3526895E2,3.0484714E2,1.3600984E2,1.564384E2,-1.0887759E2,1.5627997E2,2.585384E2,2.6459613E2,3.9508762E2,4.1181012E2,5.449206E2],"split_indices":[53,55,53,3,3,55,55,55,1,55,1,3,3,3,55,44,17,55,55,17,55,55,55,17,55,55,1,43,55,3,3,0,0,0,0,0,0,0,0,0,0,0,0,0,0,0,0,0,0,0,0,0,0,0,0,0,0,0,0,0,0,0,0],"split_type":[0,0,0,0,0,0,0,0,0,0,0,0,0,0,0,0,0,0,0,0,0,0,0,0,0,0,0,0,0,0,0,0,0,0,0,0,0,0,0,0,0,0,0,0,0,0,0,0,0,0,0,0,0,0,0,0,0,0,0,0,0,0,0],"sum_hessian":[7.85781E5,5.64914E5,2.20867E5,2.48731E5,3.16183E5,1.87131E5,3.3736E4,1.38247E5,1.10484E5,2.15199E5,1.00984E5,1.23612E5,6.3519E4,2.264E4,1.1096E4,4.1278E4,9.6969E4,3.3334E4,7.715E4,1.40784E5,7.4415E4,2.5431E4,7.5553E4,3.3117E4,9.0495E4,3.8229E4,2.529E4,5.07E3,1.757E4,8.098E3,2.998E3,3.9263E4,2.015E3,7.9808E4,1.7161E4,6.655E3,2.6679E4,1.7128E4,6.0022E4,1.20372E5,2.0412E4,6.1783E4,1.2632E4,1.461E4,1.0821E4,4.2591E4,3.2962E4,2.993E4,3.187E3,2.9967E4,6.0528E4,2.7596E4,1.0633E4,3.342E3,2.1948E4,4.482E3,5.88E2,6.544E3,1.1026E4,4.404E3,3.694E3,1.781E3,1.217E3],"tree_param":{"num_deleted":"0","num_feature":"56","num_nodes":"63","size_leaf_vector":"1"}},{"base_weights":[3.776139E-2,-5.3257196E2,2.5685088E3,-1.1649169E3,1.9501178E2,2.03954E3,5.923887E3,-1.7218022E3,-4.7547183E2,-2.616295E2,1.042144E3,1.621136E3,3.026713E3,5.0372686E3,7.9228735E3,-2.1190066E3,-1.3638138E3,5.8250336E2,-8.7179004E2,-5.696012E2,5.9548444E2,2.9901104E3,5.3088885E2,6.252827E2,1.9415029E3,2.4400896E3,3.882346E3,4.608961E3,6.7081377E3,6.8855713E3,9.285524E3,-1.268208E2,-9.810108E1,-7.4197914E1,-3.6705845E1,-1.5488339E1,5.7898853E1,-7.109198E1,-2.5070095E1,-3.4567577E1,1.3217485E1,1.9505796E1,7.883904E1,1.3042665E2,2.2642313E2,1.4030894E1,5.425491E1,3.9550087E1,-1.2798218E2,5.95442E1,1.2392675E2,1.3175868E2,-6.316925E1,3.523652E2,1.7228578E2,3.5220526E2,2.1844783E2,3.43671E2,3.2282066E1,3.2783054E2,7.5778033E2,5.9739886E2,4.434352E2],"categories":[],"categories_nodes":[],"categories_segments":[],"categories_sizes":[],"default_left":[0,0,0,0,0,0,0,0,0,0,0,0,0,0,0,0,0,0,0,0,0,0,0,0,0,0,0,0,0,0,0,0,0,0,0,0,0,0,0,0,0,0,0,0,0,0,0,0,0,0,0,0,0,0,0,0,0,0,0,0,0,0,0],"id":9,"left_children":[1,3,5,7,9,11,13,15,17,19,21,23,25,27,29,31,33,35,37,39,41,43,45,47,49,51,53,55,57,59,61,-1,-1,-1,-1,-1,-1,-1,-1,-1,-1,-1,-1,-1,-1,-1,-1,-1,-1,-1,-1,-1,-1,-1,-1,-1,-1,-1,-1,-1,-1,-1,-1],"loss_changes":[1.0749454E12,2.994343E11,2.3952353E11,1.3368849E11,1.17066E11,4.8147366E10,3.2532136E10,2.7386315E10,6.523649E10,5.1904664E10,1.0555768E11,2.612165E10,1.7408655E10,9.082143E9,7.9152087E9,5.97803E9,7.6636815E9,2.1771825E10,2.3058883E10,1.4687666E10,1.0474177E10,1.2922749E10,1.1645016E10,1.0521661E10,2.4969495E10,1.4879359E10,1.9478708E10,5.8948977E9,2.5968067E9,8.630764E9,2.5985188E9,0E0,0E0,0E0,0E0,0E0,0E0,0E0,0E0,0E0,0E0,0E0,0E0,0E0,0E0,0E0,0E0,0E0,0E0,0E0,0E0,0E0,0E0,0E0,0E0,0E0,0E0,0E0,0E0,0E0,0E0,0E0,0E0],"parents":[2147483647,0,0,1,1,2,2,3,3,4,4,5,5,6,6,7,7,8,8,9,9,10,10,11,11,12,12,13,13,14,14,15,15,16,16,17,17,18,18,19,19,20,20,21,21,22,22,23,23,24,24,25,25,26,26,27,27,28,28,29,29,30,30],"right_children":[2,4,6,8,10,12,14,16,18,20,22,24,26,28,30,32,34,36,38,40,42,44,46,48,50,52,54,56,58,60,62,-1,-1,-1,-1,-1,-1,-1,-1,-1,-1,-1,-1,-1,-1,-1,-1,-1,-1,-1,-1,-1,-1,-1,-1,-1,-1,-1,-1,-1,-1,-1,-1],"split_conditions":[9.337E3,6.207857E3,1.4984E4,1E0,1E0,1.074E4,1.7498715E4,4.964857E3,2E0,8.482714E3,2E0,1E0,1E0,1.8563E4,1E0,3.8261428E3,1E0,4.4305713E3,5.506E3,1E0,1.0520571E4,8.362571E3,7.7534287E3,1E0,8.004E3,1E0,2E0,2E0,5.2E1,3.3E1,2E0,-1.268208E2,-9.810108E1,-7.4197914E1,-3.6705845E1,-1.5488339E1,5.7898853E1,-7.109198E1,-2.5070095E1,-3.4567577E1,1.3217485E1,1.9505796E1,7.883904E1,1.3042665E2,2.2642313E2,1.4030894E1,5.425491E1,3.9550087E1,-1.2798218E2,5.95442E1,1.2392675E2,1.3175868E2,-6.316925E1,3.523652E2,1.7228578E2,3.5220526E2,2.1844783E2,3.43671E2,3.2282066E1,3.2783054E2,7.5778033E2,5.9739886E2,4.434352E2],"split_indices":[53,55,53,3,3,55,55,55,1,55,1,3,3,53,3,55,17,55,53,17,55,55,55,43,55,43,1,1,15,40,1,0,0,0,0,0,0,0,0,0,0,0,0,0,0,0,0,0,0,0,0,0,0,0,0,0,0,0,0,0,0,0,0],"split_type":[0,0,0,0,0,0,0,0,0,0,0,0,0,0,0,0,0,0,0,0,0,0,0,0,0,0,0,0,0,0,0,0,0,0,0,0,0,0,0,0,0,0,0,0,0,0,0,0,0,0,0,0,0,0,0,0,0,0,0,0,0,0,0],"sum_hessian":[7.85781E5,6.50824E5,1.34957E5,3.48201E5,3.02623E5,1.1658E5,1.8377E4,1.92617E5,1.55584E5,1.96631E5,1.05992E5,8.1879E4,3.4701E4,1.2733E4,5.644E3,9.1305E4,1.01312E5,4.2399E4,1.13185E5,1.44655E5,5.1976E4,2.2034E4,8.3958E4,1.993E4,6.1949E4,2.0589E4,1.4112E4,1.0138E4,2.595E3,3.208E3,2.436E3,2.495E4,6.6355E4,8.5078E4,1.6234E4,1.6624E4,2.5775E4,4.5545E4,6.764E4,1.26227E5,1.8428E4,4.2982E4,8.994E3,1.7657E4,4.377E3,5.784E4,2.6118E4,1.8945E4,9.85E2,2.5838E4,3.6111E4,1.9559E4,1.03E3,1.709E3,1.2403E4,9.07E2,9.231E3,2.526E3,6.9E1,3.087E3,1.21E2,3.26E2,2.11E3],"tree_param":{"num_deleted":"0","num_feature":"56","num_nodes":"63","size_leaf_vector":"1"}},{"base_weights":[4.0758308E-2,-6.965286E2,1.781659E3,-1.2277863E3,-1.3218219E2,1.2494059E3,4.4444824E3,-1.7324391E3,-5.8116455E2,-5.0288235E2,7.0720465E2,8.7242706E2,2.0022936E3,3.5184E3,6.5538457E3,-2.076391E3,-1.4314031E3,4.2101166E2,-1.00184186E3,-7.451833E2,1.563983E2,2.5065193E3,1.0456913E2,7.217734E1,1.1677915E3,1.4771938E3,2.8174558E3,2.217829E3,3.9068464E3,5.9227305E3,8.723566E3,-1.10042336E2,-7.906013E1,-7.7243675E1,-4.277647E1,-4.4590763E1,3.7857006E1,-7.580996E1,-3.5518753E1,-4.302605E1,-1.4242028E0,2.7096052E0,7.937396E1,1.1234717E2,2.0490666E2,-1.1991228E1,1.6716024E1,7.9670143E0,-1.22939026E2,1.4143129E2,5.0545437E1,5.4729725E1,1.1726271E2,2.7804004E2,1.1967428E2,1.3849309E2,-1.05529274E2,1.57632E2,2.4955562E2,3.0569586E2,6.928579E1,4.516462E2,2.0907559E2],"categories":[],"categories_nodes":[],"categories_segments":[],"categories_sizes":[],"default_left":[0,0,0,0,0,0,0,0,0,0,0,0,0,0,0,0,0,0,0,0,0,0,0,0,0,0,0,0,0,0,0,0,0,0,0,0,0,0,0,0,0,0,0,0,0,0,0,0,0,0,0,0,0,0,0,0,0,0,0,0,0,0,0],"id":10,"left_children":[1,3,5,7,9,11,13,15,17,19,21,23,25,27,29,31,33,35,37,39,41,43,45,47,49,51,53,55,57,59,61,-1,-1,-1,-1,-1,-1,-1,-1,-1,-1,-1,-1,-1,-1,-1,-1,-1,-1,-1,-1,-1,-1,-1,-1,-1,-1,-1,-1,-1,-1,-1,-1],"loss_changes":[9.75173E11,1.6936886E11,3.130299E11,9.495406E10,8.523603E10,5.22432E10,7.185007E10,1.6919396E10,5.3776273E10,3.0353617E10,9.0992435E10,2.8992725E10,2.6284425E10,1.2909347E10,1.5317762E10,4.6974894E9,5.6939807E9,1.6642611E10,1.3467861E10,1.1485684E10,7.469246E9,8.689148E9,4.974109E9,7.295603E9,2.3341162E10,1.2404081E10,2.797196E10,1.4062842E10,1.6084337E10,7.536345E9,3.5129917E9,0E0,0E0,0E0,0E0,0E0,0E0,0E0,0E0,0E0,0E0,0E0,0E0,0E0,0E0,0E0,0E0,0E0,0E0,0E0,0E0,0E0,0E0,0E0,0E0,0E0,0E0,0E0,0E0,0E0,0E0,0E0,0E0],"parents":[2147483647,0,0,1,1,2,2,3,3,4,4,5,5,6,6,7,7,8,8,9,9,10,10,11,11,12,12,13,13,14,14,15,15,16,16,17,17,18,18,19,19,20,20,21,21,22,22,23,23,24,24,25,25,26,26,27,27,28,28,29,29,30,30],"right_children":[2,4,6,8,10,12,14,16,18,20,22,24,26,28,30,32,34,36,38,40,42,44,46,48,50,52,54,56,58,60,62,-1,-1,-1,-1,-1,-1,-1,-1,-1,-1,-1,-1,-1,-1,-1,-1,-1,-1,-1,-1,-1,-1,-1,-1,-1,-1,-1,-1,-1,-1,-1,-1],"split_conditions":[8.022E3,5.8644287E3,1.2834E4,1E0,1E0,9.481286E3,1.5041286E4,4.7595713E3,2E0,7.8754287E3,2E0,1E0,1E0,1E0,2.0625E4,1E0,1E0,3.7318572E3,4.483857E3,1E0,1.0626857E4,8.1415713E3,6.823E3,1E0,2E0,1.1614286E4,2E0,1E0,1.1438857E4,1E0,1E0,-1.10042336E2,-7.906013E1,-7.7243675E1,-4.277647E1,-4.4590763E1,3.7857006E1,-7.580996E1,-3.5518753E1,-4.302605E1,-1.4242028E0,2.7096052E0,7.937396E1,1.1234717E2,2.0490666E2,-1.1991228E1,1.6716024E1,7.9670143E0,-1.22939026E2,1.4143129E2,5.0545437E1,5.4729725E1,1.1726271E2,2.7804004E2,1.1967428E2,1.3849309E2,-1.05529274E2,1.57632E2,2.4955562E2,3.0569586E2,6.928579E1,4.516462E2,2.0907559E2],"split_indices":[53,55,53,3,3,55,55,55,1,55,1,3,3,3,53,17,17,55,55,17,55,55,53,43,1,55,1,43,55,43,43,0,0,0,0,0,0,0,0,0,0,0,0,0,0,0,0,0,0,0,0,0,0,0,0,0,0,0,0,0,0,0,0],"split_type":[0,0,0,0,0,0,0,0,0,0,0,0,0,0,0,0,0,0,0,0,0,0,0,0,0,0,0,0,0,0,0,0,0,0,0,0,0,0,0,0,0,0,0,0,0,0,0,0,0,0,0,0,0,0,0,0,0,0,0,0,0,0,0],"sum_hessian":[7.85781E5,5.64914E5,2.20867E5,2.90987E5,2.73927E5,1.84075E5,3.6792E4,1.63434E5,1.27553E5,1.90012E5,8.3915E4,1.2266E5,6.1415E4,2.5569E4,1.1223E4,7.6277E4,8.7157E4,3.7712E4,8.9841E4,1.38946E5,5.1066E4,2.1053E4,6.2862E4,3.3068E4,8.9592E4,3.7355E4,2.406E4,5.882E3,1.9687E4,8.697E3,2.526E3,6.0954E4,1.5323E4,7.2809E4,1.4348E4,7.687E3,3.0025E4,3.2494E4,5.7347E4,1.19685E5,1.9261E4,4.7663E4,3.403E3,1.8103E4,2.95E3,2.5155E4,3.7707E4,3.1968E4,1.1E3,7.731E3,8.1861E4,2.5929E4,1.1426E4,3.219E3,2.0841E4,5.217E3,6.65E2,1.1613E4,8.074E3,8.345E3,3.52E2,2.364E3,1.62E2],"tree_param":{"num_deleted":"0","num_feature":"56","num_nodes":"63","size_leaf_vector":"1"}},{"base_weights":[4.134715E-2,-4.6906027E2,2.391813E3,-9.639127E2,3.29084E2,1.9453771E3,5.6913584E3,3.100804E0,-1.2188828E3,1.4932499E3,1.6410757E2,1.5636179E3,2.9765603E3,5.109466E3,8.016318E3,-1.0392911E3,8.417272E2,-1.6351282E3,-8.019836E2,2.386756E2,2.4240657E3,-8.059191E1,5.729223E2,3.06684E3,1.4146592E3,2.6424883E3,4.0712002E3,4.218824E3,6.0160996E3,8.240502E3,4.0421077E3,-7.117904E1,-4.415175E-1,7.5715456E0,9.491057E1,-9.951618E1,-7.099536E1,-4.6257084E1,-1.8114368E1,1.200087E0,1.9773148E2,9.26667E1,1.8865547E2,4.541158E0,-3.210983E1,1.9263868E1,6.100181E1,8.349631E1,2.0025725E2,6.29216E1,1.1716345E2,7.714868E1,1.4788432E2,3.0971225E2,1.8633965E2,1.09578064E2,2.2889859E2,3.1379263E2,5.3649666E1,3.8233426E2,5.006937E2,6.337164E2,-9.639614E1],"categories":[],"categories_nodes":[],"categories_segments":[],"categories_sizes":[],"default_left":[0,0,0,0,0,0,0,0,0,0,0,0,0,0,0,0,0,0,0,0,0,0,0,0,0,0,0,0,0,0,0,0,0,0,0,0,0,0,0,0,0,0,0,0,0,0,0,0,0,0,0,0,0,0,0,0,0,0,0,0,0,0,0],"id":11,"left_children":[1,3,5,7,9,11,13,15,17,19,21,23,25,27,29,31,33,35,37,39,41,43,45,47,49,51,53,55,57,59,61,-1,-1,-1,-1,-1,-1,-1,-1,-1,-1,-1,-1,-1,-1,-1,-1,-1,-1,-1,-1,-1,-1,-1,-1,-1,-1,-1,-1,-1,-1,-1,-1],"loss_changes":[8.8163595E11,2.5946654E11,1.8978374E11,9.9983884E10,4.828786E10,4.4672975E10,2.0732445E10,7.396766E10,5.568594E10,3.644225E10,2.202974E10,1.8542805E10,1.1202363E10,9.893773E9,2.703704E9,1.4938513E10,3.4195988E10,1.2272534E10,8.681767E9,1.0603973E10,1.3786522E10,1.3261869E10,1.001209E10,9.780535E9,1.0930422E10,8.1383096E9,5.218099E9,4.5040927E9,7.806337E9,2.984657E9,8.5791805E9,0E0,0E0,0E0,0E0,0E0,0E0,0E0,0E0,0E0,0E0,0E0,0E0,0E0,0E0,0E0,0E0,0E0,0E0,0E0,0E0,0E0,0E0,0E0,0E0,0E0,0E0,0E0,0E0,0E0,0E0,0E0,0E0],"parents":[2147483647,0,0,1,1,2,2,3,3,4,4,5,5,6,6,7,7,8,8,9,9,10,10,11,11,12,12,13,13,14,14,15,15,16,16,17,17,18,18,19,19,20,20,21,21,22,22,23,23,24,24,25,25,26,26,27,27,28,28,29,29,30,30],"right_children":[2,4,6,8,10,12,14,16,18,20,22,24,26,28,30,32,34,36,38,40,42,44,46,48,50,52,54,56,58,60,62,-1,-1,-1,-1,-1,-1,-1,-1,-1,-1,-1,-1,-1,-1,-1,-1,-1,-1,-1,-1,-1,-1,-1,-1,-1,-1,-1,-1,-1,-1,-1,-1],"split_conditions":[9.459E3,6.454E3,1.5572E4,2E0,2E0,1.2195E4,2.0625E4,1E0,4.991E3,1E0,7.813E3,2E0,1.3262857E4,1.5041286E4,1E0,7.1207144E3,5.268143E3,3.904E3,1E0,5.1E1,7.9384287E3,6E0,1E0,1E0,1E0,1E0,2E0,1E0,1E0,4.8E1,1.1E1,-7.117904E1,-4.415175E-1,7.5715456E0,9.491057E1,-9.951618E1,-7.099536E1,-4.6257084E1,-1.8114368E1,1.200087E0,1.9773148E2,9.26667E1,1.8865547E2,4.541158E0,-3.210983E1,1.9263868E1,6.100181E1,8.349631E1,2.0025725E2,6.29216E1,1.1716345E2,7.714868E1,1.4788432E2,3.0971225E2,1.8633965E2,1.09578064E2,2.2889859E2,3.1379263E2,5.3649666E1,3.8233426E2,5.006937E2,6.337164E2,-9.639614E1],"split_indices":[53,53,53,1,1,53,53,3,53,3,55,1,55,55,43,55,55,53,17,15,55,1,17,3,17,3,1,3,43,15,12,0,0,0,0,0,0,0,0,0,0,0,0,0,0,0,0,0,0,0,0,0,0,0,0,0,0,0,0,0,0,0,0],"split_type":[0,0,0,0,0,0,0,0,0,0,0,0,0,0,0,0,0,0,0,0,0,0,0,0,0,0,0,0,0,0,0,0,0,0,0,0,0,0,0,0,0,0,0,0,0,0,0,0,0,0,0,0,0,0,0,0,0,0,0,0,0,0,0],"sum_hessian":[7.85781E5,6.56936E5,1.28845E5,4.05515E5,2.51421E5,1.13491E5,1.5354E4,8.4612E4,3.20903E5,3.1206E4,2.20215E5,8.2829E4,3.0662E4,1.2283E4,3.071E3,3.7723E4,4.6889E4,1.60576E5,1.60327E5,1.3292E4,1.7914E4,1.37759E5,8.2456E4,7.466E3,7.5363E4,2.3495E4,7.167E3,6.199E3,6.084E3,2.906E3,1.65E2,2.7476E4,1.0247E4,2.836E4,1.8529E4,6.0583E4,9.9993E4,1.25245E5,3.5082E4,1.2567E4,7.25E2,1.259E4,5.324E3,1.05545E5,3.2214E4,6.3922E4,1.8534E4,3.001E3,4.465E3,6.4512E4,1.0851E4,5.236E3,1.8259E4,9.98E2,6.169E3,9.34E2,5.265E3,5.78E3,3.04E2,2.181E3,7.25E2,6.7E1,9.8E1],"tree_param":{"num_deleted":"0","num_feature":"56","num_nodes":"63","size_leaf_vector":"1"}},{"base_weights":[4.396804E-2,-6.3055994E2,1.6129423E3,-1.2332051E3,-2.1209415E2,1.156794E3,4.1430527E3,-1.6954175E3,-6.610894E2,-5.572969E2,5.0825287E2,7.031188E2,1.7249209E3,3.3909995E3,6.2955815E3,-2.1198347E3,-1.5370317E3,2.033004E2,-1.0389363E3,-8.964308E2,-8.857154E1,2.0336953E3,-7.655222E0,-1.20069435E2,9.5394037E2,1.2024342E3,2.406985E3,3.0114038E3,4.697931E3,5.3229844E3,7.5825913E3,-1.10950584E2,-1.731228E1,-8.256728E1,-5.0907993E1,-6.0632282E1,2.3499617E1,-8.6398735E1,-4.4091053E1,-5.015328E1,-1.4496291E1,-1.2585746E1,2.6949362E1,7.5416885E1,1.4166945E2,-1.6307673E1,1.2781932E1,-1.7869345E0,-1.2859395E2,1.5079925E1,6.3373074E1,4.3355457E1,1.0872719E2,2.3767212E2,1.0363551E2,1.06266884E2,1.6438791E2,1.3770726E2,2.524772E2,2.8462433E2,-1.6858446E1,5.280011E2,3.5348788E2],"categories":[],"categories_nodes":[],"categories_segments":[],"categories_sizes":[],"default_left":[0,0,0,0,0,0,0,0,0,0,0,0,0,0,0,0,0,0,0,0,0,0,0,0,0,0,0,0,0,0,0,0,0,0,0,0,0,0,0,0,0,0,0,0,0,0,0,0,0,0,0,0,0,0,0,0,0,0,0,0,0,0,0],"id":12,"left_children":[1,3,5,7,9,11,13,15,17,19,21,23,25,27,29,31,33,35,37,39,41,43,45,47,49,51,53,55,57,59,61,-1,-1,-1,-1,-1,-1,-1,-1,-1,-1,-1,-1,-1,-1,-1,-1,-1,-1,-1,-1,-1,-1,-1,-1,-1,-1,-1,-1,-1,-1,-1,-1],"loss_changes":[7.9921984E11,1.424636E11,2.5490017E11,6.1219144E10,8.290694E10,4.823112E10,5.4592668E10,8.604713E9,3.3789993E10,3.5828703E10,8.500495E10,2.148325E10,2.9606068E10,1.2390498E10,1.0892345E10,6.1201777E9,5.5297966E9,1.1883936E10,7.7918863E9,8.4575027E9,9.687526E9,1.1464311E10,6.768816E9,5.0242473E9,1.6310125E10,1.5334474E10,2.8256977E10,4.738302E9,3.8312428E9,1.0413097E10,5.661999E9,0E0,0E0,0E0,0E0,0E0,0E0,0E0,0E0,0E0,0E0,0E0,0E0,0E0,0E0,0E0,0E0,0E0,0E0,0E0,0E0,0E0,0E0,0E0,0E0,0E0,0E0,0E0,0E0,0E0,0E0,0E0,0E0],"parents":[2147483647,0,0,1,1,2,2,3,3,4,4,5,5,6,6,7,7,8,8,9,9,10,10,11,11,12,12,13,13,14,14,15,15,16,16,17,17,18,18,19,19,20,20,21,21,22,22,23,23,24,24,25,25,26,26,27,27,28,28,29,29,30,30],"right_children":[2,4,6,8,10,12,14,16,18,20,22,24,26,28,30,32,34,36,38,40,42,44,46,48,50,52,54,56,58,60,62,-1,-1,-1,-1,-1,-1,-1,-1,-1,-1,-1,-1,-1,-1,-1,-1,-1,-1,-1,-1,-1,-1,-1,-1,-1,-1,-1,-1,-1,-1,-1,-1],"split_conditions":[8.022E3,5.435E3,1.3094E4,1E0,1E0,8.926E3,1.6074429E4,4.0611428E3,2E0,7.097143E3,2E0,1E0,1E0,1.6322E4,1E0,1E0,1E0,3.444E3,3.8261428E3,1E0,8.926E3,6.7574287E3,6.768E3,1E0,6.7574287E3,1.1614286E4,2E0,9.481286E3,1E0,1E0,2E0,-1.10950584E2,-1.731228E1,-8.256728E1,-5.0907993E1,-6.0632282E1,2.3499617E1,-8.6398735E1,-4.4091053E1,-5.015328E1,-1.4496291E1,-1.2585746E1,2.6949362E1,7.5416885E1,1.4166945E2,-1.6307673E1,1.2781932E1,-1.7869345E0,-1.2859395E2,1.5079925E1,6.3373074E1,4.3355457E1,1.0872719E2,2.3767212E2,1.0363551E2,1.06266884E2,1.6438791E2,1.3770726E2,2.524772E2,2.8462433E2,-1.6858446E1,5.280011E2,3.5348788E2],"split_indices":[53,55,53,3,3,55,55,55,1,55,1,3,3,53,3,44,17,55,55,17,55,55,53,43,55,55,1,55,3,43,1,0,0,0,0,0,0,0,0,0,0,0,0,0,0,0,0,0,0,0,0,0,0,0,0,0,0,0,0,0,0,0,0],"split_type":[0,0,0,0,0,0,0,0,0,0,0,0,0,0,0,0,0,0,0,0,0,0,0,0,0,0,0,0,0,0,0,0,0,0,0,0,0,0,0,0,0,0,0,0,0,0,0,0,0,0,0,0,0,0,0,0,0,0,0,0,0,0,0],"sum_hessian":[7.85781E5,5.64914E5,2.20867E5,2.31509E5,3.33405E5,1.87131E5,3.3736E4,1.28053E5,1.03456E5,2.25393E5,1.08012E5,1.04047E5,8.3084E4,2.5003E4,8.733E3,3.4797E4,9.3256E4,3.1468E4,7.1988E4,1.30774E5,9.4619E4,2.7297E4,8.0715E4,2.4299E4,7.9748E4,4.7047E4,3.6037E4,1.9378E4,5.625E3,4.977E3,3.756E3,3.2954E4,1.843E3,7.6418E4,1.6838E4,4.987E3,2.6481E4,1.3365E4,5.8623E4,1.11219E5,1.9555E4,7.5097E4,1.9522E4,1.6476E4,1.0821E4,3.6528E4,4.4187E4,2.3492E4,8.07E2,2.5887E4,5.3861E4,3.4982E4,1.2065E4,4.492E3,3.1545E4,4.609E3,1.4769E4,8.63E2,4.762E3,4.672E3,3.05E2,5.49E2,3.207E3],"tree_param":{"num_deleted":"0","num_feature":"56","num_nodes":"63","size_leaf_vector":"1"}},{"base_weights":[4.432277E-2,-4.1245062E2,2.228799E3,-9.379151E2,2.2691675E2,1.7742372E3,4.9312695E3,-1.3940226E3,-3.7442224E2,-1.549294E2,9.193542E2,1.423868E3,2.6508718E3,4.1884478E3,6.824721E3,-1.7443798E3,-1.10276E3,4.910925E2,-6.9260645E2,-4.0599686E2,6.0463995E2,2.5580298E3,5.0704126E2,2.6968013E3,1.3039305E3,1.445181E3,2.9795237E3,6.0180684E3,3.841197E3,7.067816E3,3.1421648E3,-9.281E1,-6.4360374E1,-5.9651196E1,-2.4507555E1,-1.9153051E1,4.6541214E1,-5.8378956E1,-1.823438E1,-2.571762E1,1.7649363E1,2.1590105E1,7.700455E1,1.1602152E2,2.2565208E2,2.0558E1,8.046031E1,6.3634377E1,1.8483235E2,5.7893215E1,1.087112E2,9.5267784E1,-1.22659195E2,1.0182605E2,1.7659572E2,2.1804411E2,4.5961166E2,1.8461072E2,4.055162E2,3.3811935E2,4.7642178E2,5.423339E2,-1.1679955E2],"categories":[],"categories_nodes":[],"categories_segments":[],"categories_sizes":[],"default_left":[0,0,0,0,0,0,0,0,0,0,0,0,0,0,0,0,0,0,0,0,0,0,0,0,0,0,0,0,0,0,0,0,0,0,0,0,0,0,0,0,0,0,0,0,0,0,0,0,0,0,0,0,0,0,0,0,0,0,0,0,0,0,0],"id":13,"left_children":[1,3,5,7,9,11,13,15,17,19,21,23,25,27,29,31,33,35,37,39,41,43,45,47,49,51,53,55,57,59,61,-1,-1,-1,-1,-1,-1,-1,-1,-1,-1,-1,-1,-1,-1,-1,-1,-1,-1,-1,-1,-1,-1,-1,-1,-1,-1,-1,-1,-1,-1,-1,-1],"loss_changes":[7.224097E11,2.227664E11,1.507442E11,9.353973E10,7.908725E10,3.2262193E10,2.4822841E10,2.0523713E10,4.4837376E10,3.6767236E10,7.183216E10,1.1455463E10,1.1881693E10,8.0411853E9,4.433281E9,4.6652785E9,6.072959E9,1.6823321E10,1.854144E10,1.1916941E10,7.743224E9,9.917497E9,8.976173E9,9.196503E9,8.717304E9,1.1534255E10,1.2270551E10,1.0601267E10,6.7570893E9,3.4437693E9,1.310936E10,0E0,0E0,0E0,0E0,0E0,0E0,0E0,0E0,0E0,0E0,0E0,0E0,0E0,0E0,0E0,0E0,0E0,0E0,0E0,0E0,0E0,0E0,0E0,0E0,0E0,0E0,0E0,0E0,0E0,0E0,0E0,0E0],"parents":[2147483647,0,0,1,1,2,2,3,3,4,4,5,5,6,6,7,7,8,8,9,9,10,10,11,11,12,12,13,13,14,14,15,15,16,16,17,17,18,18,19,19,20,20,21,21,22,22,23,23,24,24,25,25,26,26,27,27,28,28,29,29,30,30],"right_children":[2,4,6,8,10,12,14,16,18,20,22,24,26,28,30,32,34,36,38,40,42,44,46,48,50,52,54,56,58,60,62,-1,-1,-1,-1,-1,-1,-1,-1,-1,-1,-1,-1,-1,-1,-1,-1,-1,-1,-1,-1,-1,-1,-1,-1,-1,-1,-1,-1,-1,-1,-1,-1],"split_conditions":[9.585E3,6.3105713E3,1.3732E4,1E0,1E0,1.2195E4,1.8563E4,4.964857E3,2E0,8.695857E3,2E0,2E0,1E0,2E0,1E0,1E0,2.8E1,4.286143E3,4.8517144E3,1E0,1.0860857E4,9.128429E3,2.7E1,4.5299998E-1,1E0,1E0,9.481286E3,1E0,7E0,5.1E1,1.1E1,-9.281E1,-6.4360374E1,-5.9651196E1,-2.4507555E1,-1.9153051E1,4.6541214E1,-5.8378956E1,-1.823438E1,-2.571762E1,1.7649363E1,2.1590105E1,7.700455E1,1.1602152E2,2.2565208E2,2.0558E1,8.046031E1,6.3634377E1,1.8483235E2,5.7893215E1,1.087112E2,9.5267784E1,-1.22659195E2,1.0182605E2,1.7659572E2,2.1804411E2,4.5961166E2,1.8461072E2,4.055162E2,3.3811935E2,4.7642178E2,5.423339E2,-1.1679955E2],"split_indices":[53,55,55,3,3,53,53,55,1,55,1,1,3,1,43,17,13,55,55,17,55,55,13,50,17,43,55,3,1,15,12,0,0,0,0,0,0,0,0,0,0,0,0,0,0,0,0,0,0,0,0,0,0,0,0,0,0,0,0,0,0,0,0],"split_type":[0,0,0,0,0,0,0,0,0,0,0,0,0,0,0,0,0,0,0,0,0,0,0,0,0,0,0,0,0,0,0,0,0,0,0,0,0,0,0,0,0,0,0,0,0,0,0,0,0,0,0,0,0,0,0,0,0,0,0,0,0,0,0],"sum_hessian":[7.85781E5,6.63063E5,1.22718E5,3.6395E5,2.99113E5,1.0505E5,1.7668E4,2.0114E5,1.6281E5,1.92796E5,1.06317E5,7.5055E4,2.9995E4,1.2692E4,4.976E3,9.1305E4,1.09835E5,4.3764E4,1.19046E5,1.44901E5,4.7895E4,2.1372E4,8.4945E4,6.461E3,6.8594E4,6.426E3,2.3569E4,2.022E3,1.067E4,4.667E3,3.09E2,7.3359E4,1.7946E4,9.5729E4,1.4106E4,1.4647E4,2.9117E4,4.862E4,7.0426E4,1.26799E5,1.8102E4,4.0427E4,7.468E3,1.9058E4,2.314E3,7.8148E4,6.797E3,2.666E3,3.795E3,5.8738E4,9.856E3,5.748E3,6.78E2,8.708E3,1.4861E4,1.33E3,6.92E2,1.0312E4,3.58E2,4.155E3,5.12E2,1.28E2,1.81E2],"tree_param":{"num_deleted":"0","num_feature":"56","num_nodes":"63","size_leaf_vector":"1"}},{"base_weights":[4.6486124E-2,-5.937785E2,1.4076007E3,-1.1437427E3,-2.3204567E2,9.701292E2,3.528117E3,-1.5567269E3,-6.314988E2,-5.3764E2,4.1610245E2,7.003074E2,1.701582E3,2.7981323E3,5.3661973E3,-1.9864072E3,-1.426622E3,1.4436664E2,-9.776866E2,-8.5596716E2,-1.2941277E2,1.7900978E3,-6.570287E1,7.762339E1,9.61313E2,1.2820107E3,2.4392637E3,1.7100479E3,3.1389028E3,4.7328965E3,7.1213296E3,-1.0525176E2,-6.4659476E0,-7.676165E1,-4.7222866E1,-5.6643826E1,1.9853182E1,-8.2134056E1,-4.2083443E1,-4.723724E1,-1.024339E1,-9.97097E0,4.850369E1,6.99382E1,1.3483694E2,-1.6775463E1,8.849903E0,-3.6248891E0,7.067758E1,1.9575178E1,6.642685E1,5.22393E1,1.09950645E2,2.4325235E2,1.02225E2,1.0930285E2,-1.110322E2,1.2241445E2,2.0129726E2,1.8933778E2,2.9506125E2,3.4644797E2,6.7828436E2],"categories":[],"categories_nodes":[],"categories_segments":[],"categories_sizes":[],"default_left":[0,0,0,0,0,0,0,0,0,0,0,0,0,0,0,0,0,0,0,0,0,0,0,0,0,0,0,0,0,0,0,0,0,0,0,0,0,0,0,0,0,0,0,0,0,0,0,0,0,0,0,0,0,0,0,0,0,0,0,0,0,0,0],"id":14,"left_children":[1,3,5,7,9,11,13,15,17,19,21,23,25,27,29,31,33,35,37,39,41,43,45,47,49,51,53,55,57,59,61,-1,-1,-1,-1,-1,-1,-1,-1,-1,-1,-1,-1,-1,-1,-1,-1,-1,-1,-1,-1,-1,-1,-1,-1,-1,-1,-1,-1,-1,-1,-1,-1],"loss_changes":[6.5678954E11,1.09941015E11,2.1627994E11,4.6384873E10,6.603056E10,3.814413E10,5.348537E10,6.783566E9,2.6288628E10,2.9440279E10,7.071279E10,2.2947348E10,1.6117105E10,1.0577281E10,1.2563218E10,6.214902E9,4.8784343E9,9.747021E9,6.120071E9,7.3576694E9,7.6404475E9,9.83552E9,5.1787894E9,8.363886E9,2.081774E10,7.2203223E9,1.8071667E10,1.2744802E10,1.3303841E10,9.186771E9,3.628843E9,0E0,0E0,0E0,0E0,0E0,0E0,0E0,0E0,0E0,0E0,0E0,0E0,0E0,0E0,0E0,0E0,0E0,0E0,0E0,0E0,0E0,0E0,0E0,0E0,0E0,0E0,0E0,0E0,0E0,0E0,0E0,0E0],"parents":[2147483647,0,0,1,1,2,2,3,3,4,4,5,5,6,6,7,7,8,8,9,9,10,10,11,11,12,12,13,13,14,14,15,15,16,16,17,17,18,18,19,19,20,20,21,21,22,22,23,23,24,24,25,25,26,26,27,27,28,28,29,29,30,30],"right_children":[2,4,6,8,10,12,14,16,18,20,22,24,26,28,30,32,34,36,38,40,42,44,46,48,50,52,54,56,58,60,62,-1,-1,-1,-1,-1,-1,-1,-1,-1,-1,-1,-1,-1,-1,-1,-1,-1,-1,-1,-1,-1,-1,-1,-1,-1,-1,-1,-1,-1,-1,-1,-1],"split_conditions":[7.875E3,5.352143E3,1.2604E4,1E0,1E0,9.747571E3,1.5041286E4,3.9095715E3,2E0,6.9567144E3,2E0,1E0,1E0,1E0,1.9410285E4,1E0,1E0,3.444E3,3.7318572E3,2.8E1,9.977143E3,6.9792856E3,6.714E3,1E0,7.168857E3,1.2266714E4,2E0,1E0,1.1127429E4,1E0,3.3E1,-1.0525176E2,-6.4659476E0,-7.676165E1,-4.7222866E1,-5.6643826E1,1.9853182E1,-8.2134056E1,-4.2083443E1,-4.723724E1,-1.024339E1,-9.97097E0,4.850369E1,6.99382E1,1.3483694E2,-1.6775463E1,8.849903E0,-3.6248891E0,7.067758E1,1.9575178E1,6.642685E1,5.22393E1,1.09950645E2,2.4325235E2,1.02225E2,1.0930285E2,-1.110322E2,1.2241445E2,2.0129726E2,1.8933778E2,2.9506125E2,3.4644797E2,6.7828436E2],"split_indices":[53,55,53,3,3,55,55,55,1,55,1,3,3,3,55,44,17,55,55,13,55,55,53,17,55,55,1,43,55,3,40,0,0,0,0,0,0,0,0,0,0,0,0,0,0,0,0,0,0,0,0,0,0,0,0,0,0,0,0,0,0,0,0],"split_type":[0,0,0,0,0,0,0,0,0,0,0,0,0,0,0,0,0,0,0,0,0,0,0,0,0,0,0,0,0,0,0,0,0,0,0,0,0,0,0,0,0,0,0,0,0,0,0,0,0,0,0,0,0,0,0,0,0,0,0,0,0,0,0],"sum_hessian":[7.85781E5,5.52634E5,2.33147E5,2.19267E5,3.33367E5,1.93275E5,3.9872E4,1.21394E5,9.7873E4,2.26551E5,1.06816E5,1.41193E5,5.2082E4,2.854E4,1.1332E4,2.8211E4,9.3183E4,3.0197E4,6.7676E4,1.27291E5,9.926E4,2.7731E4,7.9085E4,4.1703E4,9.949E4,3.3201E4,1.8881E4,6.808E3,2.1732E4,8.33E3,3.002E3,2.6517E4,1.694E3,7.605E4,1.7133E4,4.987E3,2.521E4,1.149E4,5.6186E4,1.12017E5,1.5274E4,9.3319E4,5.941E3,1.9372E4,8.359E3,3.7451E4,4.1634E4,3.7491E4,4.212E3,3.8991E4,6.0499E4,2.6379E4,6.822E3,2.641E3,1.624E4,6.073E3,7.35E2,1.2221E4,9.511E3,4.605E3,3.725E3,2.917E3,8.5E1],"tree_param":{"num_deleted":"0","num_feature":"56","num_nodes":"63","size_leaf_vector":"1"}},{"base_weights":[4.7119997E-2,-5.747239E2,1.3130623E3,-1.056114E3,-2.0874829E2,9.880189E2,3.8764163E3,-1.4460673E3,-5.662248E2,-4.9425027E2,4.2185495E2,6.7506226E2,1.8164784E3,2.9906375E3,5.429508E3,-1.8010364E3,-1.2926731E3,1.8320613E2,-8.9758026E2,-7.9912854E2,-1.3712656E2,1.7496849E3,-5.0571358E1,1.7083629E3,5.536953E2,9.106716E2,2.1064587E3,4.539599E3,2.6838823E3,4.863703E3,6.8418735E3,-9.39627E1,-1.5470163E1,-6.963657E1,-4.170732E1,-4.3914642E1,2.30566E1,-7.42048E1,-3.7687862E1,-4.48477E1,-1.2484489E1,-9.407816E0,6.2659588E1,8.291913E1,2.552989E2,-6.1350455E0,4.0991947E1,2.0856855E1,1.2778353E2,1.4515758E1,4.3949707E1,5.9934467E1,-1.273455E2,6.651374E1,1.2917589E2,1.7080594E2,3.7001672E2,1.3971419E2,2.5227325E0,2.5413943E2,4.3263447E1,3.5318747E2,1.6319203E2],"categories":[],"categories_nodes":[],"categories_segments":[],"categories_sizes":[],"default_left":[0,0,0,0,0,0,0,0,0,0,0,0,0,0,0,0,0,0,0,0,0,0,0,0,0,0,0,0,0,0,0,0,0,0,0,0,0,0,0,0,0,0,0,0,0,0,0,0,0,0,0,0,0,0,0,0,0,0,0,0,0,0,0],"id":15,"left_children":[1,3,5,7,9,11,13,15,17,19,21,23,25,27,29,31,33,35,37,39,41,43,45,47,49,51,53,55,57,59,61,-1,-1,-1,-1,-1,-1,-1,-1,-1,-1,-1,-1,-1,-1,-1,-1,-1,-1,-1,-1,-1,-1,-1,-1,-1,-1,-1,-1,-1,-1,-1,-1],"loss_changes":[5.9301704E11,9.628708E10,1.993362E11,4.509234E10,5.5900357E10,5.5048405E10,3.7021614E10,7.1539753E9,2.598024E10,2.327033E10,6.0700324E10,1.9325764E10,1.5289205E10,8.135246E9,7.779746E9,4.626055E9,4.2094264E9,9.463404E9,6.1183795E9,6.1968794E9,6.9836795E9,7.7729055E9,4.4809984E9,1.772061E10,1.1815752E10,1.4063384E10,1.6325034E10,9.079919E9,4.1617162E9,6.113575E9,2.1950464E9,0E0,0E0,0E0,0E0,0E0,0E0,0E0,0E0,0E0,0E0,0E0,0E0,0E0,0E0,0E0,0E0,0E0,0E0,0E0,0E0,0E0,0E0,0E0,0E0,0E0,0E0,0E0,0E0,0E0,0E0,0E0,0E0],"parents":[2147483647,0,0,1,1,2,2,3,3,4,4,5,5,6,6,7,7,8,8,9,9,10,10,11,11,12,12,13,13,14,14,15,15,16,16,17,17,18,18,19,19,20,20,21,21,22,22,23,23,24,24,25,25,26,26,27,27,28,28,29,29,30,30],"right_children":[2,4,6,8,10,12,14,16,18,20,22,24,26,28,30,32,34,36,38,40,42,44,46,48,50,52,54,56,58,60,62,-1,-1,-1,-1,-1,-1,-1,-1,-1,-1,-1,-1,-1,-1,-1,-1,-1,-1,-1,-1,-1,-1,-1,-1,-1,-1,-1,-1,-1,-1,-1,-1],"split_conditions":[7.805E3,5.475857E3,1.2549E4,1E0,1E0,1.0611E4,1.6322E4,4.1624287E3,2E0,6.933E3,2E0,2E0,1E0,2E0,2.0625E4,1E0,1E0,3.627E3,3.8684285E3,1E0,1.0418143E4,5E1,2.7E1,1E0,8.362571E3,1E0,8.738857E3,1E0,1E0,5.2E1,1E0,-9.39627E1,-1.5470163E1,-6.963657E1,-4.170732E1,-4.3914642E1,2.30566E1,-7.42048E1,-3.7687862E1,-4.48477E1,-1.2484489E1,-9.407816E0,6.2659588E1,8.291913E1,2.552989E2,-6.1350455E0,4.0991947E1,2.0856855E1,1.2778353E2,1.4515758E1,4.3949707E1,5.9934467E1,-1.273455E2,6.651374E1,1.2917589E2,1.7080594E2,3.7001672E2,1.3971419E2,2.5227325E0,2.5413943E2,4.3263447E1,3.5318747E2,1.6319203E2],"split_indices":[53,55,55,3,3,53,53,55,1,55,1,1,3,1,53,44,17,55,55,17,55,15,13,3,55,43,55,3,43,15,43,0,0,0,0,0,0,0,0,0,0,0,0,0,0,0,0,0,0,0,0,0,0,0,0,0,0,0,0,0,0,0,0],"split_type":[0,0,0,0,0,0,0,0,0,0,0,0,0,0,0,0,0,0,0,0,0,0,0,0,0,0,0,0,0,0,0,0,0,0,0,0,0,0,0,0,0,0,0,0,0,0,0,0,0,0,0,0,0,0,0,0,0,0,0,0,0,0,0],"sum_hessian":[7.85781E5,5.46536E5,2.39245E5,2.36047E5,3.10489E5,2.12323E5,2.6922E4,1.31428E5,1.04619E5,2.13726E5,9.6763E4,1.54109E5,5.8214E4,1.7146E4,9.776E3,3.9654E4,9.1774E4,3.2075E4,7.2544E4,1.15296E5,9.843E4,2.5392E4,7.1371E4,1.6197E4,1.37912E5,1.4118E4,4.4096E4,2.832E3,1.4314E4,6.983E3,2.793E3,3.7678E4,1.976E3,7.5333E4,1.6441E4,6.655E3,2.542E4,1.4284E4,5.826E4,9.787E4,1.7426E4,9.4946E4,3.484E3,2.4721E4,6.71E2,6.591E4,5.461E3,6.418E3,9.779E3,7.621E4,6.1702E4,1.3033E4,1.085E3,1.6787E4,2.7309E4,2.035E3,7.97E2,1.3738E4,5.76E2,6.62E3,3.63E2,2.629E3,1.64E2],"tree_param":{"num_deleted":"0","num_feature":"56","num_nodes":"63","size_leaf_vector":"1"}},{"base_weights":[4.7170673E-2,-3.5034564E2,1.9510938E3,-7.45516E2,3.011621E2,1.5811561E3,4.4633384E3,1.16968975E1,-9.432187E2,1.2195385E3,1.7289383E2,1.3002651E3,2.458946E3,3.9873445E3,6.3652407E3,-7.95793E2,6.605861E2,-1.2553219E3,-5.732815E2,2.3222302E2,1.9542015E3,4.525563E1,7.223568E2,5.394889E2,1.5606079E3,3.9529944E3,2.2205723E3,4.3740005E3,2.640841E3,6.549287E3,3.1038677E3,-5.2024616E1,1.5669835E1,-8.339606E0,6.1726116E1,-7.784351E1,-5.4025616E1,-3.3861263E1,-1.0034816E1,6.7472655E-1,1.9066713E2,7.150768E1,1.5503236E2,-9.495769E0,1.3895912E1,2.7424164E1,9.208169E1,3.5747784E1,-1.23071526E2,4.36981E1,9.722804E1,1.3852054E2,3.047452E2,1.1568395E2,-1.6456406E1,2.1405916E2,5.222344E2,3.510196E1,1.5957368E2,3.0011234E2,4.0922003E2,5.3657E2,-1.0832986E2],"categories":[],"categories_nodes":[],"categories_segments":[],"categories_sizes":[],"default_left":[0,0,0,0,0,0,0,0,0,0,0,0,0,0,0,0,0,0,0,0,0,0,0,0,0,0,0,0,0,0,0,0,0,0,0,0,0,0,0,0,0,0,0,0,0,0,0,0,0,0,0,0,0,0,0,0,0,0,0,0,0,0,0],"id":16,"left_children":[1,3,5,7,9,11,13,15,17,19,21,23,25,27,29,31,33,35,37,39,41,43,45,47,49,51,53,55,57,59,61,-1,-1,-1,-1,-1,-1,-1,-1,-1,-1,-1,-1,-1,-1,-1,-1,-1,-1,-1,-1,-1,-1,-1,-1,-1,-1,-1,-1,-1,-1,-1,-1],"loss_changes":[5.37187E11,1.7150437E11,1.11178514E11,6.2073782E10,2.9626472E10,2.5708675E10,1.3875413E10,4.4982428E10,3.7961925E10,2.2356111E10,1.5476939E10,1.5646712E10,8.994144E9,6.383911E9,1.8236211E9,1.038206E10,2.260318E10,9.399206E9,5.826904E9,1.0301032E10,1.0612761E10,9.798667E9,8.0948756E9,1.0608818E10,1.5516123E10,8.790311E9,5.176672E9,5.3318615E9,2.9260984E9,2.5511035E9,6.6965565E9,0E0,0E0,0E0,0E0,0E0,0E0,0E0,0E0,0E0,0E0,0E0,0E0,0E0,0E0,0E0,0E0,0E0,0E0,0E0,0E0,0E0,0E0,0E0,0E0,0E0,0E0,0E0,0E0,0E0,0E0,0E0,0E0],"parents":[2147483647,0,0,1,1,2,2,3,3,4,4,5,5,6,6,7,7,8,8,9,9,10,10,11,11,12,12,13,13,14,14,15,15,16,16,17,17,18,18,19,19,20,20,21,21,22,22,23,23,24,24,25,25,26,26,27,27,28,28,29,29,30,30],"right_children":[2,4,6,8,10,12,14,16,18,20,22,24,26,28,30,32,34,36,38,40,42,44,46,48,50,52,54,56,58,60,62,-1,-1,-1,-1,-1,-1,-1,-1,-1,-1,-1,-1,-1,-1,-1,-1,-1,-1,-1,-1,-1,-1,-1,-1,-1,-1,-1,-1,-1,-1,-1,-1],"split_conditions":[9.655E3,6.53E3,1.5572E4,2E0,2E0,1.1438857E4,2.0625E4,1E0,5.157E3,1E0,1E0,1E0,2E0,2.26E3,1E0,7.6375713E3,4.637857E3,3.97E3,1E0,5.1E1,7.9384287E3,7.771E3,2.7E1,1E0,8.004E3,1E0,5.2E1,7E0,1E0,4.8E1,1.1E1,-5.2024616E1,1.5669835E1,-8.339606E0,6.1726116E1,-7.784351E1,-5.4025616E1,-3.3861263E1,-1.0034816E1,6.7472655E-1,1.9066713E2,7.150768E1,1.5503236E2,-9.495769E0,1.3895912E1,2.7424164E1,9.208169E1,3.5747784E1,-1.23071526E2,4.36981E1,9.722804E1,1.3852054E2,3.047452E2,1.1568395E2,-1.6456406E1,2.1405916E2,5.222344E2,3.510196E1,1.5957368E2,3.0011234E2,4.0922003E2,5.3657E2,-1.0832986E2],"split_indices":[53,53,53,1,1,55,53,3,53,3,17,3,1,5,43,55,55,53,17,15,55,53,13,43,55,3,15,1,3,15,12,0,0,0,0,0,0,0,0,0,0,0,0,0,0,0,0,0,0,0,0,0,0,0,0,0,0,0,0,0,0,0,0],"split_type":[0,0,0,0,0,0,0,0,0,0,0,0,0,0,0,0,0,0,0,0,0,0,0,0,0,0,0,0,0,0,0,0,0,0,0,0,0,0,0,0,0,0,0,0,0,0,0,0,0,0,0,0,0,0,0,0,0,0,0,0,0,0,0],"sum_hessian":[7.85781E5,6.66147E5,1.19634E5,4.14645E5,2.51502E5,1.0428E5,1.5354E4,8.5847E4,3.28798E5,3.0821E4,2.20681E5,7.9002E4,2.5278E4,1.2283E4,3.071E3,3.8249E4,4.7598E4,1.78338E5,1.5046E5,1.315E4,1.7671E4,1.79082E5,4.1599E4,2.0143E4,5.8859E4,3.476E3,2.1802E4,9.541E3,2.742E3,2.906E3,1.65E2,3.1336E4,6.913E3,1.9495E4,2.8103E4,6.5442E4,1.12896E5,1.1764E5,3.282E4,1.2394E4,7.56E2,1.2129E4,5.542E3,8.9061E4,9.0021E4,3.6007E4,5.592E3,1.9031E4,1.112E3,2.111E4,3.7749E4,2.241E3,1.235E3,2.1034E4,7.68E2,9.399E3,1.42E2,6.07E2,2.135E3,2.181E3,7.25E2,6.7E1,9.8E1],"tree_param":{"num_deleted":"0","num_feature":"56","num_nodes":"63","size_leaf_vector":"1"}},{"base_weights":[4.861921E-2,-4.219333E2,1.4744705E3,-8.363207E2,8.4975044E1,1.0557767E3,3.3925115E3,-1.2259949E3,-4.5103107E2,-3.873087E2,6.004054E2,6.1843463E2,1.7641422E3,2.764247E3,4.913906E3,-1.521598E3,-1.0315452E3,-5.4262695E2,1.5860257E2,2.820554E2,-6.372515E2,1.6542585E3,3.8159982E2,3.548523E2,1.51891E3,3.5109236E3,1.4513331E3,4.5290513E3,2.5684712E3,4.398487E3,6.2116655E3,-7.835942E1,-2.3043753E1,-5.5556E1,-2.5075289E1,-3.9240517E1,-1.9570232E1,-2.411519E0,6.5464714E1,-3.1226212E1,2.8197397E1,-4.9643265E1,-1.805802E1,7.718551E1,2.3655632E2,1.3211031E1,7.749765E1,1.2162496E1,6.753121E1,6.827052E1,1.4534306E2,1.658673E2,4.1621808E2,6.651392E1,1.5019841E2,1.4767674E2,2.9091953E2,1.3416408E2,-1.5812518E1,2.2848033E2,4.5766416E-1,3.039575E2,6.8002606E2],"categories":[],"categories_nodes":[],"categories_segments":[],"categories_sizes":[],"default_left":[0,0,0,0,0,0,0,0,0,0,0,0,0,0,0,0,0,0,0,0,0,0,0,0,0,0,0,0,0,0,0,0,0,0,0,0,0,0,0,0,0,0,0,0,0,0,0,0,0,0,0,0,0,0,0,0,0,0,0,0,0,0,0],"id":17,"left_children":[1,3,5,7,9,11,13,15,17,19,21,23,25,27,29,31,33,35,37,39,41,43,45,47,49,51,53,55,57,59,61,-1,-1,-1,-1,-1,-1,-1,-1,-1,-1,-1,-1,-1,-1,-1,-1,-1,-1,-1,-1,-1,-1,-1,-1,-1,-1,-1,-1,-1,-1,-1,-1],"loss_changes":[4.8889797E11,1.2833047E11,1.4041353E11,5.0467095E10,6.689243E10,4.4461736E10,2.9931864E10,9.604481E9,9.438376E9,2.399106E10,3.0297383E10,2.1061372E10,2.9929914E10,7.649968E9,6.0963717E9,3.2059392E9,4.2514268E9,5.381374E9,5.2548854E9,9.964048E9,1.0250899E10,7.6765225E9,1.4921147E10,7.62834E9,4.2768466E9,7.724761E9,8.729461E9,4.478243E9,6.612517E9,4.9241866E9,2.4630804E9,0E0,0E0,0E0,0E0,0E0,0E0,0E0,0E0,0E0,0E0,0E0,0E0,0E0,0E0,0E0,0E0,0E0,0E0,0E0,0E0,0E0,0E0,0E0,0E0,0E0,0E0,0E0,0E0,0E0,0E0,0E0,0E0],"parents":[2147483647,0,0,1,1,2,2,3,3,4,4,5,5,6,6,7,7,8,8,9,9,10,10,11,11,12,12,13,13,14,14,15,15,16,16,17,17,18,18,19,19,20,20,21,21,22,22,23,23,24,24,25,25,26,26,27,27,28,28,29,29,30,30],"right_children":[2,4,6,8,10,12,14,16,18,20,22,24,26,28,30,32,34,36,38,40,42,44,46,48,50,52,54,56,58,60,62,-1,-1,-1,-1,-1,-1,-1,-1,-1,-1,-1,-1,-1,-1,-1,-1,-1,-1,-1,-1,-1,-1,-1,-1,-1,-1,-1,-1,-1,-1,-1,-1],"split_conditions":[8.362571E3,1E0,1.3094E4,5.9054287E3,5.944857E3,1E0,1.7252E4,4.612143E3,1E0,2E0,2E0,1.0991571E4,2E0,2E0,1.9410285E4,1E0,2.8E1,6.7134287E3,2.8E1,3.8684285E3,4.782143E3,5E1,2.8E1,1E0,1.4302429E4,5E1,2.7E1,1E0,5.2E1,5.2E1,3.3E1,-7.835942E1,-2.3043753E1,-5.5556E1,-2.5075289E1,-3.9240517E1,-1.9570232E1,-2.411519E0,6.5464714E1,-3.1226212E1,2.8197397E1,-4.9643265E1,-1.805802E1,7.718551E1,2.3655632E2,1.3211031E1,7.749765E1,1.2162496E1,6.753121E1,6.827052E1,1.4534306E2,1.658673E2,4.1621808E2,6.651392E1,1.5019841E2,1.4767674E2,2.9091953E2,1.3416408E2,-1.5812518E1,2.2848033E2,4.5766416E-1,3.039575E2,6.8002606E2],"split_indices":[55,3,53,55,55,3,53,55,17,1,1,55,1,1,55,44,13,55,13,55,55,15,13,17,55,15,13,3,15,15,40,0,0,0,0,0,0,0,0,0,0,0,0,0,0,0,0,0,0,0,0,0,0,0,0,0,0,0,0,0,0,0,0],"split_type":[0,0,0,0,0,0,0,0,0,0,0,0,0,0,0,0,0,0,0,0,0,0,0,0,0,0,0,0,0,0,0,0,0,0,0,0,0,0,0,0,0,0,0,0,0,0,0,0,0,0,0,0,0,0,0,0,0,0,0,0,0,0,0],"sum_hessian":[7.85781E5,6.10932E5,1.74849E5,3.36142E5,2.7479E5,1.43521E5,3.1328E4,1.67119E5,1.69023E5,1.43397E5,1.31393E5,8.8737E4,5.4784E4,2.2174E4,9.154E3,6.6309E4,1.0081E5,1.46945E5,2.2078E4,3.8987E4,1.0441E5,2.2589E4,1.08804E5,6.8645E4,2.0092E4,8.319E3,4.6465E4,2.212E3,1.9962E4,6.555E3,2.599E3,6.3576E4,2.733E3,8.765E4,1.316E4,5.6483E4,9.0462E4,1.8715E4,3.363E3,9.247E3,2.974E4,4.5632E4,5.8778E4,2.1807E4,7.82E2,9.8872E4,9.932E3,6.1728E4,6.917E3,1.8093E4,1.999E3,7.999E3,3.2E2,4.3106E4,3.359E3,9.97E2,1.215E3,1.9198E4,7.64E2,6.309E3,2.46E2,2.555E3,4.4E1],"tree_param":{"num_deleted":"0","num_feature":"56","num_nodes":"63","size_leaf_vector":"1"}},{"base_weights":[5.0077405E-2,-3.7913983E2,1.4891064E3,-7.2519806E2,1.5366171E2,1.1601562E3,3.6850435E3,-1.067386E3,-2.886436E2,-1.194323E2,7.2289996E2,8.9373114E2,1.9053638E3,3.0681475E3,5.1796646E3,-1.345829E3,-8.22335E2,3.925229E2,-5.438541E2,-2.8850168E2,4.5822238E2,2.0819358E3,3.4300302E2,1.0515277E3,2.287467E2,9.873913E2,2.1652117E3,2.2492075E3,4.1631367E3,4.428854E3,6.267401E3,-7.220211E1,-4.69458E1,-4.5072586E1,-1.397022E1,-1.3447227E1,3.868487E1,-4.575276E1,-1.3859195E1,-1.9116537E1,1.8583529E1,1.7985973E1,8.298335E1,7.545577E1,1.370261E2,1.3480098E1,6.658819E1,1.9018198E1,6.308553E1,-6.9484315E0,4.7688595E1,6.6809044E1,-1.1304569E2,7.178945E1,1.2929175E2,1.2558673E2,-8.3531E1,3.4410507E2,1.8683453E2,2.050072E2,4.9214957E2,4.3942236E2,2.92065E2],"categories":[],"categories_nodes":[],"categories_segments":[],"categories_sizes":[],"default_left":[0,0,0,0,0,0,0,0,0,0,0,0,0,0,0,0,0,0,0,0,0,0,0,0,0,0,0,0,0,0,0,0,0,0,0,0,0,0,0,0,0,0,0,0,0,0,0,0,0,0,0,0,0,0,0,0,0,0,0,0,0,0,0],"id":18,"left_children":[1,3,5,7,9,11,13,15,17,19,21,23,25,27,29,31,33,35,37,39,41,43,45,47,49,51,53,55,57,59,61,-1,-1,-1,-1,-1,-1,-1,-1,-1,-1,-1,-1,-1,-1,-1,-1,-1,-1,-1,-1,-1,-1,-1,-1,-1,-1,-1,-1,-1,-1,-1,-1],"loss_changes":[4.436807E11,1.1547679E11,1.1520174E11,5.6718754E10,3.8336987E10,2.7538047E10,1.9141984E10,1.4522106E10,2.900382E10,1.6276476E10,4.127902E10,1.0721837E10,8.711479E9,1.3181551E10,4.928684E9,3.9804436E9,4.862886E9,1.1465521E10,1.201376E10,7.986123E9,4.4650644E9,6.5853194E9,4.5347743E9,1.1649409E10,5.2250163E9,9.135929E9,8.73123E9,8.666837E9,7.270965E9,6.3558124E9,2.608431E9,0E0,0E0,0E0,0E0,0E0,0E0,0E0,0E0,0E0,0E0,0E0,0E0,0E0,0E0,0E0,0E0,0E0,0E0,0E0,0E0,0E0,0E0,0E0,0E0,0E0,0E0,0E0,0E0,0E0,0E0,0E0,0E0],"parents":[2147483647,0,0,1,1,2,2,3,3,4,4,5,5,6,6,7,7,8,8,9,9,10,10,11,11,12,12,13,13,14,14,15,15,16,16,17,17,18,18,19,19,20,20,21,21,22,22,23,23,24,24,25,25,26,26,27,27,28,28,29,29,30,30],"right_children":[2,4,6,8,10,12,14,16,18,20,22,24,26,28,30,32,34,36,38,40,42,44,46,48,50,52,54,56,58,60,62,-1,-1,-1,-1,-1,-1,-1,-1,-1,-1,-1,-1,-1,-1,-1,-1,-1,-1,-1,-1,-1,-1,-1,-1,-1,-1,-1,-1,-1,-1,-1,-1],"split_conditions":[8.896E3,6.4564287E3,1.3262857E4,1E0,1E0,1.1689E4,1.7498715E4,5.0757144E3,2E0,8.695857E3,2E0,6E0,1E0,1E0,1E0,1E0,2.8E1,4.4305713E3,5.643E3,1E0,1.1438857E4,1.4E1,2.7E1,7.267143E3,9.592E3,1E0,9.182429E3,1E0,2E0,7E0,2E0,-7.220211E1,-4.69458E1,-4.5072586E1,-1.397022E1,-1.3447227E1,3.868487E1,-4.575276E1,-1.3859195E1,-1.9116537E1,1.8583529E1,1.7985973E1,8.298335E1,7.545577E1,1.370261E2,1.3480098E1,6.658819E1,1.9018198E1,6.308553E1,-6.9484315E0,4.7688595E1,6.6809044E1,-1.1304569E2,7.178945E1,1.2929175E2,1.2558673E2,-8.3531E1,3.4410507E2,1.8683453E2,2.050072E2,4.9214957E2,4.3942236E2,2.92065E2],"split_indices":[53,55,55,3,3,53,55,55,1,55,1,1,3,3,3,17,13,55,53,17,55,13,13,55,54,43,55,43,1,1,1,0,0,0,0,0,0,0,0,0,0,0,0,0,0,0,0,0,0,0,0,0,0,0,0,0,0,0,0,0,0,0,0],"split_type":[0,0,0,0,0,0,0,0,0,0,0,0,0,0,0,0,0,0,0,0,0,0,0,0,0,0,0,0,0,0,0,0,0,0,0,0,0,0,0,0,0,0,0,0,0,0,0,0,0,0,0,0,0,0,0,0,0,0,0,0,0,0,0],"sum_hessian":[7.85781E5,6.26295E5,1.59486E5,3.79686E5,2.46609E5,1.38709E5,2.0777E4,2.12847E5,1.66839E5,1.66656E5,7.9953E4,1.0218E5,3.6529E4,1.4709E4,6.068E3,9.9633E4,1.13214E5,4.5472E4,1.21367E5,1.28923E5,3.7733E4,1.7466E4,6.2487E4,8.2583E4,1.9597E4,8.06E3,2.8469E4,8.417E3,6.292E3,3.593E3,2.475E3,8.0259E4,1.9374E4,9.8814E4,1.44E4,1.6624E4,2.8848E4,5.0738E4,7.0629E4,1.1288E5,1.6043E4,3.4875E4,2.858E3,9.343E3,8.123E3,5.817E4,4.317E3,1.9695E4,6.2888E4,1.3003E4,6.594E3,7.279E3,7.81E2,1.0414E4,1.8055E4,7.889E3,5.28E2,8.51E2,5.441E3,3.389E3,2.04E2,3.55E2,2.12E3],"tree_param":{"num_deleted":"0","num_feature":"56","num_nodes":"63","size_leaf_vector":"1"}},{"base_weights":[5.076714E-2,-3.8249902E2,1.3366953E3,-7.558754E2,7.4241745E1,9.041689E2,2.8545078E3,-1.1080294E3,-4.0768396E2,-3.164237E2,5.845025E2,5.283548E2,1.5478396E3,2.3681313E3,4.495301E3,-1.391971E3,-9.355887E2,-4.8981906E2,2.1894598E2,2.9250812E2,-5.3679034E2,1.5519824E3,3.8676056E2,2.341318E2,1.138142E3,3.2085603E3,1.2376456E3,1.4979779E3,2.7360398E3,3.7373408E3,5.521501E3,-5.9938152E1,-8.5461296E1,-6.178266E1,-3.747801E1,-3.471751E1,-1.653302E1,4.1544715E-1,6.174051E1,-5.3469494E1,2.2829014E1,-4.53748E1,-1.4517819E1,7.219867E1,2.2397945E2,1.3813834E1,7.535347E1,6.4857607E0,5.7671936E1,4.88327E1,9.805369E1,1.5123483E2,3.9672537E2,5.6516552E1,1.3358727E2,9.471412E1,-1.02017845E2,1.1485984E2,1.7761028E2,2.0214671E2,-5.0795074E1,4.0615482E2,2.5349861E2],"categories":[],"categories_nodes":[],"categories_segments":[],"categories_sizes":[],"default_left":[0,0,0,0,0,0,0,0,0,0,0,0,0,0,0,0,0,0,0,0,0,0,0,0,0,0,0,0,0,0,0,0,0,0,0,0,0,0,0,0,0,0,0,0,0,0,0,0,0,0,0,0,0,0,0,0,0,0,0,0,0,0,0],"id":19,"left_children":[1,3,5,7,9,11,13,15,17,19,21,23,25,27,29,31,33,35,37,39,41,43,45,47,49,51,53,55,57,59,61,-1,-1,-1,-1,-1,-1,-1,-1,-1,-1,-1,-1,-1,-1,-1,-1,-1,-1,-1,-1,-1,-1,-1,-1,-1,-1,-1,-1,-1,-1,-1,-1],"loss_changes":[4.0179683E11,1.04186266E11,1.1478539E11,4.1216393E10,5.4777373E10,3.2915792E10,3.093427E10,8.181416E9,8.699486E9,2.0884546E10,2.2795485E10,1.5414036E10,2.583625E10,9.571828E9,6.8747264E9,3.868369E9,5.803188E9,4.864381E9,4.191403E9,9.241691E9,1.0439631E10,6.3875727E9,1.224562E10,5.562907E9,3.714052E9,6.835331E9,6.502015E9,1.2471337E10,7.5212554E9,7.4150625E9,4.380377E9,0E0,0E0,0E0,0E0,0E0,0E0,0E0,0E0,0E0,0E0,0E0,0E0,0E0,0E0,0E0,0E0,0E0,0E0,0E0,0E0,0E0,0E0,0E0,0E0,0E0,0E0,0E0,0E0,0E0,0E0,0E0,0E0],"parents":[2147483647,0,0,1,1,2,2,3,3,4,4,5,5,6,6,7,7,8,8,9,9,10,10,11,11,12,12,13,13,14,14,15,15,16,16,17,17,18,18,19,19,20,20,21,21,22,22,23,23,24,24,25,25,26,26,27,27,28,28,29,29,30,30],"right_children":[2,4,6,8,10,12,14,16,18,20,22,24,26,28,30,32,34,36,38,40,42,44,46,48,50,52,54,56,58,60,62,-1,-1,-1,-1,-1,-1,-1,-1,-1,-1,-1,-1,-1,-1,-1,-1,-1,-1,-1,-1,-1,-1,-1,-1,-1,-1,-1,-1,-1,-1,-1,-1],"split_conditions":[8.362571E3,1E0,1.2392E4,5.9054287E3,6.1272856E3,1E0,1.6074429E4,4.868E3,2.8E1,2E0,2E0,1.0322143E4,2E0,1E0,1E0,6E0,4.246E3,6.821E3,1E0,3.3737144E3,4.782143E3,5E1,2.8E1,1E0,1.2873429E4,5E1,2.7E1,1E0,1.2266714E4,1E0,2E0,-5.9938152E1,-8.5461296E1,-6.178266E1,-3.747801E1,-3.471751E1,-1.653302E1,4.1544715E-1,6.174051E1,-5.3469494E1,2.2829014E1,-4.53748E1,-1.4517819E1,7.219867E1,2.2397945E2,1.3813834E1,7.535347E1,6.4857607E0,5.7671936E1,4.88327E1,9.805369E1,1.5123483E2,3.9672537E2,5.6516552E1,1.3358727E2,9.471412E1,-1.02017845E2,1.1485984E2,1.7761028E2,2.0214671E2,-5.0795074E1,4.0615482E2,2.5349861E2],"split_indices":[55,3,53,55,55,3,55,54,13,1,1,55,1,3,3,1,53,55,17,55,55,15,13,17,55,15,13,43,55,43,1,0,0,0,0,0,0,0,0,0,0,0,0,0,0,0,0,0,0,0,0,0,0,0,0,0,0,0,0,0,0,0,0],"split_type":[0,0,0,0,0,0,0,0,0,0,0,0,0,0,0,0,0,0,0,0,0,0,0,0,0,0,0,0,0,0,0,0,0,0,0,0,0,0,0,0,0,0,0,0,0,0,0,0,0,0,0,0,0,0,0,0,0,0,0,0,0,0,0],"sum_hessian":[7.85781E5,6.10932E5,1.74849E5,3.36142E5,2.7479E5,1.36074E5,3.8775E4,1.67119E5,1.69023E5,1.55634E5,1.19156E5,8.5914E4,5.016E4,2.9911E4,8.864E3,6.3142E4,1.03977E5,1.49436E5,1.9587E4,4.1356E4,1.14278E5,2.022E4,9.8936E4,5.7953E4,2.7961E4,7.893E3,4.2267E4,8.89E3,2.1021E4,5.101E3,3.763E3,3.9246E4,2.3896E4,3.979E4,6.4187E4,6.5395E4,8.4041E4,1.6224E4,3.363E3,4.446E3,3.691E4,4.5632E4,6.8646E4,1.9502E4,7.18E2,9.0056E4,8.88E3,5.2043E4,5.91E3,2.3376E4,4.585E3,7.599E3,2.94E2,3.9326E4,2.941E3,7.995E3,8.95E2,1.3673E4,7.348E3,4.793E3,3.08E2,5.54E2,3.209E3],"tree_param":{"num_deleted":"0","num_feature":"56","num_nodes":"63","size_leaf_vector":"1"}},{"base_weights":[5.0904743E-2,-2.8028073E2,1.6611437E3,-6.385125E2,2.2703731E2,1.3505804E3,3.729468E3,-9.5555115E2,-2.4528818E2,-4.7653374E1,7.2456757E2,1.0931357E3,1.9622186E3,3.2906453E3,5.442533E3,-1.265053E3,-7.65953E2,3.639789E2,-4.6341656E2,-2.1060254E2,5.864718E2,1.9698315E3,4.2394846E2,2.056228E3,1.00223615E3,1.0441481E3,2.2262585E3,2.5714304E3,4.279356E3,5.2768174E3,1.0966689E4,-8.012981E1,-5.784071E1,-4.24841E1,-1.603018E1,-2.318688E1,3.1356222E1,-4.1259857E1,-1.0815335E1,-1.5075853E1,2.2595842E1,2.6120886E1,1.0947051E2,9.303638E1,2.6994812E2,1.7217659E1,6.884558E1,8.545504E1,2.7185913E2,4.408549E1,8.696298E1,7.0260414E1,-9.726568E1,7.823771E1,1.3501439E2,1.4206387E2,-8.141023E1,3.4508502E2,1.8974467E2,2.1877713E2,3.270242E2,5.630734E2,-5.2047024E1],"categories":[],"categories_nodes":[],"categories_segments":[],"categories_sizes":[],"default_left":[0,0,0,0,0,0,0,0,0,0,0,0,0,0,0,0,0,0,0,0,0,0,0,0,0,0,0,0,0,0,0,0,0,0,0,0,0,0,0,0,0,0,0,0,0,0,0,0,0,0,0,0,0,0,0,0,0,0,0,0,0,0,0],"id":20,"left_children":[1,3,5,7,9,11,13,15,17,19,21,23,25,27,29,31,33,35,37,39,41,43,45,47,49,51,53,55,57,59,61,-1,-1,-1,-1,-1,-1,-1,-1,-1,-1,-1,-1,-1,-1,-1,-1,-1,-1,-1,-1,-1,-1,-1,-1,-1,-1,-1,-1,-1,-1,-1,-1],"loss_changes":[3.659052E11,1.2218586E11,7.287741E10,4.912641E10,3.8028833E10,1.5531885E10,1.1116741E10,1.280118E10,2.337674E10,1.8525055E10,3.7052723E10,6.0762604E9,7.081296E9,8.3756564E9,2.7058422E9,3.026002E9,5.04456E9,1.0100789E10,1.1579388E10,8.591057E9,3.7619896E9,7.1912407E9,6.0474583E9,7.017177E9,5.6343347E9,7.0499773E9,7.111983E9,7.7447864E9,6.281478E9,3.3118044E9,3.196672E8,0E0,0E0,0E0,0E0,0E0,0E0,0E0,0E0,0E0,0E0,0E0,0E0,0E0,0E0,0E0,0E0,0E0,0E0,0E0,0E0,0E0,0E0,0E0,0E0,0E0,0E0,0E0,0E0,0E0,0E0,0E0,0E0],"parents":[2147483647,0,0,1,1,2,2,3,3,4,4,5,5,6,6,7,7,8,8,9,9,10,10,11,11,12,12,13,13,14,14,15,15,16,16,17,17,18,18,19,19,20,20,21,21,22,22,23,23,24,24,25,25,26,26,27,27,28,28,29,29,30,30],"right_children":[2,4,6,8,10,12,14,16,18,20,22,24,26,28,30,32,34,36,38,40,42,44,46,48,50,52,54,56,58,60,62,-1,-1,-1,-1,-1,-1,-1,-1,-1,-1,-1,-1,-1,-1,-1,-1,-1,-1,-1,-1,-1,-1,-1,-1,-1,-1,-1,-1,-1,-1,-1,-1],"split_conditions":[9.795E3,6.5204287E3,1.4302429E4,1E0,1E0,1.2392E4,1.9410285E4,4.8517144E3,2E0,9.128429E3,2E0,2E0,1E0,1E0,3.3E1,3.682E3,1E0,4.0232856E3,5.69E3,1E0,1.2873429E4,5E1,2.7E1,5.1E1,1E0,1E0,9.977143E3,1E0,2E0,1E0,2.64E2,-8.012981E1,-5.784071E1,-4.24841E1,-1.603018E1,-2.318688E1,3.1356222E1,-4.1259857E1,-1.0815335E1,-1.5075853E1,2.2595842E1,2.6120886E1,1.0947051E2,9.303638E1,2.6994812E2,1.7217659E1,6.884558E1,8.545504E1,2.7185913E2,4.408549E1,8.696298E1,7.0260414E1,-9.726568E1,7.823771E1,1.3501439E2,1.4206387E2,-8.141023E1,3.4508502E2,1.8974467E2,2.1877713E2,3.270242E2,5.630734E2,-5.2047024E1],"split_indices":[53,55,55,3,3,53,55,55,1,55,1,1,3,3,40,55,17,55,53,17,55,15,13,15,17,43,55,43,1,3,0,0,0,0,0,0,0,0,0,0,0,0,0,0,0,0,0,0,0,0,0,0,0,0,0,0,0,0,0,0,0,0,0],"split_type":[0,0,0,0,0,0,0,0,0,0,0,0,0,0,0,0,0,0,0,0,0,0,0,0,0,0,0,0,0,0,0,0,0,0,0,0,0,0,0,0,0,0,0,0,0,0,0,0,0,0,0,0,0,0,0,0,0,0,0,0,0,0,0],"sum_hessian":[7.85781E5,6.72319E5,1.13462E5,3.94061E5,2.78258E5,9.8651E4,1.4811E4,2.18164E5,1.75897E5,1.79278E5,9.898E4,6.943E4,2.9221E4,1.1793E4,3.018E3,8.2874E4,1.3529E5,4.6372E4,1.29525E5,1.42628E5,3.665E4,1.9247E4,7.9733E4,5.986E3,6.3444E4,6.528E3,2.2693E4,6.829E3,4.964E3,2.932E3,8.6E1,2.0119E4,6.2755E4,1.13879E5,2.1411E4,1.1186E4,3.5186E4,5.2565E4,7.696E4,1.25418E5,1.721E4,3.5243E4,1.407E3,1.8655E4,5.92E2,7.3588E4,6.145E3,5.43E3,5.56E2,5.4529E4,8.915E3,5.825E3,7.03E2,9.475E3,1.3218E4,6.417E3,4.12E2,7.72E2,4.192E3,1.714E3,1.218E3,8.4E1,2E0],"tree_param":{"num_deleted":"0","num_feature":"56","num_nodes":"63","size_leaf_vector":"1"}},{"base_weights":[5.168459E-2,-3.7536783E2,1.1280455E3,-7.072071E2,3.0140528E1,8.277372E2,2.8454534E3,-1.1131711E3,-4.7445532E2,-4.6725302E2,3.3446735E2,4.492174E2,1.4160815E3,2.4158323E3,4.469571E3,-1.3708218E3,-9.754902E2,-5.4998706E2,8.276569E1,5.582104E1,-6.848477E2,1.1264698E3,1.5365385E2,1.6865112E2,1.0809641E3,2.867605E3,1.1590719E3,1.9759987E3,3.0531926E3,4.768798E3,3.0861094E3,-1.5304819E1,-7.308493E1,-5.279214E1,-2.4692036E1,-3.622349E1,-1.766585E1,-5.603952E0,4.840109E1,-6.0142506E1,1.0711815E1,-6.772228E1,-2.9507654E1,5.075913E1,1.742689E2,4.064363E0,7.804161E1,3.6355748E0,5.0310303E1,4.2860638E1,8.839062E1,1.3496877E2,3.5117822E2,5.241559E1,1.2549451E2,4.395973E1,1.1220764E2,1.6027223E2,-3.9729867E0,2.3578125E2,6.33074E2,1.7695288E2,-5.9618435E1],"categories":[],"categories_nodes":[],"categories_segments":[],"categories_sizes":[],"default_left":[0,0,0,0,0,0,0,0,0,0,0,0,0,0,0,0,0,0,0,0,0,0,0,0,0,0,0,0,0,0,0,0,0,0,0,0,0,0,0,0,0,0,0,0,0,0,0,0,0,0,0,0,0,0,0,0,0,0,0,0,0,0,0],"id":21,"left_children":[1,3,5,7,9,11,13,15,17,19,21,23,25,27,29,31,33,35,37,39,41,43,45,47,49,51,53,55,57,59,61,-1,-1,-1,-1,-1,-1,-1,-1,-1,-1,-1,-1,-1,-1,-1,-1,-1,-1,-1,-1,-1,-1,-1,-1,-1,-1,-1,-1,-1,-1,-1,-1],"loss_changes":[3.3275625E11,7.933386E10,1.0119797E11,3.0635983E10,4.016336E10,3.7193826E10,2.0366442E10,4.1899295E9,8.673632E9,1.1463574E10,2.3573332E10,1.801377E10,2.4388911E10,6.4688046E9,2.5138053E9,3.980804E9,2.9797908E9,6.2274355E9,4.2434734E9,5.900288E9,4.509303E9,8.028414E9,1.3647389E10,5.655131E9,4.8018555E9,6.8572365E9,8.3087196E9,4.0182497E9,4.4974326E9,2.0470825E9,2.1146245E9,0E0,0E0,0E0,0E0,0E0,0E0,0E0,0E0,0E0,0E0,0E0,0E0,0E0,0E0,0E0,0E0,0E0,0E0,0E0,0E0,0E0,0E0,0E0,0E0,0E0,0E0,0E0,0E0,0E0,0E0,0E0,0E0],"parents":[2147483647,0,0,1,1,2,2,3,3,4,4,5,5,6,6,7,7,8,8,9,9,10,10,11,11,12,12,13,13,14,14,15,15,16,16,17,17,18,18,19,19,20,20,21,21,22,22,23,23,24,24,25,25,26,26,27,27,28,28,29,29,30,30],"right_children":[2,4,6,8,10,12,14,16,18,20,22,24,26,28,30,32,34,36,38,40,42,44,46,48,50,52,54,56,58,60,62,-1,-1,-1,-1,-1,-1,-1,-1,-1,-1,-1,-1,-1,-1,-1,-1,-1,-1,-1,-1,-1,-1,-1,-1,-1,-1,-1,-1,-1,-1,-1,-1],"split_conditions":[8.1072856E3,1E0,1.3385E4,5.3102856E3,5.3102856E3,1E0,1.8563E4,4.463E3,2.8E1,2E0,2E0,1.0322143E4,2E0,1.3732E4,1.54E3,2E0,2.8E1,6.6464287E3,1E0,3.20475E3,3.5721428E3,3E1,3E1,1E0,1.2549E4,5E1,2.7E1,1E0,1E0,7E0,1E0,-1.5304819E1,-7.308493E1,-5.279214E1,-2.4692036E1,-3.622349E1,-1.766585E1,-5.603952E0,4.840109E1,-6.0142506E1,1.0711815E1,-6.772228E1,-2.9507654E1,5.075913E1,1.742689E2,4.064363E0,7.804161E1,3.6355748E0,5.0310303E1,4.2860638E1,8.839062E1,1.3496877E2,3.5117822E2,5.241559E1,1.2549451E2,4.395973E1,1.1220764E2,1.6027223E2,-3.9729867E0,2.3578125E2,6.33074E2,1.7695288E2,-5.9618435E1],"split_indices":[55,3,53,55,55,3,53,54,13,1,1,55,1,55,5,15,13,55,17,55,55,13,13,17,55,15,13,3,43,1,43,0,0,0,0,0,0,0,0,0,0,0,0,0,0,0,0,0,0,0,0,0,0,0,0,0,0,0,0,0,0,0,0],"split_type":[0,0,0,0,0,0,0,0,0,0,0,0,0,0,0,0,0,0,0,0,0,0,0,0,0,0,0,0,0,0,0,0,0,0,0,0,0,0,0,0,0,0,0,0,0,0,0,0,0,0,0,0,0,0,0,0,0,0,0,0,0,0,0],"sum_hessian":[7.85781E5,5.89563E5,1.96218E5,3.24233E5,2.6533E5,1.67015E5,2.9203E4,1.18151E5,2.06082E5,1.00717E5,1.64613E5,1.01631E5,6.5384E4,2.3096E4,6.107E3,4.1145E4,7.7006E4,1.81482E5,2.46E4,2.9589E4,7.1128E4,3.0595E4,1.34018E5,7.0377E4,3.1254E4,9.834E3,5.555E4,1.3668E4,9.428E3,5.019E3,1.088E3,3.236E3,3.7909E4,6.5995E4,1.1011E4,9.6164E4,8.5318E4,2.0163E4,4.437E3,3.307E3,2.6282E4,8.811E3,6.2317E4,2.9218E4,1.377E3,1.27464E5,6.554E3,6.3145E4,7.232E3,2.3576E4,7.678E3,9.453E3,3.81E2,5.1342E4,4.208E3,2.686E3,1.0982E4,8.991E3,4.37E2,4.987E3,3.2E1,9.84E2,1.04E2],"tree_param":{"num_deleted":"0","num_feature":"56","num_nodes":"63","size_leaf_vector":"1"}},{"base_weights":[5.180568E-2,-4.4550296E2,8.6667725E2,-8.193439E2,-2.2152579E2,6.2624493E2,2.5740305E3,-1.0823049E3,-4.912487E2,-4.1203976E2,2.049575E2,4.0279187E2,1.1689702E3,1.9953478E3,3.8655063E3,-1.1714792E3,-7.072742E2,1.8297932E1,-7.311131E2,-5.962141E2,-1.1480838E2,1.1374866E3,-1.5253197E2,5.283091E2,-9.020972E1,4.8949216E2,1.3887822E3,3.236784E3,1.7539305E3,3.43719E3,4.962053E3,-4.6228077E1,-6.6286835E1,-4.212402E1,-1.3612713E0,-5.7196064E1,8.79629E0,-6.6404686E1,-3.1955708E1,-3.3932404E1,-8.932146E0,-6.991113E0,9.323793E1,5.329597E1,1.9437218E2,-1.0707432E1,2.853067E1,7.7805743E0,3.476295E1,2.3975363E1,-3.2535534E1,3.457186E1,-1.21494995E2,4.8096157E1,8.844923E1,1.16979E2,2.6798492E2,7.62453E1,1.3424272E2,1.7957936E2,2.5302517E1,2.56889E2,1.030356E2],"categories":[],"categories_nodes":[],"categories_segments":[],"categories_sizes":[],"default_left":[0,0,0,0,0,0,0,0,0,0,0,0,0,0,0,0,0,0,0,0,0,0,0,0,0,0,0,0,0,0,0,0,0,0,0,0,0,0,0,0,0,0,0,0,0,0,0,0,0,0,0,0,0,0,0,0,0,0,0,0,0,0,0],"id":22,"left_children":[1,3,5,7,9,11,13,15,17,19,21,23,25,27,29,31,33,35,37,39,41,43,45,47,49,51,53,55,57,59,61,-1,-1,-1,-1,-1,-1,-1,-1,-1,-1,-1,-1,-1,-1,-1,-1,-1,-1,-1,-1,-1,-1,-1,-1,-1,-1,-1,-1,-1,-1,-1,-1],"loss_changes":[3.0341366E11,4.3453964E10,1.0952671E11,1.6774586E10,2.6368807E10,2.8363129E10,2.4606409E10,3.6086907E9,1.057296E10,1.228007E10,3.3406783E10,1.0251862E10,1.018699E10,6.811394E9,4.7688745E9,3.319931E9,1.9065856E9,5.072774E9,3.22953E9,4.7674737E9,4.249928E9,5.461172E9,3.2278904E9,8.216412E9,1.0736401E10,9.831948E9,8.362377E9,7.0386156E9,4.0563835E9,3.3159004E9,1.4475674E9,0E0,0E0,0E0,0E0,0E0,0E0,0E0,0E0,0E0,0E0,0E0,0E0,0E0,0E0,0E0,0E0,0E0,0E0,0E0,0E0,0E0,0E0,0E0,0E0,0E0,0E0,0E0,0E0,0E0,0E0,0E0,0E0],"parents":[2147483647,0,0,1,1,2,2,3,3,4,4,5,5,6,6,7,7,8,8,9,9,10,10,11,11,12,12,13,13,14,14,15,15,16,16,17,17,18,18,19,19,20,20,21,21,22,22,23,23,24,24,25,25,26,26,27,27,28,28,29,29,30,30],"right_children":[2,4,6,8,10,12,14,16,18,20,22,24,26,28,30,32,34,36,38,40,42,44,46,48,50,52,54,56,58,60,62,-1,-1,-1,-1,-1,-1,-1,-1,-1,-1,-1,-1,-1,-1,-1,-1,-1,-1,-1,-1,-1,-1,-1,-1,-1,-1,-1,-1,-1,-1,-1,-1],"split_conditions":[7.508E3,5.182857E3,1.2025E4,1E0,1E0,1.0171E4,1.6322E4,1E0,2E0,6.9567144E3,2E0,6E0,1E0,2E0,2.0625E4,1E0,2.8E1,3.20475E3,3.5088572E3,2.7E1,1.1438857E4,5E1,2.7E1,7.0722856E3,1E0,1E0,8.926E3,1E0,1E0,5.2E1,1E0,-4.6228077E1,-6.6286835E1,-4.212402E1,-1.3612713E0,-5.7196064E1,8.79629E0,-6.6404686E1,-3.1955708E1,-3.3932404E1,-8.932146E0,-6.991113E0,9.323793E1,5.329597E1,1.9437218E2,-1.0707432E1,2.853067E1,7.7805743E0,3.476295E1,2.3975363E1,-3.2535534E1,3.457186E1,-1.21494995E2,4.8096157E1,8.844923E1,1.16979E2,2.6798492E2,7.62453E1,1.3424272E2,1.7957936E2,2.5302517E1,2.56889E2,1.030356E2],"split_indices":[53,55,55,3,3,53,53,17,1,55,1,1,3,1,53,23,13,55,55,13,55,15,13,55,23,43,55,3,17,15,43,0,0,0,0,0,0,0,0,0,0,0,0,0,0,0,0,0,0,0,0,0,0,0,0,0,0,0,0,0,0,0,0],"split_type":[0,0,0,0,0,0,0,0,0,0,0,0,0,0,0,0,0,0,0,0,0,0,0,0,0,0,0,0,0,0,0,0,0,0,0,0,0,0,0,0,0,0,0,0,0,0,0,0,0,0,0,0,0,0,0,0,0,0,0,0,0,0,0],"sum_hessian":[7.85781E5,5.18967E5,2.66814E5,1.94434E5,3.24533E5,2.3388E5,3.2934E4,1.07929E5,8.6505E4,2.24325E5,1.00208E5,1.65671E5,6.8209E4,2.2745E4,1.0189E4,8.7194E4,2.0735E4,2.7688E4,5.8817E4,1.38503E5,8.5822E4,2.7769E4,7.2439E4,1.32051E5,3.362E4,1.6673E4,5.1536E4,3.701E3,1.9044E4,7.33E3,2.859E3,3.353E4,5.3664E4,1.7296E4,3.439E3,3.306E3,2.4382E4,7.852E3,5.0965E4,1.15668E5,2.2835E4,8.4752E4,1.07E3,2.7066E4,7.03E2,6.6752E4,5.687E3,4.0853E4,9.1198E4,1.6673E4,1.6947E4,1.5595E4,1.078E3,2.428E4,2.7256E4,2.603E3,1.098E3,1.5286E4,3.758E3,6.963E3,3.67E2,2.695E3,1.64E2],"tree_param":{"num_deleted":"0","num_feature":"56","num_nodes":"63","size_leaf_vector":"1"}},{"base_weights":[5.0825056E-2,-2.950243E2,1.1878015E3,-5.520142E2,1.9179913E2,9.061867E2,2.8060208E3,-3.5007927E1,-6.828615E2,9.552021E1,8.4046063E2,5.515613E2,1.4642218E3,2.3613542E3,4.0513853E3,-6.2610986E2,4.738651E2,-9.125112E2,-4.062276E2,-2.4876935E2,2.589582E2,9.346009E2,-1.7912917E3,3.1963794E2,1.2243314E3,2.9715164E3,1.2080948E3,3.9395427E3,2.177975E3,3.456916E3,4.641031E3,-3.307832E1,1.0374037E2,-9.793618E0,4.2467285E1,-5.8815804E1,-3.973686E1,-2.3984068E1,1.0343121E0,-3.225755E1,1.8192343E0,-3.1274211E0,2.6032495E1,5.9416786E1,6.6868134E0,3.5209316E1,-1.4406682E2,1.1367492E1,5.8067165E1,5.8713055E1,2.610664E2,1.400702E2,3.6002914E2,5.4963345E1,1.2933179E2,1.1282067E2,2.6285403E2,1.1419712E2,-1.5948871E1,1.6996729E2,5.599995E2,2.3961906E2,9.791506E1],"categories":[],"categories_nodes":[],"categories_segments":[],"categories_sizes":[],"default_left":[0,0,0,0,0,0,0,0,0,0,0,0,0,0,0,0,0,0,0,0,0,0,0,0,0,0,0,0,0,0,0,0,0,0,0,0,0,0,0,0,0,0,0,0,0,0,0,0,0,0,0,0,0,0,0,0,0,0,0,0,0,0,0],"id":23,"left_children":[1,3,5,7,9,11,13,15,17,19,21,23,25,27,29,31,33,35,37,39,41,43,45,47,49,51,53,55,57,59,61,-1,-1,-1,-1,-1,-1,-1,-1,-1,-1,-1,-1,-1,-1,-1,-1,-1,-1,-1,-1,-1,-1,-1,-1,-1,-1,-1,-1,-1,-1,-1,-1],"loss_changes":[2.7539784E11,7.8745534E10,7.125616E10,2.7868004E10,1.3581198E10,2.6356621E10,1.2825756E10,2.5027414E10,2.0884685E10,1.0655408E10,6.9650473E9,1.2706626E10,1.9975725E10,4.935074E9,2.1211136E9,3.687555E9,1.1244046E10,5.579997E9,4.6762394E9,6.889869E9,1.0803549E10,5.51407E9,2.6433265E9,4.7042324E9,4.1720054E9,5.3869527E9,6.6337587E9,3.928789E9,4.0506245E9,1.3170729E9,1.2322652E9,0E0,0E0,0E0,0E0,0E0,0E0,0E0,0E0,0E0,0E0,0E0,0E0,0E0,0E0,0E0,0E0,0E0,0E0,0E0,0E0,0E0,0E0,0E0,0E0,0E0,0E0,0E0,0E0,0E0,0E0,0E0,0E0],"parents":[2147483647,0,0,1,1,2,2,3,3,4,4,5,5,6,6,7,7,8,8,9,9,10,10,11,11,12,12,13,13,14,14,15,15,16,16,17,17,18,18,19,19,20,20,21,21,22,22,23,23,24,24,25,25,26,26,27,27,28,28,29,29,30,30],"right_children":[2,4,6,8,10,12,14,16,18,20,22,24,26,28,30,32,34,36,38,40,42,44,46,48,50,52,54,56,58,60,62,-1,-1,-1,-1,-1,-1,-1,-1,-1,-1,-1,-1,-1,-1,-1,-1,-1,-1,-1,-1,-1,-1,-1,-1,-1,-1,-1,-1,-1,-1,-1,-1],"split_conditions":[8.607857E3,6.582E3,1.4069E4,2E0,2.8E1,1E0,1.8563E4,1.1666675E-2,5.18E3,1E0,1.2E1,1.1127429E4,2E0,2E0,2.0625E4,5.1E1,4.4574287E3,3.835E3,2.7E1,7.228E3,6.7574287E3,6E0,3.1E1,1E0,1.7498715E4,5E1,2.7E1,1E0,5.2E1,7E0,1E0,-3.307832E1,1.0374037E2,-9.793618E0,4.2467285E1,-5.8815804E1,-3.973686E1,-2.3984068E1,1.0343121E0,-3.225755E1,1.8192343E0,-3.1274211E0,2.6032495E1,5.9416786E1,6.6868134E0,3.5209316E1,-1.4406682E2,1.1367492E1,5.8067165E1,5.8713055E1,2.610664E2,1.400702E2,3.6002914E2,5.4963345E1,1.2933179E2,1.1282067E2,2.6285403E2,1.1419712E2,-1.5948871E1,1.6996729E2,5.599995E2,2.3961906E2,9.791506E1],"split_indices":[55,53,53,1,13,3,53,50,53,3,12,55,1,1,53,15,55,53,13,54,55,1,13,17,55,15,13,3,15,1,43,0,0,0,0,0,0,0,0,0,0,0,0,0,0,0,0,0,0,0,0,0,0,0,0,0,0,0,0,0,0,0,0],"split_type":[0,0,0,0,0,0,0,0,0,0,0,0,0,0,0,0,0,0,0,0,0,0,0,0,0,0,0,0,0,0,0,0,0,0,0,0,0,0,0,0,0,0,0,0,0,0,0,0,0,0,0,0,0,0,0,0,0,0,0,0,0,0,0],"sum_hessian":[7.85781E5,6.29415E5,1.56366E5,4.1195E5,2.17465E5,1.33189E5,2.3177E4,8.3202E4,3.28748E5,1.8936E5,2.8105E4,8.1438E4,5.1751E4,1.7081E4,6.096E3,3.8491E4,4.4711E4,1.79627E5,1.49121E5,6.0955E4,1.28405E5,2.7135E4,9.7E2,6.0562E4,2.0876E4,7.515E3,4.4236E4,1.776E3,1.5305E4,3.039E3,3.057E3,3.7993E4,4.98E2,1.6062E4,2.8649E4,5.5439E4,1.24188E5,1.2723E5,2.1891E4,2.5503E4,3.5452E4,5.7618E4,7.0787E4,2.0606E4,6.529E3,2.95E2,6.75E2,5.4579E4,5.983E3,2.0619E4,2.57E2,7.226E3,2.89E2,4.1001E4,3.235E3,7.81E2,9.95E2,1.4682E4,6.23E2,3.018E3,2.1E1,2.893E3,1.64E2],"tree_param":{"num_deleted":"0","num_feature":"56","num_nodes":"63","size_leaf_vector":"1"}},{"base_weights":[5.147125E-2,-2.494258E2,1.2720416E3,-5.316566E2,1.6872722E2,1.01083154E3,2.9118064E3,-7.8488043E2,-2.1441118E2,-4.8369442E1,5.8135724E2,7.681757E2,1.4651501E3,2.5730618E3,4.5567026E3,-1.0430192E3,-6.256794E2,2.8551965E2,-3.957973E2,-1.6956335E2,4.72881E2,1.6642961E3,3.0687384E2,8.9267206E2,2.3273701E2,7.561866E2,1.6801611E3,1.9471357E3,3.4206003E3,4.400961E3,9.760178E3,-4.3107403E1,-6.686037E1,-4.7282017E1,-2.2574968E1,9.625053E0,9.768289E1,-3.8407894E1,-1.1547461E1,-1.25527525E1,2.099133E1,2.0741217E1,1.1008154E2,5.601642E1,1.14611046E2,1.2071829E1,5.6160736E1,3.410793E1,6.575266E1,2.2035051E1,-5.1165276E1,5.2478615E1,-1.0084397E2,7.8426445E1,1.7205783E2,1.0909734E2,-8.559532E1,2.8679855E2,1.5106854E2,1.7936488E2,2.772044E2,5.018103E2,-6.5700226E1],"categories":[],"categories_nodes":[],"categories_segments":[],"categories_sizes":[],"default_left":[0,0,0,0,0,0,0,0,0,0,0,0,0,0,0,0,0,0,0,0,0,0,0,0,0,0,0,0,0,0,0,0,0,0,0,0,0,0,0,0,0,0,0,0,0,0,0,0,0,0,0,0,0,0,0,0,0,0,0,0,0,0,0],"id":24,"left_children":[1,3,5,7,9,11,13,15,17,19,21,23,25,27,29,31,33,35,37,39,41,43,45,47,49,51,53,55,57,59,61,-1,-1,-1,-1,-1,-1,-1,-1,-1,-1,-1,-1,-1,-1,-1,-1,-1,-1,-1,-1,-1,-1,-1,-1,-1,-1,-1,-1,-1,-1,-1,-1],"loss_changes":[2.4935458E11,7.752896E10,5.518477E10,3.1507988E10,2.3714163E10,1.2251619E10,9.852944E9,8.96299E9,1.5787592E10,1.0958087E10,2.7127298E10,4.8293233E9,5.897044E9,7.782621E9,2.4060764E9,4.4260393E9,7.5184415E9,7.191809E9,7.841491E9,6.759901E9,3.2833485E9,6.3007826E9,3.8891756E9,5.225816E9,3.5709527E9,7.3292006E9,5.8309755E9,7.262118E9,5.7469993E9,2.7109458E9,2.7912806E8,0E0,0E0,0E0,0E0,0E0,0E0,0E0,0E0,0E0,0E0,0E0,0E0,0E0,0E0,0E0,0E0,0E0,0E0,0E0,0E0,0E0,0E0,0E0,0E0,0E0,0E0,0E0,0E0,0E0,0E0,0E0,0E0],"parents":[2147483647,0,0,1,1,2,2,3,3,4,4,5,5,6,6,7,7,8,8,9,9,10,10,11,11,12,12,13,13,14,14,15,15,16,16,17,17,18,18,19,19,20,20,21,21,22,22,23,23,24,24,25,25,26,26,27,27,28,28,29,29,30,30],"right_children":[2,4,6,8,10,12,14,16,18,20,22,24,26,28,30,32,34,36,38,40,42,44,46,48,50,52,54,56,58,60,62,-1,-1,-1,-1,-1,-1,-1,-1,-1,-1,-1,-1,-1,-1,-1,-1,-1,-1,-1,-1,-1,-1,-1,-1,-1,-1,-1,-1,-1,-1,-1,-1],"split_conditions":[9.459E3,6.5204287E3,1.3732E4,1E0,1E0,1.1689E4,1.9410285E4,5.155E3,2E0,9.128429E3,2E0,6E0,1E0,1E0,3.3E1,6E0,4E0,3E1,4.637857E3,1E0,1E0,1.4E1,2.7E1,4E0,1.362E4,1E0,3E1,1E0,2E0,1E0,2.64E2,-4.3107403E1,-6.686037E1,-4.7282017E1,-2.2574968E1,9.625053E0,9.768289E1,-3.8407894E1,-1.1547461E1,-1.25527525E1,2.099133E1,2.0741217E1,1.1008154E2,5.601642E1,1.14611046E2,1.2071829E1,5.6160736E1,3.410793E1,6.575266E1,2.2035051E1,-5.1165276E1,5.2478615E1,-1.0084397E2,7.8426445E1,1.7205783E2,1.0909734E2,-8.559532E1,2.8679855E2,1.5106854E2,1.7936488E2,2.772044E2,5.018103E2,-6.5700226E1],"split_indices":[53,55,55,3,3,53,55,54,1,55,1,1,3,3,40,1,1,13,55,17,24,13,13,1,5,43,13,43,1,3,0,0,0,0,0,0,0,0,0,0,0,0,0,0,0,0,0,0,0,0,0,0,0,0,0,0,0,0,0,0,0,0,0],"split_type":[0,0,0,0,0,0,0,0,0,0,0,0,0,0,0,0,0,0,0,0,0,0,0,0,0,0,0,0,0,0,0,0,0,0,0,0,0,0,0,0,0,0,0,0,0,0,0,0,0,0,0,0,0,0,0,0,0,0,0,0,0,0,0],"sum_hessian":[7.85781E5,6.56936E5,1.28845E5,3.92213E5,2.64723E5,1.11142E5,1.7703E4,2.18114E5,1.74099E5,1.73461E5,9.1262E4,7.2449E4,3.8693E4,1.4682E4,3.021E3,8.3201E4,1.34913E5,4.635E4,1.27749E5,1.40739E5,3.2722E4,1.8453E4,7.2809E4,5.8781E4,1.3668E4,9.005E3,2.9688E4,8.447E3,6.235E3,2.935E3,8.6E1,5.1526E4,3.1675E4,4.7554E4,8.7359E4,4.3903E4,2.447E3,3.92E4,8.8549E4,1.23644E5,1.7095E4,3.166E4,1.062E3,9.889E3,8.564E3,6.7407E4,5.402E3,3.9231E4,1.955E4,1.1727E4,1.941E3,8.144E3,8.61E2,2.792E4,1.768E3,7.938E3,5.09E2,9.15E2,5.32E3,1.717E3,1.218E3,8.4E1,2E0],"tree_param":{"num_deleted":"0","num_feature":"56","num_nodes":"63","size_leaf_vector":"1"}},{"base_weights":[5.1270824E-2,-3.2399835E2,8.9697455E2,-5.923E2,3.4747477E0,6.667446E2,2.407123E3,-8.1015625E2,-2.9990536E2,-3.7865854E2,2.6773474E2,2.6181592E2,1.1961785E3,2.019969E3,3.7651536E3,-1.1026387E3,-7.018065E2,-6.918248E2,-9.943165E1,4.300839E1,-5.5119836E2,9.4772095E2,1.129787E2,8.693892E1,6.470047E2,2.3367668E3,1.01410175E3,1.4513369E3,2.825389E3,3.6466057E3,9.156134E3,-5.7982777E1,7.239464E0,-3.635264E1,1.8389008E0,-1.7436922E1,-5.2278316E1,-3.3647232E1,1.6285647E0,-4.5702236E1,1.0206701E1,-3.0459171E1,2.0515306E1,4.2269676E1,1.559423E2,2.3965502E0,6.84297E1,1.9123833E-1,4.0092228E1,3.647368E1,-6.9171776E1,1.090924E2,2.9975085E2,4.5444828E1,1.2007886E2,8.100002E1,-6.8198616E1,2.5230579E2,1.24312645E2,1.5045062E2,2.2746996E2,4.8985455E2,-3.1048307E1],"categories":[],"categories_nodes":[],"categories_segments":[],"categories_sizes":[],"default_left":[0,0,0,0,0,0,0,0,0,0,0,0,0,0,0,0,0,0,0,0,0,0,0,0,0,0,0,0,0,0,0,0,0,0,0,0,0,0,0,0,0,0,0,0,0,0,0,0,0,0,0,0,0,0,0,0,0,0,0,0,0,0,0],"id":25,"left_children":[1,3,5,7,9,11,13,15,17,19,21,23,25,27,29,31,33,35,37,39,41,43,45,47,49,51,53,55,57,59,61,-1,-1,-1,-1,-1,-1,-1,-1,-1,-1,-1,-1,-1,-1,-1,-1,-1,-1,-1,-1,-1,-1,-1,-1,-1,-1,-1,-1,-1,-1,-1,-1],"loss_changes":[2.2838598E11,5.0716692E10,7.250698E10,2.0210622E10,2.6250815E10,3.8794854E10,1.4497268E10,5.7610076E9,1.0643592E10,7.7319905E9,1.6171838E10,6.9070377E9,1.6284295E10,9.828893E9,3.8772E9,3.4955796E9,2.473861E9,5.563441E9,6.7851187E9,4.758977E9,4.2049106E9,6.327085E9,1.0224732E10,4.190387E9,5.3621985E9,6.104793E9,9.869746E9,5.9790254E9,6.6782577E9,3.4336686E9,8.2702234E8,0E0,0E0,0E0,0E0,0E0,0E0,0E0,0E0,0E0,0E0,0E0,0E0,0E0,0E0,0E0,0E0,0E0,0E0,0E0,0E0,0E0,0E0,0E0,0E0,0E0,0E0,0E0,0E0,0E0,0E0,0E0,0E0],"parents":[2147483647,0,0,1,1,2,2,3,3,4,4,5,5,6,6,7,7,8,8,9,9,10,10,11,11,12,12,13,13,14,14,15,15,16,16,17,17,18,18,19,19,20,20,21,21,22,22,23,23,24,24,25,25,26,26,27,27,28,28,29,29,30,30],"right_children":[2,4,6,8,10,12,14,16,18,20,22,24,26,28,30,32,34,36,38,40,42,44,46,48,50,52,54,56,58,60,62,-1,-1,-1,-1,-1,-1,-1,-1,-1,-1,-1,-1,-1,-1,-1,-1,-1,-1,-1,-1,-1,-1,-1,-1,-1,-1,-1,